digraph Tree {
node [shape=box, style="filled, rounded", color="black", fontname=helvetica] ;
edge [fontname=helvetica] ;
0 [label="no prominent effect <= 0.5\ngini = 0.667\nsamples = 3123\nvalue = [1041, 1041, 1041]", fillcolor="#ffffff"] ;
1 [label="Age (yr) <= 0.424\ngini = 0.634\nsamples = 1568\nvalue = [348, 480, 740]", fillcolor="#e1d0f9"] ;
0 -> 1 [labeldistance=2.5, labelangle=45, headlabel="True"] ;
2 [label="Respratory distress <= 0.5\ngini = 0.663\nsamples = 920\nvalue = [263, 336, 321]", fillcolor="#fafefc"] ;
1 -> 2 ;
3 [label="fever <= 0.5\ngini = 0.655\nsamples = 699\nvalue = [238, 284, 177]", fillcolor="#ebfcf2"] ;
2 -> 3 ;
4 [label="weakness <= 0.5\ngini = 0.65\nsamples = 455\nvalue = [190, 158, 107]", fillcolor="#fcf1ea"] ;
3 -> 4 ;
5 [label="chest pain <= 0.5\ngini = 0.623\nsamples = 318\nvalue = [155, 102, 61]", fillcolor="#f9e0ce"] ;
4 -> 5 ;
6 [label="sPO2% <= 0.958\ngini = 0.579\nsamples = 229\nvalue = [125, 75, 29]", fillcolor="#f7d6bf"] ;
5 -> 6 ;
7 [label="No risk factor <= 0.5\ngini = 0.545\nsamples = 203\nvalue = [116, 71, 16]", fillcolor="#f6d4bc"] ;
6 -> 7 ;
8 [label="prolonged fever/dyspnea/cough <= 0.5\ngini = 0.583\nsamples = 102\nvalue = [47, 45, 10]", fillcolor="#fefbf8"] ;
7 -> 8 ;
9 [label="hypertension <= 0.5\ngini = 0.463\nsamples = 33\nvalue = [21, 12, 0]", fillcolor="#f4c9aa"] ;
8 -> 9 ;
10 [label="chill <= 0.5\ngini = 0.451\nsamples = 32\nvalue = [21, 11, 0]", fillcolor="#f3c3a1"] ;
9 -> 10 ;
11 [label="nausea/vomiting <= 0.5\ngini = 0.408\nsamples = 28\nvalue = [20, 8, 0]", fillcolor="#efb388"] ;
10 -> 11 ;
12 [label="cough <= 0.5\ngini = 0.463\nsamples = 22\nvalue = [14, 8, 0]", fillcolor="#f4c9aa"] ;
11 -> 12 ;
13 [label="diabetes melitus <= 0.5\ngini = 0.397\nsamples = 11\nvalue = [8, 3, 0]", fillcolor="#efb083"] ;
12 -> 13 ;
14 [label="sPO2% <= 0.875\ngini = 0.42\nsamples = 10\nvalue = [7, 3, 0]", fillcolor="#f0b78e"] ;
13 -> 14 ;
15 [label="gini = 0.0\nsamples = 3\nvalue = [3, 0, 0]", fillcolor="#e58139"] ;
14 -> 15 ;
16 [label="respiratory rate <= 0.327\ngini = 0.49\nsamples = 7\nvalue = [4, 3, 0]", fillcolor="#f8e0ce"] ;
14 -> 16 ;
17 [label="Duration of starting complaints <= 0.167\ngini = 0.444\nsamples = 6\nvalue = [4, 2, 0]", fillcolor="#f2c09c"] ;
16 -> 17 ;
18 [label="gini = 0.444\nsamples = 3\nvalue = [2, 1, 0]", fillcolor="#f2c09c"] ;
17 -> 18 ;
19 [label="gini = 0.444\nsamples = 3\nvalue = [2, 1, 0]", fillcolor="#f2c09c"] ;
17 -> 19 ;
20 [label="gini = 0.0\nsamples = 1\nvalue = [0, 1, 0]", fillcolor="#39e581"] ;
16 -> 20 ;
21 [label="gini = 0.0\nsamples = 1\nvalue = [1, 0, 0]", fillcolor="#e58139"] ;
13 -> 21 ;
22 [label="respiratory rate <= 0.269\ngini = 0.496\nsamples = 11\nvalue = [6, 5, 0]", fillcolor="#fbeade"] ;
12 -> 22 ;
23 [label="gini = 0.375\nsamples = 4\nvalue = [3, 1, 0]", fillcolor="#eeab7b"] ;
22 -> 23 ;
24 [label="respiratory rate <= 0.346\ngini = 0.49\nsamples = 7\nvalue = [3, 4, 0]", fillcolor="#cef8e0"] ;
22 -> 24 ;
25 [label="gini = 0.375\nsamples = 4\nvalue = [1, 3, 0]", fillcolor="#7beeab"] ;
24 -> 25 ;
26 [label="gini = 0.444\nsamples = 3\nvalue = [2, 1, 0]", fillcolor="#f2c09c"] ;
24 -> 26 ;
27 [label="gini = 0.0\nsamples = 6\nvalue = [6, 0, 0]", fillcolor="#e58139"] ;
11 -> 27 ;
28 [label="gini = 0.375\nsamples = 4\nvalue = [1, 3, 0]", fillcolor="#7beeab"] ;
10 -> 28 ;
29 [label="gini = 0.0\nsamples = 1\nvalue = [0, 1, 0]", fillcolor="#39e581"] ;
9 -> 29 ;
30 [label="nausea/vomiting <= 0.5\ngini = 0.608\nsamples = 69\nvalue = [26, 33, 10]", fillcolor="#dffbea"] ;
8 -> 30 ;
31 [label="Duration of starting complaints <= 0.167\ngini = 0.618\nsamples = 62\nvalue = [23, 29, 10]", fillcolor="#e1fbec"] ;
30 -> 31 ;
32 [label="hypertension <= 0.5\ngini = 0.64\nsamples = 22\nvalue = [7, 5, 10]", fillcolor="#e6d7fa"] ;
31 -> 32 ;
33 [label="respiratory rate <= 0.365\ngini = 0.625\nsamples = 20\nvalue = [5, 5, 10]", fillcolor="#d5bdf6"] ;
32 -> 33 ;
34 [label="respiratory rate <= 0.25\ngini = 0.469\nsamples = 8\nvalue = [5, 3, 0]", fillcolor="#f5cdb0"] ;
33 -> 34 ;
35 [label="gini = 0.0\nsamples = 2\nvalue = [0, 2, 0]", fillcolor="#39e581"] ;
34 -> 35 ;
36 [label="Age (yr) <= 0.297\ngini = 0.278\nsamples = 6\nvalue = [5, 1, 0]", fillcolor="#ea9a61"] ;
34 -> 36 ;
37 [label="gini = 0.0\nsamples = 4\nvalue = [4, 0, 0]", fillcolor="#e58139"] ;
36 -> 37 ;
38 [label="gini = 0.5\nsamples = 2\nvalue = [1, 1, 0]", fillcolor="#ffffff"] ;
36 -> 38 ;
39 [label="anorexia <= 0.5\ngini = 0.278\nsamples = 12\nvalue = [0, 2, 10]", fillcolor="#9a61ea"] ;
33 -> 39 ;
40 [label="Age (yr) <= 0.233\ngini = 0.165\nsamples = 11\nvalue = [0, 1, 10]", fillcolor="#8e4de8"] ;
39 -> 40 ;
41 [label="gini = 0.0\nsamples = 10\nvalue = [0, 0, 10]", fillcolor="#8139e5"] ;
40 -> 41 ;
42 [label="gini = 0.0\nsamples = 1\nvalue = [0, 1, 0]", fillcolor="#39e581"] ;
40 -> 42 ;
43 [label="gini = 0.0\nsamples = 1\nvalue = [0, 1, 0]", fillcolor="#39e581"] ;
39 -> 43 ;
44 [label="gini = 0.0\nsamples = 2\nvalue = [2, 0, 0]", fillcolor="#e58139"] ;
32 -> 44 ;
45 [label="sPO2% <= 0.903\ngini = 0.48\nsamples = 40\nvalue = [16, 24, 0]", fillcolor="#bdf6d5"] ;
31 -> 45 ;
46 [label="respiratory rate <= 0.269\ngini = 0.245\nsamples = 14\nvalue = [2, 12, 0]", fillcolor="#5ae996"] ;
45 -> 46 ;
47 [label="gini = 0.0\nsamples = 3\nvalue = [0, 3, 0]", fillcolor="#39e581"] ;
46 -> 47 ;
48 [label="Age (yr) <= 0.227\ngini = 0.298\nsamples = 11\nvalue = [2, 9, 0]", fillcolor="#65eb9d"] ;
46 -> 48 ;
49 [label="gini = 0.5\nsamples = 4\nvalue = [2, 2, 0]", fillcolor="#ffffff"] ;
48 -> 49 ;
50 [label="gini = 0.0\nsamples = 7\nvalue = [0, 7, 0]", fillcolor="#39e581"] ;
48 -> 50 ;
51 [label="Duration of starting complaints <= 0.5\ngini = 0.497\nsamples = 26\nvalue = [14, 12, 0]", fillcolor="#fbede3"] ;
45 -> 51 ;
52 [label="sPO2% <= 0.931\ngini = 0.473\nsamples = 13\nvalue = [5, 8, 0]", fillcolor="#b5f5d0"] ;
51 -> 52 ;
53 [label="headache <= 0.5\ngini = 0.32\nsamples = 5\nvalue = [1, 4, 0]", fillcolor="#6aeca0"] ;
52 -> 53 ;
54 [label="gini = 0.444\nsamples = 3\nvalue = [1, 2, 0]", fillcolor="#9cf2c0"] ;
53 -> 54 ;
55 [label="gini = 0.0\nsamples = 2\nvalue = [0, 2, 0]", fillcolor="#39e581"] ;
53 -> 55 ;
56 [label="cough <= 0.5\ngini = 0.5\nsamples = 8\nvalue = [4, 4, 0]", fillcolor="#ffffff"] ;
52 -> 56 ;
57 [label="gini = 0.444\nsamples = 3\nvalue = [2, 1, 0]", fillcolor="#f2c09c"] ;
56 -> 57 ;
58 [label="respiratory rate <= 0.269\ngini = 0.48\nsamples = 5\nvalue = [2, 3, 0]", fillcolor="#bdf6d5"] ;
56 -> 58 ;
59 [label="gini = 0.0\nsamples = 2\nvalue = [2, 0, 0]", fillcolor="#e58139"] ;
58 -> 59 ;
60 [label="gini = 0.0\nsamples = 3\nvalue = [0, 3, 0]", fillcolor="#39e581"] ;
58 -> 60 ;
61 [label="Age (yr) <= 0.372\ngini = 0.426\nsamples = 13\nvalue = [9, 4, 0]", fillcolor="#f1b991"] ;
51 -> 61 ;
62 [label="dyspnea <= 0.5\ngini = 0.219\nsamples = 8\nvalue = [7, 1, 0]", fillcolor="#e99355"] ;
61 -> 62 ;
63 [label="gini = 0.5\nsamples = 2\nvalue = [1, 1, 0]", fillcolor="#ffffff"] ;
62 -> 63 ;
64 [label="gini = 0.0\nsamples = 6\nvalue = [6, 0, 0]", fillcolor="#e58139"] ;
62 -> 64 ;
65 [label="diabetes melitus <= 0.5\ngini = 0.48\nsamples = 5\nvalue = [2, 3, 0]", fillcolor="#bdf6d5"] ;
61 -> 65 ;
66 [label="gini = 0.5\nsamples = 4\nvalue = [2, 2, 0]", fillcolor="#ffffff"] ;
65 -> 66 ;
67 [label="gini = 0.0\nsamples = 1\nvalue = [0, 1, 0]", fillcolor="#39e581"] ;
65 -> 67 ;
68 [label="body pain <= 0.5\ngini = 0.49\nsamples = 7\nvalue = [3, 4, 0]", fillcolor="#cef8e0"] ;
30 -> 68 ;
69 [label="anorexia <= 0.5\ngini = 0.48\nsamples = 5\nvalue = [2, 3, 0]", fillcolor="#bdf6d5"] ;
68 -> 69 ;
70 [label="gini = 0.5\nsamples = 4\nvalue = [2, 2, 0]", fillcolor="#ffffff"] ;
69 -> 70 ;
71 [label="gini = 0.0\nsamples = 1\nvalue = [0, 1, 0]", fillcolor="#39e581"] ;
69 -> 71 ;
72 [label="gini = 0.5\nsamples = 2\nvalue = [1, 1, 0]", fillcolor="#ffffff"] ;
68 -> 72 ;
73 [label="headache <= 0.5\ngini = 0.463\nsamples = 101\nvalue = [69, 26, 6]", fillcolor="#f0b78d"] ;
7 -> 73 ;
74 [label="respiratory rate <= 0.288\ngini = 0.461\nsamples = 90\nvalue = [62, 22, 6]", fillcolor="#f0b58b"] ;
73 -> 74 ;
75 [label="anorexia <= 0.5\ngini = 0.611\nsamples = 40\nvalue = [19, 15, 6]", fillcolor="#fbebdf"] ;
74 -> 75 ;
76 [label="dyspnea <= 0.5\ngini = 0.619\nsamples = 37\nvalue = [17, 14, 6]", fillcolor="#fcefe5"] ;
75 -> 76 ;
77 [label="chill <= 0.5\ngini = 0.408\nsamples = 21\nvalue = [15, 6, 0]", fillcolor="#efb388"] ;
76 -> 77 ;
78 [label="sPO2% <= 0.875\ngini = 0.375\nsamples = 20\nvalue = [15, 5, 0]", fillcolor="#eeab7b"] ;
77 -> 78 ;
79 [label="gini = 0.0\nsamples = 4\nvalue = [4, 0, 0]", fillcolor="#e58139"] ;
78 -> 79 ;
80 [label="Age (yr) <= 0.227\ngini = 0.43\nsamples = 16\nvalue = [11, 5, 0]", fillcolor="#f1ba93"] ;
78 -> 80 ;
81 [label="gini = 0.444\nsamples = 3\nvalue = [1, 2, 0]", fillcolor="#9cf2c0"] ;
80 -> 81 ;
82 [label="body pain <= 0.5\ngini = 0.355\nsamples = 13\nvalue = [10, 3, 0]", fillcolor="#eda774"] ;
80 -> 82 ;
83 [label="cough <= 0.5\ngini = 0.298\nsamples = 11\nvalue = [9, 2, 0]", fillcolor="#eb9d65"] ;
82 -> 83 ;
84 [label="respiratory rate <= 0.25\ngini = 0.408\nsamples = 7\nvalue = [5, 2, 0]", fillcolor="#efb388"] ;
83 -> 84 ;
85 [label="Age (yr) <= 0.25\ngini = 0.32\nsamples = 5\nvalue = [4, 1, 0]", fillcolor="#eca06a"] ;
84 -> 85 ;
86 [label="gini = 0.0\nsamples = 2\nvalue = [2, 0, 0]", fillcolor="#e58139"] ;
85 -> 86 ;
87 [label="gini = 0.444\nsamples = 3\nvalue = [2, 1, 0]", fillcolor="#f2c09c"] ;
85 -> 87 ;
88 [label="gini = 0.5\nsamples = 2\nvalue = [1, 1, 0]", fillcolor="#ffffff"] ;
84 -> 88 ;
89 [label="gini = 0.0\nsamples = 4\nvalue = [4, 0, 0]", fillcolor="#e58139"] ;
83 -> 89 ;
90 [label="gini = 0.5\nsamples = 2\nvalue = [1, 1, 0]", fillcolor="#ffffff"] ;
82 -> 90 ;
91 [label="gini = 0.0\nsamples = 1\nvalue = [0, 1, 0]", fillcolor="#39e581"] ;
77 -> 91 ;
92 [label="respiratory rate <= 0.25\ngini = 0.594\nsamples = 16\nvalue = [2, 8, 6]", fillcolor="#d7fae6"] ;
76 -> 92 ;
93 [label="Age (yr) <= 0.157\ngini = 0.32\nsamples = 10\nvalue = [2, 8, 0]", fillcolor="#6aeca0"] ;
92 -> 93 ;
94 [label="gini = 0.5\nsamples = 2\nvalue = [1, 1, 0]", fillcolor="#ffffff"] ;
93 -> 94 ;
95 [label="Duration of starting complaints <= 0.833\ngini = 0.219\nsamples = 8\nvalue = [1, 7, 0]", fillcolor="#55e993"] ;
93 -> 95 ;
96 [label="gini = 0.0\nsamples = 6\nvalue = [0, 6, 0]", fillcolor="#39e581"] ;
95 -> 96 ;
97 [label="gini = 0.5\nsamples = 2\nvalue = [1, 1, 0]", fillcolor="#ffffff"] ;
95 -> 97 ;
98 [label="gini = 0.0\nsamples = 6\nvalue = [0, 0, 6]", fillcolor="#8139e5"] ;
92 -> 98 ;
99 [label="gini = 0.444\nsamples = 3\nvalue = [2, 1, 0]", fillcolor="#f2c09c"] ;
75 -> 99 ;
100 [label="prolonged fever/dyspnea/cough <= 0.5\ngini = 0.241\nsamples = 50\nvalue = [43, 7, 0]", fillcolor="#e99659"] ;
74 -> 100 ;
101 [label="dyspnea <= 0.5\ngini = 0.117\nsamples = 16\nvalue = [15, 1, 0]", fillcolor="#e78946"] ;
100 -> 101 ;
102 [label="gini = 0.0\nsamples = 13\nvalue = [13, 0, 0]", fillcolor="#e58139"] ;
101 -> 102 ;
103 [label="gini = 0.444\nsamples = 3\nvalue = [2, 1, 0]", fillcolor="#f2c09c"] ;
101 -> 103 ;
104 [label="anorexia <= 0.5\ngini = 0.291\nsamples = 34\nvalue = [28, 6, 0]", fillcolor="#eb9c63"] ;
100 -> 104 ;
105 [label="dyspnea <= 0.5\ngini = 0.32\nsamples = 30\nvalue = [24, 6, 0]", fillcolor="#eca06a"] ;
104 -> 105 ;
106 [label="cough <= 0.5\ngini = 0.219\nsamples = 16\nvalue = [14, 2, 0]", fillcolor="#e99355"] ;
105 -> 106 ;
107 [label="gini = 0.5\nsamples = 2\nvalue = [1, 1, 0]", fillcolor="#ffffff"] ;
106 -> 107 ;
108 [label="respiratory rate <= 0.327\ngini = 0.133\nsamples = 14\nvalue = [13, 1, 0]", fillcolor="#e78b48"] ;
106 -> 108 ;
109 [label="Age (yr) <= 0.326\ngini = 0.142\nsamples = 13\nvalue = [12, 1, 0]", fillcolor="#e78c49"] ;
108 -> 109 ;
110 [label="gini = 0.0\nsamples = 10\nvalue = [10, 0, 0]", fillcolor="#e58139"] ;
109 -> 110 ;
111 [label="gini = 0.444\nsamples = 3\nvalue = [2, 1, 0]", fillcolor="#f2c09c"] ;
109 -> 111 ;
112 [label="gini = 0.0\nsamples = 1\nvalue = [1, 0, 0]", fillcolor="#e58139"] ;
108 -> 112 ;
113 [label="Age (yr) <= 0.262\ngini = 0.408\nsamples = 14\nvalue = [10, 4, 0]", fillcolor="#efb388"] ;
105 -> 113 ;
114 [label="sPO2% <= 0.875\ngini = 0.49\nsamples = 7\nvalue = [3, 4, 0]", fillcolor="#cef8e0"] ;
113 -> 114 ;
115 [label="gini = 0.0\nsamples = 2\nvalue = [2, 0, 0]", fillcolor="#e58139"] ;
114 -> 115 ;
116 [label="chill <= 0.5\ngini = 0.32\nsamples = 5\nvalue = [1, 4, 0]", fillcolor="#6aeca0"] ;
114 -> 116 ;
117 [label="gini = 0.444\nsamples = 3\nvalue = [1, 2, 0]", fillcolor="#9cf2c0"] ;
116 -> 117 ;
118 [label="gini = 0.0\nsamples = 2\nvalue = [0, 2, 0]", fillcolor="#39e581"] ;
116 -> 118 ;
119 [label="gini = 0.0\nsamples = 7\nvalue = [7, 0, 0]", fillcolor="#e58139"] ;
113 -> 119 ;
120 [label="gini = 0.0\nsamples = 4\nvalue = [4, 0, 0]", fillcolor="#e58139"] ;
104 -> 120 ;
121 [label="chill <= 0.5\ngini = 0.463\nsamples = 11\nvalue = [7, 4, 0]", fillcolor="#f4c9aa"] ;
73 -> 121 ;
122 [label="sPO2% <= 0.847\ngini = 0.48\nsamples = 10\nvalue = [6, 4, 0]", fillcolor="#f6d5bd"] ;
121 -> 122 ;
123 [label="gini = 0.0\nsamples = 1\nvalue = [0, 1, 0]", fillcolor="#39e581"] ;
122 -> 123 ;
124 [label="prolonged fever/dyspnea/cough <= 0.5\ngini = 0.444\nsamples = 9\nvalue = [6, 3, 0]", fillcolor="#f2c09c"] ;
122 -> 124 ;
125 [label="respiratory rate <= 0.192\ngini = 0.444\nsamples = 6\nvalue = [4, 2, 0]", fillcolor="#f2c09c"] ;
124 -> 125 ;
126 [label="gini = 0.0\nsamples = 1\nvalue = [1, 0, 0]", fillcolor="#e58139"] ;
125 -> 126 ;
127 [label="cough <= 0.5\ngini = 0.48\nsamples = 5\nvalue = [3, 2, 0]", fillcolor="#f6d5bd"] ;
125 -> 127 ;
128 [label="gini = 0.0\nsamples = 2\nvalue = [0, 2, 0]", fillcolor="#39e581"] ;
127 -> 128 ;
129 [label="gini = 0.0\nsamples = 3\nvalue = [3, 0, 0]", fillcolor="#e58139"] ;
127 -> 129 ;
130 [label="gini = 0.444\nsamples = 3\nvalue = [2, 1, 0]", fillcolor="#f2c09c"] ;
124 -> 130 ;
131 [label="gini = 0.0\nsamples = 1\nvalue = [1, 0, 0]", fillcolor="#e58139"] ;
121 -> 131 ;
132 [label="No risk factor <= 0.5\ngini = 0.607\nsamples = 26\nvalue = [9, 4, 13]", fillcolor="#e1d0f9"] ;
6 -> 132 ;
133 [label="Age (yr) <= 0.227\ngini = 0.245\nsamples = 7\nvalue = [6, 1, 0]", fillcolor="#e9965a"] ;
132 -> 133 ;
134 [label="gini = 0.5\nsamples = 2\nvalue = [1, 1, 0]", fillcolor="#ffffff"] ;
133 -> 134 ;
135 [label="gini = 0.0\nsamples = 5\nvalue = [5, 0, 0]", fillcolor="#e58139"] ;
133 -> 135 ;
136 [label="dyspnea <= 0.5\ngini = 0.482\nsamples = 19\nvalue = [3, 3, 13]", fillcolor="#b083ef"] ;
132 -> 136 ;
137 [label="gini = 0.5\nsamples = 4\nvalue = [2, 2, 0]", fillcolor="#ffffff"] ;
136 -> 137 ;
138 [label="Age (yr) <= 0.314\ngini = 0.24\nsamples = 15\nvalue = [1, 1, 13]", fillcolor="#9355e9"] ;
136 -> 138 ;
139 [label="gini = 0.5\nsamples = 2\nvalue = [1, 1, 0]", fillcolor="#ffffff"] ;
138 -> 139 ;
140 [label="gini = 0.0\nsamples = 13\nvalue = [0, 0, 13]", fillcolor="#8139e5"] ;
138 -> 140 ;
141 [label="Duration of starting complaints <= 0.167\ngini = 0.665\nsamples = 89\nvalue = [30, 27, 32]", fillcolor="#fbf8fe"] ;
5 -> 141 ;
142 [label="diabetes melitus <= 0.5\ngini = 0.547\nsamples = 39\nvalue = [7, 8, 24]", fillcolor="#be99f2"] ;
141 -> 142 ;
143 [label="dyspnea <= 0.5\ngini = 0.533\nsamples = 38\nvalue = [7, 7, 24]", fillcolor="#ba92f1"] ;
142 -> 143 ;
144 [label="Age (yr) <= 0.198\ngini = 0.444\nsamples = 6\nvalue = [2, 4, 0]", fillcolor="#9cf2c0"] ;
143 -> 144 ;
145 [label="gini = 0.0\nsamples = 1\nvalue = [0, 1, 0]", fillcolor="#39e581"] ;
144 -> 145 ;
146 [label="respiratory rate <= 0.269\ngini = 0.48\nsamples = 5\nvalue = [2, 3, 0]", fillcolor="#bdf6d5"] ;
144 -> 146 ;
147 [label="gini = 0.0\nsamples = 1\nvalue = [1, 0, 0]", fillcolor="#e58139"] ;
146 -> 147 ;
148 [label="gini = 0.375\nsamples = 4\nvalue = [1, 3, 0]", fillcolor="#7beeab"] ;
146 -> 148 ;
149 [label="sPO2% <= 0.903\ngini = 0.404\nsamples = 32\nvalue = [5, 3, 24]", fillcolor="#a674ed"] ;
143 -> 149 ;
150 [label="sPO2% <= 0.778\ngini = 0.203\nsamples = 27\nvalue = [2, 1, 24]", fillcolor="#9051e8"] ;
149 -> 150 ;
151 [label="gini = 0.0\nsamples = 8\nvalue = [0, 0, 8]", fillcolor="#8139e5"] ;
150 -> 151 ;
152 [label="Age (yr) <= 0.331\ngini = 0.277\nsamples = 19\nvalue = [2, 1, 16]", fillcolor="#975cea"] ;
150 -> 152 ;
153 [label="headache <= 0.5\ngini = 0.111\nsamples = 17\nvalue = [0, 1, 16]", fillcolor="#8945e7"] ;
152 -> 153 ;
154 [label="gini = 0.0\nsamples = 16\nvalue = [0, 0, 16]", fillcolor="#8139e5"] ;
153 -> 154 ;
155 [label="gini = 0.0\nsamples = 1\nvalue = [0, 1, 0]", fillcolor="#39e581"] ;
153 -> 155 ;
156 [label="gini = 0.0\nsamples = 2\nvalue = [2, 0, 0]", fillcolor="#e58139"] ;
152 -> 156 ;
157 [label="prolonged fever/dyspnea/cough <= 0.5\ngini = 0.48\nsamples = 5\nvalue = [3, 2, 0]", fillcolor="#f6d5bd"] ;
149 -> 157 ;
158 [label="gini = 0.0\nsamples = 1\nvalue = [0, 1, 0]", fillcolor="#39e581"] ;
157 -> 158 ;
159 [label="gini = 0.375\nsamples = 4\nvalue = [3, 1, 0]", fillcolor="#eeab7b"] ;
157 -> 159 ;
160 [label="gini = 0.0\nsamples = 1\nvalue = [0, 1, 0]", fillcolor="#39e581"] ;
142 -> 160 ;
161 [label="diabetes melitus <= 0.5\ngini = 0.618\nsamples = 50\nvalue = [23, 19, 8]", fillcolor="#fcefe5"] ;
141 -> 161 ;
162 [label="headache <= 0.5\ngini = 0.497\nsamples = 39\nvalue = [21, 18, 0]", fillcolor="#fbede3"] ;
161 -> 162 ;
163 [label="hypertension <= 0.5\ngini = 0.484\nsamples = 34\nvalue = [20, 14, 0]", fillcolor="#f7d9c4"] ;
162 -> 163 ;
164 [label="prolonged fever/dyspnea/cough <= 0.5\ngini = 0.478\nsamples = 33\nvalue = [20, 13, 0]", fillcolor="#f6d3ba"] ;
163 -> 164 ;
165 [label="dyspnea <= 0.5\ngini = 0.444\nsamples = 6\nvalue = [4, 2, 0]", fillcolor="#f2c09c"] ;
164 -> 165 ;
166 [label="gini = 0.0\nsamples = 1\nvalue = [1, 0, 0]", fillcolor="#e58139"] ;
165 -> 166 ;
167 [label="Duration of starting complaints <= 0.5\ngini = 0.48\nsamples = 5\nvalue = [3, 2, 0]", fillcolor="#f6d5bd"] ;
165 -> 167 ;
168 [label="gini = 0.5\nsamples = 2\nvalue = [1, 1, 0]", fillcolor="#ffffff"] ;
167 -> 168 ;
169 [label="gini = 0.444\nsamples = 3\nvalue = [2, 1, 0]", fillcolor="#f2c09c"] ;
167 -> 169 ;
170 [label="Age (yr) <= 0.192\ngini = 0.483\nsamples = 27\nvalue = [16, 11, 0]", fillcolor="#f7d8c1"] ;
164 -> 170 ;
171 [label="gini = 0.0\nsamples = 2\nvalue = [0, 2, 0]", fillcolor="#39e581"] ;
170 -> 171 ;
172 [label="No risk factor <= 0.5\ngini = 0.461\nsamples = 25\nvalue = [16, 9, 0]", fillcolor="#f4c8a8"] ;
170 -> 172 ;
173 [label="dyspnea <= 0.5\ngini = 0.469\nsamples = 8\nvalue = [3, 5, 0]", fillcolor="#b0f5cd"] ;
172 -> 173 ;
174 [label="gini = 0.444\nsamples = 3\nvalue = [1, 2, 0]", fillcolor="#9cf2c0"] ;
173 -> 174 ;
175 [label="chill <= 0.5\ngini = 0.48\nsamples = 5\nvalue = [2, 3, 0]", fillcolor="#bdf6d5"] ;
173 -> 175 ;
176 [label="gini = 0.5\nsamples = 4\nvalue = [2, 2, 0]", fillcolor="#ffffff"] ;
175 -> 176 ;
177 [label="gini = 0.0\nsamples = 1\nvalue = [0, 1, 0]", fillcolor="#39e581"] ;
175 -> 177 ;
178 [label="Duration of starting complaints <= 0.5\ngini = 0.36\nsamples = 17\nvalue = [13, 4, 0]", fillcolor="#eda876"] ;
172 -> 178 ;
179 [label="respiratory rate <= 0.288\ngini = 0.278\nsamples = 6\nvalue = [5, 1, 0]", fillcolor="#ea9a61"] ;
178 -> 179 ;
180 [label="gini = 0.0\nsamples = 3\nvalue = [3, 0, 0]", fillcolor="#e58139"] ;
179 -> 180 ;
181 [label="gini = 0.444\nsamples = 3\nvalue = [2, 1, 0]", fillcolor="#f2c09c"] ;
179 -> 181 ;
182 [label="Age (yr) <= 0.36\ngini = 0.397\nsamples = 11\nvalue = [8, 3, 0]", fillcolor="#efb083"] ;
178 -> 182 ;
183 [label="Age (yr) <= 0.238\ngini = 0.32\nsamples = 10\nvalue = [8, 2, 0]", fillcolor="#eca06a"] ;
182 -> 183 ;
184 [label="gini = 0.5\nsamples = 2\nvalue = [1, 1, 0]", fillcolor="#ffffff"] ;
183 -> 184 ;
185 [label="nausea/vomiting <= 0.5\ngini = 0.219\nsamples = 8\nvalue = [7, 1, 0]", fillcolor="#e99355"] ;
183 -> 185 ;
186 [label="respiratory rate <= 0.327\ngini = 0.278\nsamples = 6\nvalue = [5, 1, 0]", fillcolor="#ea9a61"] ;
185 -> 186 ;
187 [label="gini = 0.444\nsamples = 3\nvalue = [2, 1, 0]", fillcolor="#f2c09c"] ;
186 -> 187 ;
188 [label="gini = 0.0\nsamples = 3\nvalue = [3, 0, 0]", fillcolor="#e58139"] ;
186 -> 188 ;
189 [label="gini = 0.0\nsamples = 2\nvalue = [2, 0, 0]", fillcolor="#e58139"] ;
185 -> 189 ;
190 [label="gini = 0.0\nsamples = 1\nvalue = [0, 1, 0]", fillcolor="#39e581"] ;
182 -> 190 ;
191 [label="gini = 0.0\nsamples = 1\nvalue = [0, 1, 0]", fillcolor="#39e581"] ;
163 -> 191 ;
192 [label="chill <= 0.5\ngini = 0.32\nsamples = 5\nvalue = [1, 4, 0]", fillcolor="#6aeca0"] ;
162 -> 192 ;
193 [label="gini = 0.444\nsamples = 3\nvalue = [1, 2, 0]", fillcolor="#9cf2c0"] ;
192 -> 193 ;
194 [label="gini = 0.0\nsamples = 2\nvalue = [0, 2, 0]", fillcolor="#39e581"] ;
192 -> 194 ;
195 [label="body pain <= 0.5\ngini = 0.43\nsamples = 11\nvalue = [2, 1, 8]", fillcolor="#ab7bee"] ;
161 -> 195 ;
196 [label="sPO2% <= 0.903\ngini = 0.198\nsamples = 9\nvalue = [0, 1, 8]", fillcolor="#9152e8"] ;
195 -> 196 ;
197 [label="gini = 0.0\nsamples = 8\nvalue = [0, 0, 8]", fillcolor="#8139e5"] ;
196 -> 197 ;
198 [label="gini = 0.0\nsamples = 1\nvalue = [0, 1, 0]", fillcolor="#39e581"] ;
196 -> 198 ;
199 [label="gini = 0.0\nsamples = 2\nvalue = [2, 0, 0]", fillcolor="#e58139"] ;
195 -> 199 ;
200 [label="cough <= 0.5\ngini = 0.655\nsamples = 137\nvalue = [35, 56, 46]", fillcolor="#e9fcf1"] ;
4 -> 200 ;
201 [label="sPO2% <= 0.903\ngini = 0.625\nsamples = 48\nvalue = [12, 12, 24]", fillcolor="#d5bdf6"] ;
200 -> 201 ;
202 [label="dyspnea <= 0.5\ngini = 0.398\nsamples = 32\nvalue = [6, 2, 24]", fillcolor="#a876ed"] ;
201 -> 202 ;
203 [label="sPO2% <= 0.875\ngini = 0.48\nsamples = 5\nvalue = [3, 2, 0]", fillcolor="#f6d5bd"] ;
202 -> 203 ;
204 [label="gini = 0.0\nsamples = 1\nvalue = [1, 0, 0]", fillcolor="#e58139"] ;
203 -> 204 ;
205 [label="gini = 0.5\nsamples = 4\nvalue = [2, 2, 0]", fillcolor="#ffffff"] ;
203 -> 205 ;
206 [label="anorexia <= 0.5\ngini = 0.198\nsamples = 27\nvalue = [3, 0, 24]", fillcolor="#9152e8"] ;
202 -> 206 ;
207 [label="Duration of starting complaints <= 0.167\ngini = 0.337\nsamples = 14\nvalue = [3, 0, 11]", fillcolor="#a36fec"] ;
206 -> 207 ;
208 [label="gini = 0.0\nsamples = 2\nvalue = [2, 0, 0]", fillcolor="#e58139"] ;
207 -> 208 ;
209 [label="Age (yr) <= 0.267\ngini = 0.153\nsamples = 12\nvalue = [1, 0, 11]", fillcolor="#8c4be7"] ;
207 -> 209 ;
210 [label="gini = 0.0\nsamples = 1\nvalue = [1, 0, 0]", fillcolor="#e58139"] ;
209 -> 210 ;
211 [label="gini = 0.0\nsamples = 11\nvalue = [0, 0, 11]", fillcolor="#8139e5"] ;
209 -> 211 ;
212 [label="gini = 0.0\nsamples = 13\nvalue = [0, 0, 13]", fillcolor="#8139e5"] ;
206 -> 212 ;
213 [label="anorexia <= 0.5\ngini = 0.469\nsamples = 16\nvalue = [6, 10, 0]", fillcolor="#b0f5cd"] ;
201 -> 213 ;
214 [label="Age (yr) <= 0.198\ngini = 0.48\nsamples = 15\nvalue = [6, 9, 0]", fillcolor="#bdf6d5"] ;
213 -> 214 ;
215 [label="gini = 0.0\nsamples = 4\nvalue = [0, 4, 0]", fillcolor="#39e581"] ;
214 -> 215 ;
216 [label="respiratory rate <= 0.192\ngini = 0.496\nsamples = 11\nvalue = [6, 5, 0]", fillcolor="#fbeade"] ;
214 -> 216 ;
217 [label="gini = 0.0\nsamples = 1\nvalue = [1, 0, 0]", fillcolor="#e58139"] ;
216 -> 217 ;
218 [label="chest pain <= 0.5\ngini = 0.5\nsamples = 10\nvalue = [5, 5, 0]", fillcolor="#ffffff"] ;
216 -> 218 ;
219 [label="body pain <= 0.5\ngini = 0.408\nsamples = 7\nvalue = [5, 2, 0]", fillcolor="#efb388"] ;
218 -> 219 ;
220 [label="Age (yr) <= 0.291\ngini = 0.278\nsamples = 6\nvalue = [5, 1, 0]", fillcolor="#ea9a61"] ;
219 -> 220 ;
221 [label="gini = 0.0\nsamples = 3\nvalue = [3, 0, 0]", fillcolor="#e58139"] ;
220 -> 221 ;
222 [label="gini = 0.444\nsamples = 3\nvalue = [2, 1, 0]", fillcolor="#f2c09c"] ;
220 -> 222 ;
223 [label="gini = 0.0\nsamples = 1\nvalue = [0, 1, 0]", fillcolor="#39e581"] ;
219 -> 223 ;
224 [label="gini = 0.0\nsamples = 3\nvalue = [0, 3, 0]", fillcolor="#39e581"] ;
218 -> 224 ;
225 [label="gini = 0.0\nsamples = 1\nvalue = [0, 1, 0]", fillcolor="#39e581"] ;
213 -> 225 ;
226 [label="Age (yr) <= 0.215\ngini = 0.628\nsamples = 89\nvalue = [23, 44, 22]", fillcolor="#c0f7d7"] ;
200 -> 226 ;
227 [label="sPO2% <= 0.875\ngini = 0.595\nsamples = 40\nvalue = [8, 10, 22]", fillcolor="#cdb0f5"] ;
226 -> 227 ;
228 [label="body pain <= 0.5\ngini = 0.153\nsamples = 24\nvalue = [2, 0, 22]", fillcolor="#8c4be7"] ;
227 -> 228 ;
229 [label="chest pain <= 0.5\ngini = 0.083\nsamples = 23\nvalue = [1, 0, 22]", fillcolor="#8742e6"] ;
228 -> 229 ;
230 [label="gini = 0.0\nsamples = 1\nvalue = [1, 0, 0]", fillcolor="#e58139"] ;
229 -> 230 ;
231 [label="gini = 0.0\nsamples = 22\nvalue = [0, 0, 22]", fillcolor="#8139e5"] ;
229 -> 231 ;
232 [label="gini = 0.0\nsamples = 1\nvalue = [1, 0, 0]", fillcolor="#e58139"] ;
228 -> 232 ;
233 [label="chest pain <= 0.5\ngini = 0.469\nsamples = 16\nvalue = [6, 10, 0]", fillcolor="#b0f5cd"] ;
227 -> 233 ;
234 [label="chill <= 0.5\ngini = 0.444\nsamples = 9\nvalue = [6, 3, 0]", fillcolor="#f2c09c"] ;
233 -> 234 ;
235 [label="dyspnea <= 0.5\ngini = 0.375\nsamples = 8\nvalue = [6, 2, 0]", fillcolor="#eeab7b"] ;
234 -> 235 ;
236 [label="gini = 0.0\nsamples = 4\nvalue = [4, 0, 0]", fillcolor="#e58139"] ;
235 -> 236 ;
237 [label="gini = 0.5\nsamples = 4\nvalue = [2, 2, 0]", fillcolor="#ffffff"] ;
235 -> 237 ;
238 [label="gini = 0.0\nsamples = 1\nvalue = [0, 1, 0]", fillcolor="#39e581"] ;
234 -> 238 ;
239 [label="gini = 0.0\nsamples = 7\nvalue = [0, 7, 0]", fillcolor="#39e581"] ;
233 -> 239 ;
240 [label="chill <= 0.5\ngini = 0.425\nsamples = 49\nvalue = [15, 34, 0]", fillcolor="#90f0b9"] ;
226 -> 240 ;
241 [label="No risk factor <= 0.5\ngini = 0.35\nsamples = 31\nvalue = [7, 24, 0]", fillcolor="#73eda6"] ;
240 -> 241 ;
242 [label="chest pain <= 0.5\ngini = 0.388\nsamples = 19\nvalue = [5, 14, 0]", fillcolor="#80eeae"] ;
241 -> 242 ;
243 [label="anorexia <= 0.5\ngini = 0.278\nsamples = 6\nvalue = [1, 5, 0]", fillcolor="#61ea9a"] ;
242 -> 243 ;
244 [label="gini = 0.444\nsamples = 3\nvalue = [1, 2, 0]", fillcolor="#9cf2c0"] ;
243 -> 244 ;
245 [label="gini = 0.0\nsamples = 3\nvalue = [0, 3, 0]", fillcolor="#39e581"] ;
243 -> 245 ;
246 [label="sPO2% <= 0.972\ngini = 0.426\nsamples = 13\nvalue = [4, 9, 0]", fillcolor="#91f1b9"] ;
242 -> 246 ;
247 [label="sPO2% <= 0.847\ngini = 0.375\nsamples = 12\nvalue = [3, 9, 0]", fillcolor="#7beeab"] ;
246 -> 247 ;
248 [label="gini = 0.5\nsamples = 2\nvalue = [1, 1, 0]", fillcolor="#ffffff"] ;
247 -> 248 ;
249 [label="Duration of starting complaints <= 0.833\ngini = 0.32\nsamples = 10\nvalue = [2, 8, 0]", fillcolor="#6aeca0"] ;
247 -> 249 ;
250 [label="anorexia <= 0.5\ngini = 0.198\nsamples = 9\nvalue = [1, 8, 0]", fillcolor="#52e891"] ;
249 -> 250 ;
251 [label="prolonged fever/dyspnea/cough <= 0.5\ngini = 0.245\nsamples = 7\nvalue = [1, 6, 0]", fillcolor="#5ae996"] ;
250 -> 251 ;
252 [label="gini = 0.0\nsamples = 1\nvalue = [1, 0, 0]", fillcolor="#e58139"] ;
251 -> 252 ;
253 [label="gini = 0.0\nsamples = 6\nvalue = [0, 6, 0]", fillcolor="#39e581"] ;
251 -> 253 ;
254 [label="gini = 0.0\nsamples = 2\nvalue = [0, 2, 0]", fillcolor="#39e581"] ;
250 -> 254 ;
255 [label="gini = 0.0\nsamples = 1\nvalue = [1, 0, 0]", fillcolor="#e58139"] ;
249 -> 255 ;
256 [label="gini = 0.0\nsamples = 1\nvalue = [1, 0, 0]", fillcolor="#e58139"] ;
246 -> 256 ;
257 [label="prolonged fever/dyspnea/cough <= 0.5\ngini = 0.278\nsamples = 12\nvalue = [2, 10, 0]", fillcolor="#61ea9a"] ;
241 -> 257 ;
258 [label="gini = 0.0\nsamples = 2\nvalue = [0, 2, 0]", fillcolor="#39e581"] ;
257 -> 258 ;
259 [label="body pain <= 0.5\ngini = 0.32\nsamples = 10\nvalue = [2, 8, 0]", fillcolor="#6aeca0"] ;
257 -> 259 ;
260 [label="gini = 0.5\nsamples = 4\nvalue = [2, 2, 0]", fillcolor="#ffffff"] ;
259 -> 260 ;
261 [label="gini = 0.0\nsamples = 6\nvalue = [0, 6, 0]", fillcolor="#39e581"] ;
259 -> 261 ;
262 [label="Duration of starting complaints <= 0.167\ngini = 0.494\nsamples = 18\nvalue = [8, 10, 0]", fillcolor="#d7fae6"] ;
240 -> 262 ;
263 [label="body pain <= 0.5\ngini = 0.32\nsamples = 5\nvalue = [1, 4, 0]", fillcolor="#6aeca0"] ;
262 -> 263 ;
264 [label="gini = 0.5\nsamples = 2\nvalue = [1, 1, 0]", fillcolor="#ffffff"] ;
263 -> 264 ;
265 [label="gini = 0.0\nsamples = 3\nvalue = [0, 3, 0]", fillcolor="#39e581"] ;
263 -> 265 ;
266 [label="body pain <= 0.5\ngini = 0.497\nsamples = 13\nvalue = [7, 6, 0]", fillcolor="#fbede3"] ;
262 -> 266 ;
267 [label="nausea/vomiting <= 0.5\ngini = 0.32\nsamples = 5\nvalue = [1, 4, 0]", fillcolor="#6aeca0"] ;
266 -> 267 ;
268 [label="gini = 0.0\nsamples = 4\nvalue = [0, 4, 0]", fillcolor="#39e581"] ;
267 -> 268 ;
269 [label="gini = 0.0\nsamples = 1\nvalue = [1, 0, 0]", fillcolor="#e58139"] ;
267 -> 269 ;
270 [label="headache <= 0.5\ngini = 0.375\nsamples = 8\nvalue = [6, 2, 0]", fillcolor="#eeab7b"] ;
266 -> 270 ;
271 [label="Age (yr) <= 0.326\ngini = 0.48\nsamples = 5\nvalue = [3, 2, 0]", fillcolor="#f6d5bd"] ;
270 -> 271 ;
272 [label="gini = 0.5\nsamples = 4\nvalue = [2, 2, 0]", fillcolor="#ffffff"] ;
271 -> 272 ;
273 [label="gini = 0.0\nsamples = 1\nvalue = [1, 0, 0]", fillcolor="#e58139"] ;
271 -> 273 ;
274 [label="gini = 0.0\nsamples = 3\nvalue = [3, 0, 0]", fillcolor="#e58139"] ;
270 -> 274 ;
275 [label="anorexia <= 0.5\ngini = 0.612\nsamples = 244\nvalue = [48, 126, 70]", fillcolor="#bff7d6"] ;
3 -> 275 ;
276 [label="headache <= 0.5\ngini = 0.592\nsamples = 153\nvalue = [36, 85, 32]", fillcolor="#acf4ca"] ;
275 -> 276 ;
277 [label="Age (yr) <= 0.401\ngini = 0.617\nsamples = 119\nvalue = [26, 61, 32]", fillcolor="#bdf6d5"] ;
276 -> 277 ;
278 [label="weakness <= 0.5\ngini = 0.607\nsamples = 109\nvalue = [26, 58, 25]", fillcolor="#b3f5ce"] ;
277 -> 278 ;
279 [label="chill <= 0.5\ngini = 0.644\nsamples = 88\nvalue = [23, 40, 25]", fillcolor="#d0f9e1"] ;
278 -> 279 ;
280 [label="sPO2% <= 0.931\ngini = 0.663\nsamples = 50\nvalue = [16, 15, 19]", fillcolor="#f4eefd"] ;
279 -> 280 ;
281 [label="respiratory rate <= 0.288\ngini = 0.625\nsamples = 38\nvalue = [10, 9, 19]", fillcolor="#d6bff7"] ;
280 -> 281 ;
282 [label="chest pain <= 0.5\ngini = 0.42\nsamples = 10\nvalue = [3, 7, 0]", fillcolor="#8ef0b7"] ;
281 -> 282 ;
283 [label="body pain <= 0.5\ngini = 0.469\nsamples = 8\nvalue = [3, 5, 0]", fillcolor="#b0f5cd"] ;
282 -> 283 ;
284 [label="Duration of starting complaints <= 0.5\ngini = 0.48\nsamples = 5\nvalue = [3, 2, 0]", fillcolor="#f6d5bd"] ;
283 -> 284 ;
285 [label="gini = 0.0\nsamples = 2\nvalue = [0, 2, 0]", fillcolor="#39e581"] ;
284 -> 285 ;
286 [label="gini = 0.0\nsamples = 3\nvalue = [3, 0, 0]", fillcolor="#e58139"] ;
284 -> 286 ;
287 [label="gini = 0.0\nsamples = 3\nvalue = [0, 3, 0]", fillcolor="#39e581"] ;
283 -> 287 ;
288 [label="gini = 0.0\nsamples = 2\nvalue = [0, 2, 0]", fillcolor="#39e581"] ;
282 -> 288 ;
289 [label="dyspnea <= 0.5\ngini = 0.472\nsamples = 28\nvalue = [7, 2, 19]", fillcolor="#b78ef0"] ;
281 -> 289 ;
290 [label="Age (yr) <= 0.052\ngini = 0.604\nsamples = 15\nvalue = [7, 2, 6]", fillcolor="#fcf1e9"] ;
289 -> 290 ;
291 [label="gini = 0.0\nsamples = 6\nvalue = [0, 0, 6]", fillcolor="#8139e5"] ;
290 -> 291 ;
292 [label="No risk factor <= 0.5\ngini = 0.346\nsamples = 9\nvalue = [7, 2, 0]", fillcolor="#eca572"] ;
290 -> 292 ;
293 [label="gini = 0.0\nsamples = 1\nvalue = [0, 1, 0]", fillcolor="#39e581"] ;
292 -> 293 ;
294 [label="respiratory rate <= 0.423\ngini = 0.219\nsamples = 8\nvalue = [7, 1, 0]", fillcolor="#e99355"] ;
292 -> 294 ;
295 [label="gini = 0.0\nsamples = 7\nvalue = [7, 0, 0]", fillcolor="#e58139"] ;
294 -> 295 ;
296 [label="gini = 0.0\nsamples = 1\nvalue = [0, 1, 0]", fillcolor="#39e581"] ;
294 -> 296 ;
297 [label="gini = 0.0\nsamples = 13\nvalue = [0, 0, 13]", fillcolor="#8139e5"] ;
289 -> 297 ;
298 [label="chest pain <= 0.5\ngini = 0.5\nsamples = 12\nvalue = [6, 6, 0]", fillcolor="#ffffff"] ;
280 -> 298 ;
299 [label="No risk factor <= 0.5\ngini = 0.496\nsamples = 11\nvalue = [6, 5, 0]", fillcolor="#fbeade"] ;
298 -> 299 ;
300 [label="body pain <= 0.5\ngini = 0.444\nsamples = 6\nvalue = [4, 2, 0]", fillcolor="#f2c09c"] ;
299 -> 300 ;
301 [label="gini = 0.444\nsamples = 3\nvalue = [1, 2, 0]", fillcolor="#9cf2c0"] ;
300 -> 301 ;
302 [label="gini = 0.0\nsamples = 3\nvalue = [3, 0, 0]", fillcolor="#e58139"] ;
300 -> 302 ;
303 [label="respiratory rate <= 0.269\ngini = 0.48\nsamples = 5\nvalue = [2, 3, 0]", fillcolor="#bdf6d5"] ;
299 -> 303 ;
304 [label="gini = 0.444\nsamples = 3\nvalue = [1, 2, 0]", fillcolor="#9cf2c0"] ;
303 -> 304 ;
305 [label="gini = 0.5\nsamples = 2\nvalue = [1, 1, 0]", fillcolor="#ffffff"] ;
303 -> 305 ;
306 [label="gini = 0.0\nsamples = 1\nvalue = [0, 1, 0]", fillcolor="#39e581"] ;
298 -> 306 ;
307 [label="prolonged fever/dyspnea/cough <= 0.5\ngini = 0.508\nsamples = 38\nvalue = [7, 25, 6]", fillcolor="#8cf0b6"] ;
279 -> 307 ;
308 [label="nausea/vomiting <= 0.5\ngini = 0.585\nsamples = 20\nvalue = [3, 11, 6]", fillcolor="#b8f6d2"] ;
307 -> 308 ;
309 [label="No risk factor <= 0.5\ngini = 0.18\nsamples = 10\nvalue = [1, 9, 0]", fillcolor="#4fe88f"] ;
308 -> 309 ;
310 [label="gini = 0.0\nsamples = 5\nvalue = [0, 5, 0]", fillcolor="#39e581"] ;
309 -> 310 ;
311 [label="Age (yr) <= 0.209\ngini = 0.32\nsamples = 5\nvalue = [1, 4, 0]", fillcolor="#6aeca0"] ;
309 -> 311 ;
312 [label="gini = 0.5\nsamples = 2\nvalue = [1, 1, 0]", fillcolor="#ffffff"] ;
311 -> 312 ;
313 [label="gini = 0.0\nsamples = 3\nvalue = [0, 3, 0]", fillcolor="#39e581"] ;
311 -> 313 ;
314 [label="dyspnea <= 0.5\ngini = 0.56\nsamples = 10\nvalue = [2, 2, 6]", fillcolor="#c09cf2"] ;
308 -> 314 ;
315 [label="chest pain <= 0.5\ngini = 0.494\nsamples = 9\nvalue = [2, 1, 6]", fillcolor="#b78ef0"] ;
314 -> 315 ;
316 [label="sPO2% <= 0.917\ngini = 0.406\nsamples = 8\nvalue = [1, 1, 6]", fillcolor="#a572ec"] ;
315 -> 316 ;
317 [label="gini = 0.5\nsamples = 2\nvalue = [1, 1, 0]", fillcolor="#ffffff"] ;
316 -> 317 ;
318 [label="gini = 0.0\nsamples = 6\nvalue = [0, 0, 6]", fillcolor="#8139e5"] ;
316 -> 318 ;
319 [label="gini = 0.0\nsamples = 1\nvalue = [1, 0, 0]", fillcolor="#e58139"] ;
315 -> 319 ;
320 [label="gini = 0.0\nsamples = 1\nvalue = [0, 1, 0]", fillcolor="#39e581"] ;
314 -> 320 ;
321 [label="respiratory rate <= 0.288\ngini = 0.346\nsamples = 18\nvalue = [4, 14, 0]", fillcolor="#72eca5"] ;
307 -> 321 ;
322 [label="chest pain <= 0.5\ngini = 0.444\nsamples = 6\nvalue = [4, 2, 0]", fillcolor="#f2c09c"] ;
321 -> 322 ;
323 [label="gini = 0.375\nsamples = 4\nvalue = [3, 1, 0]", fillcolor="#eeab7b"] ;
322 -> 323 ;
324 [label="gini = 0.5\nsamples = 2\nvalue = [1, 1, 0]", fillcolor="#ffffff"] ;
322 -> 324 ;
325 [label="gini = 0.0\nsamples = 12\nvalue = [0, 12, 0]", fillcolor="#39e581"] ;
321 -> 325 ;
326 [label="sPO2% <= 0.903\ngini = 0.245\nsamples = 21\nvalue = [3, 18, 0]", fillcolor="#5ae996"] ;
278 -> 326 ;
327 [label="respiratory rate <= 0.269\ngini = 0.444\nsamples = 9\nvalue = [3, 6, 0]", fillcolor="#9cf2c0"] ;
326 -> 327 ;
328 [label="gini = 0.375\nsamples = 4\nvalue = [3, 1, 0]", fillcolor="#eeab7b"] ;
327 -> 328 ;
329 [label="gini = 0.0\nsamples = 5\nvalue = [0, 5, 0]", fillcolor="#39e581"] ;
327 -> 329 ;
330 [label="gini = 0.0\nsamples = 12\nvalue = [0, 12, 0]", fillcolor="#39e581"] ;
326 -> 330 ;
331 [label="respiratory rate <= 0.423\ngini = 0.42\nsamples = 10\nvalue = [0, 3, 7]", fillcolor="#b78ef0"] ;
277 -> 331 ;
332 [label="gini = 0.0\nsamples = 3\nvalue = [0, 3, 0]", fillcolor="#39e581"] ;
331 -> 332 ;
333 [label="gini = 0.0\nsamples = 7\nvalue = [0, 0, 7]", fillcolor="#8139e5"] ;
331 -> 333 ;
334 [label="Age (yr) <= 0.122\ngini = 0.415\nsamples = 34\nvalue = [10, 24, 0]", fillcolor="#8bf0b5"] ;
276 -> 334 ;
335 [label="gini = 0.0\nsamples = 7\nvalue = [0, 7, 0]", fillcolor="#39e581"] ;
334 -> 335 ;
336 [label="Age (yr) <= 0.145\ngini = 0.466\nsamples = 27\nvalue = [10, 17, 0]", fillcolor="#adf4cb"] ;
334 -> 336 ;
337 [label="respiratory rate <= 0.269\ngini = 0.48\nsamples = 5\nvalue = [3, 2, 0]", fillcolor="#f6d5bd"] ;
336 -> 337 ;
338 [label="gini = 0.0\nsamples = 2\nvalue = [0, 2, 0]", fillcolor="#39e581"] ;
337 -> 338 ;
339 [label="gini = 0.0\nsamples = 3\nvalue = [3, 0, 0]", fillcolor="#e58139"] ;
337 -> 339 ;
340 [label="Duration of starting complaints <= 0.5\ngini = 0.434\nsamples = 22\nvalue = [7, 15, 0]", fillcolor="#95f1bc"] ;
336 -> 340 ;
341 [label="sPO2% <= 0.986\ngini = 0.484\nsamples = 17\nvalue = [7, 10, 0]", fillcolor="#c4f7d9"] ;
340 -> 341 ;
342 [label="chill <= 0.5\ngini = 0.444\nsamples = 15\nvalue = [5, 10, 0]", fillcolor="#9cf2c0"] ;
341 -> 342 ;
343 [label="nausea/vomiting <= 0.5\ngini = 0.444\nsamples = 6\nvalue = [4, 2, 0]", fillcolor="#f2c09c"] ;
342 -> 343 ;
344 [label="gini = 0.0\nsamples = 4\nvalue = [4, 0, 0]", fillcolor="#e58139"] ;
343 -> 344 ;
345 [label="gini = 0.0\nsamples = 2\nvalue = [0, 2, 0]", fillcolor="#39e581"] ;
343 -> 345 ;
346 [label="Age (yr) <= 0.262\ngini = 0.198\nsamples = 9\nvalue = [1, 8, 0]", fillcolor="#52e891"] ;
342 -> 346 ;
347 [label="gini = 0.0\nsamples = 5\nvalue = [0, 5, 0]", fillcolor="#39e581"] ;
346 -> 347 ;
348 [label="gini = 0.375\nsamples = 4\nvalue = [1, 3, 0]", fillcolor="#7beeab"] ;
346 -> 348 ;
349 [label="gini = 0.0\nsamples = 2\nvalue = [2, 0, 0]", fillcolor="#e58139"] ;
341 -> 349 ;
350 [label="gini = 0.0\nsamples = 5\nvalue = [0, 5, 0]", fillcolor="#39e581"] ;
340 -> 350 ;
351 [label="dyspnea <= 0.5\ngini = 0.605\nsamples = 91\nvalue = [12, 41, 38]", fillcolor="#f4fef8"] ;
275 -> 351 ;
352 [label="prolonged fever/dyspnea/cough <= 0.5\ngini = 0.589\nsamples = 41\nvalue = [5, 21, 15]", fillcolor="#d1f9e2"] ;
351 -> 352 ;
353 [label="sPO2% <= 0.917\ngini = 0.245\nsamples = 7\nvalue = [1, 6, 0]", fillcolor="#5ae996"] ;
352 -> 353 ;
354 [label="gini = 0.0\nsamples = 4\nvalue = [0, 4, 0]", fillcolor="#39e581"] ;
353 -> 354 ;
355 [label="gini = 0.444\nsamples = 3\nvalue = [1, 2, 0]", fillcolor="#9cf2c0"] ;
353 -> 355 ;
356 [label="No risk factor <= 0.5\ngini = 0.597\nsamples = 34\nvalue = [4, 15, 15]", fillcolor="#ffffff"] ;
352 -> 356 ;
357 [label="respiratory rate <= 0.269\ngini = 0.332\nsamples = 19\nvalue = [0, 4, 15]", fillcolor="#a36eec"] ;
356 -> 357 ;
358 [label="gini = 0.0\nsamples = 2\nvalue = [0, 2, 0]", fillcolor="#39e581"] ;
357 -> 358 ;
359 [label="sPO2% <= 0.875\ngini = 0.208\nsamples = 17\nvalue = [0, 2, 15]", fillcolor="#9253e8"] ;
357 -> 359 ;
360 [label="gini = 0.0\nsamples = 15\nvalue = [0, 0, 15]", fillcolor="#8139e5"] ;
359 -> 360 ;
361 [label="gini = 0.0\nsamples = 2\nvalue = [0, 2, 0]", fillcolor="#39e581"] ;
359 -> 361 ;
362 [label="Duration of starting complaints <= 0.167\ngini = 0.391\nsamples = 15\nvalue = [4, 11, 0]", fillcolor="#81eeaf"] ;
356 -> 362 ;
363 [label="respiratory rate <= 0.346\ngini = 0.48\nsamples = 5\nvalue = [3, 2, 0]", fillcolor="#f6d5bd"] ;
362 -> 363 ;
364 [label="gini = 0.444\nsamples = 3\nvalue = [1, 2, 0]", fillcolor="#9cf2c0"] ;
363 -> 364 ;
365 [label="gini = 0.0\nsamples = 2\nvalue = [2, 0, 0]", fillcolor="#e58139"] ;
363 -> 365 ;
366 [label="weakness <= 0.5\ngini = 0.18\nsamples = 10\nvalue = [1, 9, 0]", fillcolor="#4fe88f"] ;
362 -> 366 ;
367 [label="gini = 0.0\nsamples = 4\nvalue = [0, 4, 0]", fillcolor="#39e581"] ;
366 -> 367 ;
368 [label="nausea/vomiting <= 0.5\ngini = 0.278\nsamples = 6\nvalue = [1, 5, 0]", fillcolor="#61ea9a"] ;
366 -> 368 ;
369 [label="gini = 0.375\nsamples = 4\nvalue = [1, 3, 0]", fillcolor="#7beeab"] ;
368 -> 369 ;
370 [label="gini = 0.0\nsamples = 2\nvalue = [0, 2, 0]", fillcolor="#39e581"] ;
368 -> 370 ;
371 [label="Age (yr) <= 0.326\ngini = 0.609\nsamples = 50\nvalue = [7, 20, 23]", fillcolor="#f2ebfc"] ;
351 -> 371 ;
372 [label="sPO2% <= 0.903\ngini = 0.519\nsamples = 37\nvalue = [3, 11, 23]", fillcolor="#c5a4f3"] ;
371 -> 372 ;
373 [label="prolonged fever/dyspnea/cough <= 0.5\ngini = 0.444\nsamples = 6\nvalue = [2, 4, 0]", fillcolor="#9cf2c0"] ;
372 -> 373 ;
374 [label="gini = 0.0\nsamples = 1\nvalue = [1, 0, 0]", fillcolor="#e58139"] ;
373 -> 374 ;
375 [label="Age (yr) <= 0.14\ngini = 0.32\nsamples = 5\nvalue = [1, 4, 0]", fillcolor="#6aeca0"] ;
373 -> 375 ;
376 [label="gini = 0.0\nsamples = 3\nvalue = [0, 3, 0]", fillcolor="#39e581"] ;
375 -> 376 ;
377 [label="gini = 0.5\nsamples = 2\nvalue = [1, 1, 0]", fillcolor="#ffffff"] ;
375 -> 377 ;
378 [label="Duration of starting complaints <= 0.5\ngini = 0.398\nsamples = 31\nvalue = [1, 7, 23]", fillcolor="#ab7bee"] ;
372 -> 378 ;
379 [label="Age (yr) <= 0.267\ngini = 0.304\nsamples = 28\nvalue = [1, 4, 23]", fillcolor="#9b62ea"] ;
378 -> 379 ;
380 [label="gini = 0.444\nsamples = 3\nvalue = [1, 2, 0]", fillcolor="#9cf2c0"] ;
379 -> 380 ;
381 [label="prolonged fever/dyspnea/cough <= 0.5\ngini = 0.147\nsamples = 25\nvalue = [0, 2, 23]", fillcolor="#8c4ae7"] ;
379 -> 381 ;
382 [label="body pain <= 0.5\ngini = 0.408\nsamples = 7\nvalue = [0, 2, 5]", fillcolor="#b388ef"] ;
381 -> 382 ;
383 [label="gini = 0.0\nsamples = 1\nvalue = [0, 1, 0]", fillcolor="#39e581"] ;
382 -> 383 ;
384 [label="chest pain <= 0.5\ngini = 0.278\nsamples = 6\nvalue = [0, 1, 5]", fillcolor="#9a61ea"] ;
382 -> 384 ;
385 [label="gini = 0.0\nsamples = 5\nvalue = [0, 0, 5]", fillcolor="#8139e5"] ;
384 -> 385 ;
386 [label="gini = 0.0\nsamples = 1\nvalue = [0, 1, 0]", fillcolor="#39e581"] ;
384 -> 386 ;
387 [label="gini = 0.0\nsamples = 18\nvalue = [0, 0, 18]", fillcolor="#8139e5"] ;
381 -> 387 ;
388 [label="gini = 0.0\nsamples = 3\nvalue = [0, 3, 0]", fillcolor="#39e581"] ;
378 -> 388 ;
389 [label="respiratory rate <= 0.269\ngini = 0.426\nsamples = 13\nvalue = [4, 9, 0]", fillcolor="#91f1b9"] ;
371 -> 389 ;
390 [label="gini = 0.0\nsamples = 4\nvalue = [0, 4, 0]", fillcolor="#39e581"] ;
389 -> 390 ;
391 [label="respiratory rate <= 0.327\ngini = 0.494\nsamples = 9\nvalue = [4, 5, 0]", fillcolor="#d7fae6"] ;
389 -> 391 ;
392 [label="weakness <= 0.5\ngini = 0.444\nsamples = 6\nvalue = [4, 2, 0]", fillcolor="#f2c09c"] ;
391 -> 392 ;
393 [label="gini = 0.444\nsamples = 3\nvalue = [1, 2, 0]", fillcolor="#9cf2c0"] ;
392 -> 393 ;
394 [label="gini = 0.0\nsamples = 3\nvalue = [3, 0, 0]", fillcolor="#e58139"] ;
392 -> 394 ;
395 [label="gini = 0.0\nsamples = 3\nvalue = [0, 3, 0]", fillcolor="#39e581"] ;
391 -> 395 ;
396 [label="sPO2% <= 0.875\ngini = 0.507\nsamples = 221\nvalue = [25, 52, 144]", fillcolor="#ba93f1"] ;
2 -> 396 ;
397 [label="Age (yr) <= 0.262\ngini = 0.245\nsamples = 131\nvalue = [5, 13, 113]", fillcolor="#9457e9"] ;
396 -> 397 ;
398 [label="prolonged fever/dyspnea/cough <= 0.5\ngini = 0.625\nsamples = 20\nvalue = [5, 5, 10]", fillcolor="#d5bdf6"] ;
397 -> 398 ;
399 [label="gini = 0.0\nsamples = 10\nvalue = [0, 0, 10]", fillcolor="#8139e5"] ;
398 -> 399 ;
400 [label="body pain <= 0.5\ngini = 0.5\nsamples = 10\nvalue = [5, 5, 0]", fillcolor="#ffffff"] ;
398 -> 400 ;
401 [label="Duration of starting complaints <= 0.333\ngini = 0.444\nsamples = 6\nvalue = [4, 2, 0]", fillcolor="#f2c09c"] ;
400 -> 401 ;
402 [label="gini = 0.0\nsamples = 2\nvalue = [0, 2, 0]", fillcolor="#39e581"] ;
401 -> 402 ;
403 [label="gini = 0.0\nsamples = 4\nvalue = [4, 0, 0]", fillcolor="#e58139"] ;
401 -> 403 ;
404 [label="gini = 0.375\nsamples = 4\nvalue = [1, 3, 0]", fillcolor="#7beeab"] ;
400 -> 404 ;
405 [label="prolonged fever/dyspnea/cough <= 0.5\ngini = 0.134\nsamples = 111\nvalue = [0, 8, 103]", fillcolor="#8b48e7"] ;
397 -> 405 ;
406 [label="gini = 0.0\nsamples = 17\nvalue = [0, 0, 17]", fillcolor="#8139e5"] ;
405 -> 406 ;
407 [label="nausea/vomiting <= 0.5\ngini = 0.156\nsamples = 94\nvalue = [0, 8, 86]", fillcolor="#8d4be7"] ;
405 -> 407 ;
408 [label="Duration of starting complaints <= 0.167\ngini = 0.18\nsamples = 80\nvalue = [0, 8, 72]", fillcolor="#8f4fe8"] ;
407 -> 408 ;
409 [label="gini = 0.0\nsamples = 2\nvalue = [0, 2, 0]", fillcolor="#39e581"] ;
408 -> 409 ;
410 [label="anorexia <= 0.5\ngini = 0.142\nsamples = 78\nvalue = [0, 6, 72]", fillcolor="#8c49e7"] ;
408 -> 410 ;
411 [label="Duration of starting complaints <= 0.833\ngini = 0.1\nsamples = 76\nvalue = [0, 4, 72]", fillcolor="#8844e6"] ;
410 -> 411 ;
412 [label="cough <= 0.5\ngini = 0.077\nsamples = 75\nvalue = [0, 3, 72]", fillcolor="#8641e6"] ;
411 -> 412 ;
413 [label="gini = 0.0\nsamples = 11\nvalue = [0, 0, 11]", fillcolor="#8139e5"] ;
412 -> 413 ;
414 [label="sPO2% <= 0.847\ngini = 0.089\nsamples = 64\nvalue = [0, 3, 61]", fillcolor="#8743e6"] ;
412 -> 414 ;
415 [label="dyspnea <= 0.5\ngini = 0.042\nsamples = 47\nvalue = [0, 1, 46]", fillcolor="#843de6"] ;
414 -> 415 ;
416 [label="Age (yr) <= 0.337\ngini = 0.165\nsamples = 11\nvalue = [0, 1, 10]", fillcolor="#8e4de8"] ;
415 -> 416 ;
417 [label="gini = 0.0\nsamples = 10\nvalue = [0, 0, 10]", fillcolor="#8139e5"] ;
416 -> 417 ;
418 [label="gini = 0.0\nsamples = 1\nvalue = [0, 1, 0]", fillcolor="#39e581"] ;
416 -> 418 ;
419 [label="gini = 0.0\nsamples = 36\nvalue = [0, 0, 36]", fillcolor="#8139e5"] ;
415 -> 419 ;
420 [label="Duration of starting complaints <= 0.5\ngini = 0.208\nsamples = 17\nvalue = [0, 2, 15]", fillcolor="#9253e8"] ;
414 -> 420 ;
421 [label="weakness <= 0.5\ngini = 0.117\nsamples = 16\nvalue = [0, 1, 15]", fillcolor="#8946e7"] ;
420 -> 421 ;
422 [label="gini = 0.0\nsamples = 15\nvalue = [0, 0, 15]", fillcolor="#8139e5"] ;
421 -> 422 ;
423 [label="gini = 0.0\nsamples = 1\nvalue = [0, 1, 0]", fillcolor="#39e581"] ;
421 -> 423 ;
424 [label="gini = 0.0\nsamples = 1\nvalue = [0, 1, 0]", fillcolor="#39e581"] ;
420 -> 424 ;
425 [label="gini = 0.0\nsamples = 1\nvalue = [0, 1, 0]", fillcolor="#39e581"] ;
411 -> 425 ;
426 [label="gini = 0.0\nsamples = 2\nvalue = [0, 2, 0]", fillcolor="#39e581"] ;
410 -> 426 ;
427 [label="gini = 0.0\nsamples = 14\nvalue = [0, 0, 14]", fillcolor="#8139e5"] ;
407 -> 427 ;
428 [label="nausea/vomiting <= 0.5\ngini = 0.644\nsamples = 90\nvalue = [20, 39, 31]", fillcolor="#e4fbee"] ;
396 -> 428 ;
429 [label="hypertension <= 0.5\ngini = 0.592\nsamples = 56\nvalue = [14, 31, 11]", fillcolor="#aff4cc"] ;
428 -> 429 ;
430 [label="chest pain <= 0.5\ngini = 0.531\nsamples = 47\nvalue = [13, 29, 5]", fillcolor="#a2f3c4"] ;
429 -> 430 ;
431 [label="headache <= 0.5\ngini = 0.375\nsamples = 24\nvalue = [6, 18, 0]", fillcolor="#7beeab"] ;
430 -> 431 ;
432 [label="chill <= 0.5\ngini = 0.231\nsamples = 15\nvalue = [2, 13, 0]", fillcolor="#57e994"] ;
431 -> 432 ;
433 [label="respiratory rate <= 0.25\ngini = 0.298\nsamples = 11\nvalue = [2, 9, 0]", fillcolor="#65eb9d"] ;
432 -> 433 ;
434 [label="gini = 0.444\nsamples = 3\nvalue = [1, 2, 0]", fillcolor="#9cf2c0"] ;
433 -> 434 ;
435 [label="anorexia <= 0.5\ngini = 0.219\nsamples = 8\nvalue = [1, 7, 0]", fillcolor="#55e993"] ;
433 -> 435 ;
436 [label="No risk factor <= 0.5\ngini = 0.245\nsamples = 7\nvalue = [1, 6, 0]", fillcolor="#5ae996"] ;
435 -> 436 ;
437 [label="Duration of starting complaints <= 0.5\ngini = 0.32\nsamples = 5\nvalue = [1, 4, 0]", fillcolor="#6aeca0"] ;
436 -> 437 ;
438 [label="gini = 0.0\nsamples = 2\nvalue = [0, 2, 0]", fillcolor="#39e581"] ;
437 -> 438 ;
439 [label="gini = 0.444\nsamples = 3\nvalue = [1, 2, 0]", fillcolor="#9cf2c0"] ;
437 -> 439 ;
440 [label="gini = 0.0\nsamples = 2\nvalue = [0, 2, 0]", fillcolor="#39e581"] ;
436 -> 440 ;
441 [label="gini = 0.0\nsamples = 1\nvalue = [0, 1, 0]", fillcolor="#39e581"] ;
435 -> 441 ;
442 [label="gini = 0.0\nsamples = 4\nvalue = [0, 4, 0]", fillcolor="#39e581"] ;
432 -> 442 ;
443 [label="body pain <= 0.5\ngini = 0.494\nsamples = 9\nvalue = [4, 5, 0]", fillcolor="#d7fae6"] ;
431 -> 443 ;
444 [label="sPO2% <= 0.903\ngini = 0.444\nsamples = 6\nvalue = [4, 2, 0]", fillcolor="#f2c09c"] ;
443 -> 444 ;
445 [label="gini = 0.0\nsamples = 1\nvalue = [0, 1, 0]", fillcolor="#39e581"] ;
444 -> 445 ;
446 [label="Age (yr) <= 0.302\ngini = 0.32\nsamples = 5\nvalue = [4, 1, 0]", fillcolor="#eca06a"] ;
444 -> 446 ;
447 [label="gini = 0.0\nsamples = 4\nvalue = [4, 0, 0]", fillcolor="#e58139"] ;
446 -> 447 ;
448 [label="gini = 0.0\nsamples = 1\nvalue = [0, 1, 0]", fillcolor="#39e581"] ;
446 -> 448 ;
449 [label="gini = 0.0\nsamples = 3\nvalue = [0, 3, 0]", fillcolor="#39e581"] ;
443 -> 449 ;
450 [label="No risk factor <= 0.5\ngini = 0.631\nsamples = 23\nvalue = [7, 11, 5]", fillcolor="#cef8e0"] ;
430 -> 450 ;
451 [label="Duration of starting complaints <= 0.5\ngini = 0.643\nsamples = 14\nvalue = [3, 6, 5]", fillcolor="#e9fcf1"] ;
450 -> 451 ;
452 [label="body pain <= 0.5\ngini = 0.62\nsamples = 10\nvalue = [2, 3, 5]", fillcolor="#dbc6f8"] ;
451 -> 452 ;
453 [label="gini = 0.0\nsamples = 2\nvalue = [2, 0, 0]", fillcolor="#e58139"] ;
452 -> 453 ;
454 [label="weakness <= 0.5\ngini = 0.469\nsamples = 8\nvalue = [0, 3, 5]", fillcolor="#cdb0f5"] ;
452 -> 454 ;
455 [label="prolonged fever/dyspnea/cough <= 0.5\ngini = 0.278\nsamples = 6\nvalue = [0, 1, 5]", fillcolor="#9a61ea"] ;
454 -> 455 ;
456 [label="gini = 0.0\nsamples = 5\nvalue = [0, 0, 5]", fillcolor="#8139e5"] ;
455 -> 456 ;
457 [label="gini = 0.0\nsamples = 1\nvalue = [0, 1, 0]", fillcolor="#39e581"] ;
455 -> 457 ;
458 [label="gini = 0.0\nsamples = 2\nvalue = [0, 2, 0]", fillcolor="#39e581"] ;
454 -> 458 ;
459 [label="gini = 0.375\nsamples = 4\nvalue = [1, 3, 0]", fillcolor="#7beeab"] ;
451 -> 459 ;
460 [label="cough <= 0.5\ngini = 0.494\nsamples = 9\nvalue = [4, 5, 0]", fillcolor="#d7fae6"] ;
450 -> 460 ;
461 [label="gini = 0.444\nsamples = 3\nvalue = [2, 1, 0]", fillcolor="#f2c09c"] ;
460 -> 461 ;
462 [label="sPO2% <= 0.986\ngini = 0.444\nsamples = 6\nvalue = [2, 4, 0]", fillcolor="#9cf2c0"] ;
460 -> 462 ;
463 [label="sPO2% <= 0.944\ngini = 0.48\nsamples = 5\nvalue = [2, 3, 0]", fillcolor="#bdf6d5"] ;
462 -> 463 ;
464 [label="gini = 0.375\nsamples = 4\nvalue = [1, 3, 0]", fillcolor="#7beeab"] ;
463 -> 464 ;
465 [label="gini = 0.0\nsamples = 1\nvalue = [1, 0, 0]", fillcolor="#e58139"] ;
463 -> 465 ;
466 [label="gini = 0.0\nsamples = 1\nvalue = [0, 1, 0]", fillcolor="#39e581"] ;
462 -> 466 ;
467 [label="fever <= 0.5\ngini = 0.494\nsamples = 9\nvalue = [1, 2, 6]", fillcolor="#b78ef0"] ;
429 -> 467 ;
468 [label="weakness <= 0.5\ngini = 0.245\nsamples = 7\nvalue = [1, 0, 6]", fillcolor="#965ae9"] ;
467 -> 468 ;
469 [label="gini = 0.0\nsamples = 6\nvalue = [0, 0, 6]", fillcolor="#8139e5"] ;
468 -> 469 ;
470 [label="gini = 0.0\nsamples = 1\nvalue = [1, 0, 0]", fillcolor="#e58139"] ;
468 -> 470 ;
471 [label="gini = 0.0\nsamples = 2\nvalue = [0, 2, 0]", fillcolor="#39e581"] ;
467 -> 471 ;
472 [label="weakness <= 0.5\ngini = 0.567\nsamples = 34\nvalue = [6, 8, 20]", fillcolor="#c5a4f3"] ;
428 -> 472 ;
473 [label="anorexia <= 0.5\ngini = 0.339\nsamples = 25\nvalue = [3, 2, 20]", fillcolor="#9e66eb"] ;
472 -> 473 ;
474 [label="headache <= 0.5\ngini = 0.486\nsamples = 12\nvalue = [3, 1, 8]", fillcolor="#b991f1"] ;
473 -> 474 ;
475 [label="hypertension <= 0.5\ngini = 0.32\nsamples = 10\nvalue = [2, 0, 8]", fillcolor="#a06aec"] ;
474 -> 475 ;
476 [label="gini = 0.0\nsamples = 2\nvalue = [2, 0, 0]", fillcolor="#e58139"] ;
475 -> 476 ;
477 [label="gini = 0.0\nsamples = 8\nvalue = [0, 0, 8]", fillcolor="#8139e5"] ;
475 -> 477 ;
478 [label="gini = 0.5\nsamples = 2\nvalue = [1, 1, 0]", fillcolor="#ffffff"] ;
474 -> 478 ;
479 [label="No risk factor <= 0.5\ngini = 0.142\nsamples = 13\nvalue = [0, 1, 12]", fillcolor="#8c49e7"] ;
473 -> 479 ;
480 [label="gini = 0.0\nsamples = 1\nvalue = [0, 1, 0]", fillcolor="#39e581"] ;
479 -> 480 ;
481 [label="gini = 0.0\nsamples = 12\nvalue = [0, 0, 12]", fillcolor="#8139e5"] ;
479 -> 481 ;
482 [label="dyspnea <= 0.5\ngini = 0.444\nsamples = 9\nvalue = [3, 6, 0]", fillcolor="#9cf2c0"] ;
472 -> 482 ;
483 [label="gini = 0.0\nsamples = 2\nvalue = [2, 0, 0]", fillcolor="#e58139"] ;
482 -> 483 ;
484 [label="body pain <= 0.5\ngini = 0.245\nsamples = 7\nvalue = [1, 6, 0]", fillcolor="#5ae996"] ;
482 -> 484 ;
485 [label="gini = 0.0\nsamples = 2\nvalue = [0, 2, 0]", fillcolor="#39e581"] ;
484 -> 485 ;
486 [label="Age (yr) <= 0.256\ngini = 0.32\nsamples = 5\nvalue = [1, 4, 0]", fillcolor="#6aeca0"] ;
484 -> 486 ;
487 [label="gini = 0.0\nsamples = 2\nvalue = [0, 2, 0]", fillcolor="#39e581"] ;
486 -> 487 ;
488 [label="gini = 0.444\nsamples = 3\nvalue = [1, 2, 0]", fillcolor="#9cf2c0"] ;
486 -> 488 ;
489 [label="sPO2% <= 0.819\ngini = 0.515\nsamples = 648\nvalue = [85, 144, 419]", fillcolor="#ba93f1"] ;
1 -> 489 ;
490 [label="sPO2% <= 0.792\ngini = 0.121\nsamples = 297\nvalue = [5, 14, 278]", fillcolor="#8946e7"] ;
489 -> 490 ;
491 [label="Respratory distress <= 0.5\ngini = 0.072\nsamples = 217\nvalue = [4, 4, 209]", fillcolor="#8640e6"] ;
490 -> 491 ;
492 [label="Age (yr) <= 0.483\ngini = 0.106\nsamples = 127\nvalue = [3, 4, 120]", fillcolor="#8844e6"] ;
491 -> 492 ;
493 [label="fever <= 0.5\ngini = 0.265\nsamples = 20\nvalue = [2, 1, 17]", fillcolor="#965ae9"] ;
492 -> 493 ;
494 [label="gini = 0.0\nsamples = 2\nvalue = [2, 0, 0]", fillcolor="#e58139"] ;
493 -> 494 ;
495 [label="respiratory rate <= 0.269\ngini = 0.105\nsamples = 18\nvalue = [0, 1, 17]", fillcolor="#8845e7"] ;
493 -> 495 ;
496 [label="gini = 0.0\nsamples = 1\nvalue = [0, 1, 0]", fillcolor="#39e581"] ;
495 -> 496 ;
497 [label="gini = 0.0\nsamples = 17\nvalue = [0, 0, 17]", fillcolor="#8139e5"] ;
495 -> 497 ;
498 [label="chill <= 0.5\ngini = 0.072\nsamples = 107\nvalue = [1, 3, 103]", fillcolor="#8641e6"] ;
492 -> 498 ;
499 [label="hypertension <= 0.5\ngini = 0.05\nsamples = 78\nvalue = [1, 1, 76]", fillcolor="#843ee6"] ;
498 -> 499 ;
500 [label="dyspnea <= 0.5\ngini = 0.053\nsamples = 37\nvalue = [1, 0, 36]", fillcolor="#843ee6"] ;
499 -> 500 ;
501 [label="gini = 0.0\nsamples = 1\nvalue = [1, 0, 0]", fillcolor="#e58139"] ;
500 -> 501 ;
502 [label="gini = 0.0\nsamples = 36\nvalue = [0, 0, 36]", fillcolor="#8139e5"] ;
500 -> 502 ;
503 [label="Duration of starting complaints <= 0.333\ngini = 0.048\nsamples = 41\nvalue = [0, 1, 40]", fillcolor="#843ee6"] ;
499 -> 503 ;
504 [label="gini = 0.0\nsamples = 28\nvalue = [0, 0, 28]", fillcolor="#8139e5"] ;
503 -> 504 ;
505 [label="weakness <= 0.5\ngini = 0.142\nsamples = 13\nvalue = [0, 1, 12]", fillcolor="#8c49e7"] ;
503 -> 505 ;
506 [label="gini = 0.0\nsamples = 1\nvalue = [0, 1, 0]", fillcolor="#39e581"] ;
505 -> 506 ;
507 [label="gini = 0.0\nsamples = 12\nvalue = [0, 0, 12]", fillcolor="#8139e5"] ;
505 -> 507 ;
508 [label="body pain <= 0.5\ngini = 0.128\nsamples = 29\nvalue = [0, 2, 27]", fillcolor="#8a48e7"] ;
498 -> 508 ;
509 [label="dyspnea <= 0.5\ngini = 0.48\nsamples = 5\nvalue = [0, 2, 3]", fillcolor="#d5bdf6"] ;
508 -> 509 ;
510 [label="gini = 0.375\nsamples = 4\nvalue = [0, 1, 3]", fillcolor="#ab7bee"] ;
509 -> 510 ;
511 [label="gini = 0.0\nsamples = 1\nvalue = [0, 1, 0]", fillcolor="#39e581"] ;
509 -> 511 ;
512 [label="gini = 0.0\nsamples = 24\nvalue = [0, 0, 24]", fillcolor="#8139e5"] ;
508 -> 512 ;
513 [label="chill <= 0.5\ngini = 0.022\nsamples = 90\nvalue = [1, 0, 89]", fillcolor="#823be5"] ;
491 -> 513 ;
514 [label="anorexia <= 0.5\ngini = 0.037\nsamples = 53\nvalue = [1, 0, 52]", fillcolor="#833de6"] ;
513 -> 514 ;
515 [label="headache <= 0.5\ngini = 0.061\nsamples = 32\nvalue = [1, 0, 31]", fillcolor="#853fe6"] ;
514 -> 515 ;
516 [label="cough <= 0.5\ngini = 0.1\nsamples = 19\nvalue = [1, 0, 18]", fillcolor="#8844e6"] ;
515 -> 516 ;
517 [label="gini = 0.0\nsamples = 18\nvalue = [0, 0, 18]", fillcolor="#8139e5"] ;
516 -> 517 ;
518 [label="gini = 0.0\nsamples = 1\nvalue = [1, 0, 0]", fillcolor="#e58139"] ;
516 -> 518 ;
519 [label="gini = 0.0\nsamples = 13\nvalue = [0, 0, 13]", fillcolor="#8139e5"] ;
515 -> 519 ;
520 [label="gini = 0.0\nsamples = 21\nvalue = [0, 0, 21]", fillcolor="#8139e5"] ;
514 -> 520 ;
521 [label="gini = 0.0\nsamples = 37\nvalue = [0, 0, 37]", fillcolor="#8139e5"] ;
513 -> 521 ;
522 [label="respiratory rate <= 0.288\ngini = 0.24\nsamples = 80\nvalue = [1, 10, 69]", fillcolor="#9558e9"] ;
490 -> 522 ;
523 [label="gini = 0.0\nsamples = 3\nvalue = [0, 3, 0]", fillcolor="#39e581"] ;
522 -> 523 ;
524 [label="fever <= 0.5\ngini = 0.189\nsamples = 77\nvalue = [1, 7, 69]", fillcolor="#8f50e8"] ;
522 -> 524 ;
525 [label="dyspnea <= 0.5\ngini = 0.381\nsamples = 21\nvalue = [1, 4, 16]", fillcolor="#a673ed"] ;
524 -> 525 ;
526 [label="gini = 0.0\nsamples = 3\nvalue = [0, 3, 0]", fillcolor="#39e581"] ;
525 -> 526 ;
527 [label="Duration of starting complaints <= 0.667\ngini = 0.204\nsamples = 18\nvalue = [1, 1, 16]", fillcolor="#9050e8"] ;
525 -> 527 ;
528 [label="gini = 0.5\nsamples = 2\nvalue = [1, 1, 0]", fillcolor="#ffffff"] ;
527 -> 528 ;
529 [label="gini = 0.0\nsamples = 16\nvalue = [0, 0, 16]", fillcolor="#8139e5"] ;
527 -> 529 ;
530 [label="Duration of starting complaints <= 0.5\ngini = 0.101\nsamples = 56\nvalue = [0, 3, 53]", fillcolor="#8844e6"] ;
524 -> 530 ;
531 [label="anorexia <= 0.5\ngini = 0.036\nsamples = 54\nvalue = [0, 1, 53]", fillcolor="#833de5"] ;
530 -> 531 ;
532 [label="chill <= 0.5\ngini = 0.124\nsamples = 15\nvalue = [0, 1, 14]", fillcolor="#8a47e7"] ;
531 -> 532 ;
533 [label="gini = 0.0\nsamples = 14\nvalue = [0, 0, 14]", fillcolor="#8139e5"] ;
532 -> 533 ;
534 [label="gini = 0.0\nsamples = 1\nvalue = [0, 1, 0]", fillcolor="#39e581"] ;
532 -> 534 ;
535 [label="gini = 0.0\nsamples = 39\nvalue = [0, 0, 39]", fillcolor="#8139e5"] ;
531 -> 535 ;
536 [label="gini = 0.0\nsamples = 2\nvalue = [0, 2, 0]", fillcolor="#39e581"] ;
530 -> 536 ;
537 [label="nausea/vomiting <= 0.5\ngini = 0.65\nsamples = 351\nvalue = [80, 130, 141]", fillcolor="#f9f5fe"] ;
489 -> 537 ;
538 [label="respiratory rate <= 0.808\ngini = 0.655\nsamples = 228\nvalue = [67, 96, 65]", fillcolor="#dbfae8"] ;
537 -> 538 ;
539 [label="anorexia <= 0.5\ngini = 0.644\nsamples = 214\nvalue = [67, 96, 51]", fillcolor="#d8fae6"] ;
538 -> 539 ;
540 [label="Age (yr) <= 0.657\ngini = 0.654\nsamples = 196\nvalue = [63, 82, 51]", fillcolor="#e3fbed"] ;
539 -> 540 ;
541 [label="body pain <= 0.5\ngini = 0.605\nsamples = 146\nvalue = [57, 69, 20]", fillcolor="#e4fbee"] ;
540 -> 541 ;
542 [label="chill <= 0.5\ngini = 0.5\nsamples = 94\nvalue = [47, 47, 0]", fillcolor="#ffffff"] ;
541 -> 542 ;
543 [label="respiratory rate <= 0.327\ngini = 0.496\nsamples = 79\nvalue = [43, 36, 0]", fillcolor="#fbeadf"] ;
542 -> 543 ;
544 [label="fever <= 0.5\ngini = 0.5\nsamples = 66\nvalue = [34, 32, 0]", fillcolor="#fdf8f3"] ;
543 -> 544 ;
545 [label="cough <= 0.5\ngini = 0.497\nsamples = 61\nvalue = [33, 28, 0]", fillcolor="#fbece1"] ;
544 -> 545 ;
546 [label="Duration of starting complaints <= 0.167\ngini = 0.417\nsamples = 27\nvalue = [19, 8, 0]", fillcolor="#f0b68c"] ;
545 -> 546 ;
547 [label="sPO2% <= 0.903\ngini = 0.5\nsamples = 10\nvalue = [5, 5, 0]", fillcolor="#ffffff"] ;
546 -> 547 ;
548 [label="prolonged fever/dyspnea/cough <= 0.5\ngini = 0.469\nsamples = 8\nvalue = [5, 3, 0]", fillcolor="#f5cdb0"] ;
547 -> 548 ;
549 [label="respiratory rate <= 0.269\ngini = 0.5\nsamples = 6\nvalue = [3, 3, 0]", fillcolor="#ffffff"] ;
548 -> 549 ;
550 [label="gini = 0.0\nsamples = 1\nvalue = [1, 0, 0]", fillcolor="#e58139"] ;
549 -> 550 ;
551 [label="No risk factor <= 0.5\ngini = 0.48\nsamples = 5\nvalue = [2, 3, 0]", fillcolor="#bdf6d5"] ;
549 -> 551 ;
552 [label="gini = 0.5\nsamples = 4\nvalue = [2, 2, 0]", fillcolor="#ffffff"] ;
551 -> 552 ;
553 [label="gini = 0.0\nsamples = 1\nvalue = [0, 1, 0]", fillcolor="#39e581"] ;
551 -> 553 ;
554 [label="gini = 0.0\nsamples = 2\nvalue = [2, 0, 0]", fillcolor="#e58139"] ;
548 -> 554 ;
555 [label="gini = 0.0\nsamples = 2\nvalue = [0, 2, 0]", fillcolor="#39e581"] ;
547 -> 555 ;
556 [label="Duration of starting complaints <= 0.833\ngini = 0.291\nsamples = 17\nvalue = [14, 3, 0]", fillcolor="#eb9c63"] ;
546 -> 556 ;
557 [label="sPO2% <= 0.903\ngini = 0.337\nsamples = 14\nvalue = [11, 3, 0]", fillcolor="#eca36f"] ;
556 -> 557 ;
558 [label="respiratory rate <= 0.269\ngini = 0.219\nsamples = 8\nvalue = [7, 1, 0]", fillcolor="#e99355"] ;
557 -> 558 ;
559 [label="gini = 0.0\nsamples = 2\nvalue = [2, 0, 0]", fillcolor="#e58139"] ;
558 -> 559 ;
560 [label="hypertension <= 0.5\ngini = 0.278\nsamples = 6\nvalue = [5, 1, 0]", fillcolor="#ea9a61"] ;
558 -> 560 ;
561 [label="sPO2% <= 0.875\ngini = 0.32\nsamples = 5\nvalue = [4, 1, 0]", fillcolor="#eca06a"] ;
560 -> 561 ;
562 [label="gini = 0.5\nsamples = 2\nvalue = [1, 1, 0]", fillcolor="#ffffff"] ;
561 -> 562 ;
563 [label="gini = 0.0\nsamples = 3\nvalue = [3, 0, 0]", fillcolor="#e58139"] ;
561 -> 563 ;
564 [label="gini = 0.0\nsamples = 1\nvalue = [1, 0, 0]", fillcolor="#e58139"] ;
560 -> 564 ;
565 [label="Duration of starting complaints <= 0.5\ngini = 0.444\nsamples = 6\nvalue = [4, 2, 0]", fillcolor="#f2c09c"] ;
557 -> 565 ;
566 [label="gini = 0.375\nsamples = 4\nvalue = [3, 1, 0]", fillcolor="#eeab7b"] ;
565 -> 566 ;
567 [label="gini = 0.5\nsamples = 2\nvalue = [1, 1, 0]", fillcolor="#ffffff"] ;
565 -> 567 ;
568 [label="gini = 0.0\nsamples = 3\nvalue = [3, 0, 0]", fillcolor="#e58139"] ;
556 -> 568 ;
569 [label="Duration of starting complaints <= 0.5\ngini = 0.484\nsamples = 34\nvalue = [14, 20, 0]", fillcolor="#c4f7d9"] ;
545 -> 569 ;
570 [label="respiratory rate <= 0.288\ngini = 0.388\nsamples = 19\nvalue = [5, 14, 0]", fillcolor="#80eeae"] ;
569 -> 570 ;
571 [label="prolonged fever/dyspnea/cough <= 0.5\ngini = 0.278\nsamples = 6\nvalue = [1, 5, 0]", fillcolor="#61ea9a"] ;
570 -> 571 ;
572 [label="No risk factor <= 0.5\ngini = 0.32\nsamples = 5\nvalue = [1, 4, 0]", fillcolor="#6aeca0"] ;
571 -> 572 ;
573 [label="gini = 0.0\nsamples = 2\nvalue = [0, 2, 0]", fillcolor="#39e581"] ;
572 -> 573 ;
574 [label="gini = 0.444\nsamples = 3\nvalue = [1, 2, 0]", fillcolor="#9cf2c0"] ;
572 -> 574 ;
575 [label="gini = 0.0\nsamples = 1\nvalue = [0, 1, 0]", fillcolor="#39e581"] ;
571 -> 575 ;
576 [label="Age (yr) <= 0.494\ngini = 0.426\nsamples = 13\nvalue = [4, 9, 0]", fillcolor="#91f1b9"] ;
570 -> 576 ;
577 [label="gini = 0.0\nsamples = 3\nvalue = [0, 3, 0]", fillcolor="#39e581"] ;
576 -> 577 ;
578 [label="Respratory distress <= 0.5\ngini = 0.48\nsamples = 10\nvalue = [4, 6, 0]", fillcolor="#bdf6d5"] ;
576 -> 578 ;
579 [label="Age (yr) <= 0.599\ngini = 0.494\nsamples = 9\nvalue = [4, 5, 0]", fillcolor="#d7fae6"] ;
578 -> 579 ;
580 [label="sPO2% <= 0.875\ngini = 0.444\nsamples = 6\nvalue = [4, 2, 0]", fillcolor="#f2c09c"] ;
579 -> 580 ;
581 [label="gini = 0.444\nsamples = 3\nvalue = [1, 2, 0]", fillcolor="#9cf2c0"] ;
580 -> 581 ;
582 [label="gini = 0.0\nsamples = 3\nvalue = [3, 0, 0]", fillcolor="#e58139"] ;
580 -> 582 ;
583 [label="gini = 0.0\nsamples = 3\nvalue = [0, 3, 0]", fillcolor="#39e581"] ;
579 -> 583 ;
584 [label="gini = 0.0\nsamples = 1\nvalue = [0, 1, 0]", fillcolor="#39e581"] ;
578 -> 584 ;
585 [label="weakness <= 0.5\ngini = 0.48\nsamples = 15\nvalue = [9, 6, 0]", fillcolor="#f6d5bd"] ;
569 -> 585 ;
586 [label="hypertension <= 0.5\ngini = 0.426\nsamples = 13\nvalue = [9, 4, 0]", fillcolor="#f1b991"] ;
585 -> 586 ;
587 [label="respiratory rate <= 0.25\ngini = 0.375\nsamples = 12\nvalue = [9, 3, 0]", fillcolor="#eeab7b"] ;
586 -> 587 ;
588 [label="sPO2% <= 0.903\ngini = 0.48\nsamples = 5\nvalue = [3, 2, 0]", fillcolor="#f6d5bd"] ;
587 -> 588 ;
589 [label="gini = 0.444\nsamples = 3\nvalue = [1, 2, 0]", fillcolor="#9cf2c0"] ;
588 -> 589 ;
590 [label="gini = 0.0\nsamples = 2\nvalue = [2, 0, 0]", fillcolor="#e58139"] ;
588 -> 590 ;
591 [label="diabetes melitus <= 0.5\ngini = 0.245\nsamples = 7\nvalue = [6, 1, 0]", fillcolor="#e9965a"] ;
587 -> 591 ;
592 [label="gini = 0.0\nsamples = 6\nvalue = [6, 0, 0]", fillcolor="#e58139"] ;
591 -> 592 ;
593 [label="gini = 0.0\nsamples = 1\nvalue = [0, 1, 0]", fillcolor="#39e581"] ;
591 -> 593 ;
594 [label="gini = 0.0\nsamples = 1\nvalue = [0, 1, 0]", fillcolor="#39e581"] ;
586 -> 594 ;
595 [label="gini = 0.0\nsamples = 2\nvalue = [0, 2, 0]", fillcolor="#39e581"] ;
585 -> 595 ;
596 [label="cough <= 0.5\ngini = 0.32\nsamples = 5\nvalue = [1, 4, 0]", fillcolor="#6aeca0"] ;
544 -> 596 ;
597 [label="gini = 0.0\nsamples = 2\nvalue = [0, 2, 0]", fillcolor="#39e581"] ;
596 -> 597 ;
598 [label="gini = 0.444\nsamples = 3\nvalue = [1, 2, 0]", fillcolor="#9cf2c0"] ;
596 -> 598 ;
599 [label="respiratory rate <= 0.404\ngini = 0.426\nsamples = 13\nvalue = [9, 4, 0]", fillcolor="#f1b991"] ;
543 -> 599 ;
600 [label="gini = 0.0\nsamples = 7\nvalue = [7, 0, 0]", fillcolor="#e58139"] ;
599 -> 600 ;
601 [label="respiratory rate <= 0.519\ngini = 0.444\nsamples = 6\nvalue = [2, 4, 0]", fillcolor="#9cf2c0"] ;
599 -> 601 ;
602 [label="gini = 0.0\nsamples = 3\nvalue = [0, 3, 0]", fillcolor="#39e581"] ;
601 -> 602 ;
603 [label="gini = 0.444\nsamples = 3\nvalue = [2, 1, 0]", fillcolor="#f2c09c"] ;
601 -> 603 ;
604 [label="Duration of starting complaints <= 0.5\ngini = 0.391\nsamples = 15\nvalue = [4, 11, 0]", fillcolor="#81eeaf"] ;
542 -> 604 ;
605 [label="dyspnea <= 0.5\ngini = 0.18\nsamples = 10\nvalue = [1, 9, 0]", fillcolor="#4fe88f"] ;
604 -> 605 ;
606 [label="gini = 0.0\nsamples = 5\nvalue = [0, 5, 0]", fillcolor="#39e581"] ;
605 -> 606 ;
607 [label="Duration of starting complaints <= 0.167\ngini = 0.32\nsamples = 5\nvalue = [1, 4, 0]", fillcolor="#6aeca0"] ;
605 -> 607 ;
608 [label="gini = 0.0\nsamples = 4\nvalue = [0, 4, 0]", fillcolor="#39e581"] ;
607 -> 608 ;
609 [label="gini = 0.0\nsamples = 1\nvalue = [1, 0, 0]", fillcolor="#e58139"] ;
607 -> 609 ;
610 [label="chest pain <= 0.5\ngini = 0.48\nsamples = 5\nvalue = [3, 2, 0]", fillcolor="#f6d5bd"] ;
604 -> 610 ;
611 [label="gini = 0.444\nsamples = 3\nvalue = [1, 2, 0]", fillcolor="#9cf2c0"] ;
610 -> 611 ;
612 [label="gini = 0.0\nsamples = 2\nvalue = [2, 0, 0]", fillcolor="#e58139"] ;
610 -> 612 ;
613 [label="sPO2% <= 0.931\ngini = 0.636\nsamples = 52\nvalue = [10, 22, 20]", fillcolor="#f3fdf7"] ;
541 -> 613 ;
614 [label="weakness <= 0.5\ngini = 0.593\nsamples = 36\nvalue = [8, 20, 8]", fillcolor="#aaf4c9"] ;
613 -> 614 ;
615 [label="chill <= 0.5\ngini = 0.602\nsamples = 25\nvalue = [4, 13, 8]", fillcolor="#c5f7da"] ;
614 -> 615 ;
616 [label="Respratory distress <= 0.5\ngini = 0.426\nsamples = 13\nvalue = [4, 9, 0]", fillcolor="#91f1b9"] ;
615 -> 616 ;
617 [label="cough <= 0.5\ngini = 0.463\nsamples = 11\nvalue = [4, 7, 0]", fillcolor="#aaf4c9"] ;
616 -> 617 ;
618 [label="Age (yr) <= 0.587\ngini = 0.32\nsamples = 5\nvalue = [1, 4, 0]", fillcolor="#6aeca0"] ;
617 -> 618 ;
619 [label="gini = 0.5\nsamples = 2\nvalue = [1, 1, 0]", fillcolor="#ffffff"] ;
618 -> 619 ;
620 [label="gini = 0.0\nsamples = 3\nvalue = [0, 3, 0]", fillcolor="#39e581"] ;
618 -> 620 ;
621 [label="sPO2% <= 0.875\ngini = 0.5\nsamples = 6\nvalue = [3, 3, 0]", fillcolor="#ffffff"] ;
617 -> 621 ;
622 [label="gini = 0.0\nsamples = 1\nvalue = [1, 0, 0]", fillcolor="#e58139"] ;
621 -> 622 ;
623 [label="No risk factor <= 0.5\ngini = 0.48\nsamples = 5\nvalue = [2, 3, 0]", fillcolor="#bdf6d5"] ;
621 -> 623 ;
624 [label="gini = 0.375\nsamples = 4\nvalue = [1, 3, 0]", fillcolor="#7beeab"] ;
623 -> 624 ;
625 [label="gini = 0.0\nsamples = 1\nvalue = [1, 0, 0]", fillcolor="#e58139"] ;
623 -> 625 ;
626 [label="gini = 0.0\nsamples = 2\nvalue = [0, 2, 0]", fillcolor="#39e581"] ;
616 -> 626 ;
627 [label="cough <= 0.5\ngini = 0.444\nsamples = 12\nvalue = [0, 4, 8]", fillcolor="#c09cf2"] ;
615 -> 627 ;
628 [label="gini = 0.0\nsamples = 2\nvalue = [0, 2, 0]", fillcolor="#39e581"] ;
627 -> 628 ;
629 [label="No risk factor <= 0.5\ngini = 0.32\nsamples = 10\nvalue = [0, 2, 8]", fillcolor="#a06aec"] ;
627 -> 629 ;
630 [label="sPO2% <= 0.875\ngini = 0.198\nsamples = 9\nvalue = [0, 1, 8]", fillcolor="#9152e8"] ;
629 -> 630 ;
631 [label="gini = 0.0\nsamples = 8\nvalue = [0, 0, 8]", fillcolor="#8139e5"] ;
630 -> 631 ;
632 [label="gini = 0.0\nsamples = 1\nvalue = [0, 1, 0]", fillcolor="#39e581"] ;
630 -> 632 ;
633 [label="gini = 0.0\nsamples = 1\nvalue = [0, 1, 0]", fillcolor="#39e581"] ;
629 -> 633 ;
634 [label="cough <= 0.5\ngini = 0.463\nsamples = 11\nvalue = [4, 7, 0]", fillcolor="#aaf4c9"] ;
614 -> 634 ;
635 [label="fever <= 0.5\ngini = 0.5\nsamples = 8\nvalue = [4, 4, 0]", fillcolor="#ffffff"] ;
634 -> 635 ;
636 [label="headache <= 0.5\ngini = 0.48\nsamples = 5\nvalue = [2, 3, 0]", fillcolor="#bdf6d5"] ;
635 -> 636 ;
637 [label="gini = 0.375\nsamples = 4\nvalue = [1, 3, 0]", fillcolor="#7beeab"] ;
636 -> 637 ;
638 [label="gini = 0.0\nsamples = 1\nvalue = [1, 0, 0]", fillcolor="#e58139"] ;
636 -> 638 ;
639 [label="gini = 0.444\nsamples = 3\nvalue = [2, 1, 0]", fillcolor="#f2c09c"] ;
635 -> 639 ;
640 [label="gini = 0.0\nsamples = 3\nvalue = [0, 3, 0]", fillcolor="#39e581"] ;
634 -> 640 ;
641 [label="dyspnea <= 0.5\ngini = 0.406\nsamples = 16\nvalue = [2, 2, 12]", fillcolor="#a572ec"] ;
613 -> 641 ;
642 [label="gini = 0.0\nsamples = 12\nvalue = [0, 0, 12]", fillcolor="#8139e5"] ;
641 -> 642 ;
643 [label="gini = 0.5\nsamples = 4\nvalue = [2, 2, 0]", fillcolor="#ffffff"] ;
641 -> 643 ;
644 [label="fever <= 0.5\ngini = 0.534\nsamples = 50\nvalue = [6, 13, 31]", fillcolor="#c29ff2"] ;
540 -> 644 ;
645 [label="dyspnea <= 0.5\ngini = 0.611\nsamples = 24\nvalue = [4, 12, 8]", fillcolor="#cef8e0"] ;
644 -> 645 ;
646 [label="sPO2% <= 0.931\ngini = 0.397\nsamples = 11\nvalue = [3, 8, 0]", fillcolor="#83efb0"] ;
645 -> 646 ;
647 [label="sPO2% <= 0.875\ngini = 0.32\nsamples = 10\nvalue = [2, 8, 0]", fillcolor="#6aeca0"] ;
646 -> 647 ;
648 [label="Duration of starting complaints <= 0.167\ngini = 0.48\nsamples = 5\nvalue = [2, 3, 0]", fillcolor="#bdf6d5"] ;
647 -> 648 ;
649 [label="gini = 0.0\nsamples = 1\nvalue = [1, 0, 0]", fillcolor="#e58139"] ;
648 -> 649 ;
650 [label="gini = 0.375\nsamples = 4\nvalue = [1, 3, 0]", fillcolor="#7beeab"] ;
648 -> 650 ;
651 [label="gini = 0.0\nsamples = 5\nvalue = [0, 5, 0]", fillcolor="#39e581"] ;
647 -> 651 ;
652 [label="gini = 0.0\nsamples = 1\nvalue = [1, 0, 0]", fillcolor="#e58139"] ;
646 -> 652 ;
653 [label="chest pain <= 0.5\ngini = 0.521\nsamples = 13\nvalue = [1, 4, 8]", fillcolor="#c7a7f3"] ;
645 -> 653 ;
654 [label="gini = 0.444\nsamples = 3\nvalue = [1, 2, 0]", fillcolor="#9cf2c0"] ;
653 -> 654 ;
655 [label="Duration of starting complaints <= 0.5\ngini = 0.32\nsamples = 10\nvalue = [0, 2, 8]", fillcolor="#a06aec"] ;
653 -> 655 ;
656 [label="Age (yr) <= 0.721\ngini = 0.198\nsamples = 9\nvalue = [0, 1, 8]", fillcolor="#9152e8"] ;
655 -> 656 ;
657 [label="gini = 0.0\nsamples = 8\nvalue = [0, 0, 8]", fillcolor="#8139e5"] ;
656 -> 657 ;
658 [label="gini = 0.0\nsamples = 1\nvalue = [0, 1, 0]", fillcolor="#39e581"] ;
656 -> 658 ;
659 [label="gini = 0.0\nsamples = 1\nvalue = [0, 1, 0]", fillcolor="#39e581"] ;
655 -> 659 ;
660 [label="Duration of starting complaints <= 0.333\ngini = 0.21\nsamples = 26\nvalue = [2, 1, 23]", fillcolor="#9152e8"] ;
644 -> 660 ;
661 [label="Age (yr) <= 0.814\ngini = 0.147\nsamples = 25\nvalue = [2, 0, 23]", fillcolor="#8c4ae7"] ;
660 -> 661 ;
662 [label="prolonged fever/dyspnea/cough <= 0.5\ngini = 0.26\nsamples = 13\nvalue = [2, 0, 11]", fillcolor="#985dea"] ;
661 -> 662 ;
663 [label="gini = 0.0\nsamples = 2\nvalue = [2, 0, 0]", fillcolor="#e58139"] ;
662 -> 663 ;
664 [label="gini = 0.0\nsamples = 11\nvalue = [0, 0, 11]", fillcolor="#8139e5"] ;
662 -> 664 ;
665 [label="gini = 0.0\nsamples = 12\nvalue = [0, 0, 12]", fillcolor="#8139e5"] ;
661 -> 665 ;
666 [label="gini = 0.0\nsamples = 1\nvalue = [0, 1, 0]", fillcolor="#39e581"] ;
660 -> 666 ;
667 [label="prolonged fever/dyspnea/cough <= 0.5\ngini = 0.346\nsamples = 18\nvalue = [4, 14, 0]", fillcolor="#72eca5"] ;
539 -> 667 ;
668 [label="dyspnea <= 0.5\ngini = 0.469\nsamples = 8\nvalue = [3, 5, 0]", fillcolor="#b0f5cd"] ;
667 -> 668 ;
669 [label="gini = 0.0\nsamples = 5\nvalue = [0, 5, 0]", fillcolor="#39e581"] ;
668 -> 669 ;
670 [label="gini = 0.0\nsamples = 3\nvalue = [3, 0, 0]", fillcolor="#e58139"] ;
668 -> 670 ;
671 [label="chill <= 0.5\ngini = 0.18\nsamples = 10\nvalue = [1, 9, 0]", fillcolor="#4fe88f"] ;
667 -> 671 ;
672 [label="body pain <= 0.5\ngini = 0.32\nsamples = 5\nvalue = [1, 4, 0]", fillcolor="#6aeca0"] ;
671 -> 672 ;
673 [label="gini = 0.5\nsamples = 2\nvalue = [1, 1, 0]", fillcolor="#ffffff"] ;
672 -> 673 ;
674 [label="gini = 0.0\nsamples = 3\nvalue = [0, 3, 0]", fillcolor="#39e581"] ;
672 -> 674 ;
675 [label="gini = 0.0\nsamples = 5\nvalue = [0, 5, 0]", fillcolor="#39e581"] ;
671 -> 675 ;
676 [label="gini = 0.0\nsamples = 14\nvalue = [0, 0, 14]", fillcolor="#8139e5"] ;
538 -> 676 ;
677 [label="headache <= 0.5\ngini = 0.531\nsamples = 123\nvalue = [13, 34, 76]", fillcolor="#c4a2f3"] ;
537 -> 677 ;
678 [label="Age (yr) <= 0.663\ngini = 0.449\nsamples = 99\nvalue = [8, 21, 70]", fillcolor="#b083ef"] ;
677 -> 678 ;
679 [label="Respratory distress <= 0.5\ngini = 0.407\nsamples = 94\nvalue = [7, 17, 70]", fillcolor="#a877ed"] ;
678 -> 679 ;
680 [label="chest pain <= 0.5\ngini = 0.575\nsamples = 42\nvalue = [5, 14, 23]", fillcolor="#d6bff7"] ;
679 -> 680 ;
681 [label="sPO2% <= 0.931\ngini = 0.625\nsamples = 28\nvalue = [5, 13, 10]", fillcolor="#defbea"] ;
680 -> 681 ;
682 [label="Age (yr) <= 0.436\ngini = 0.415\nsamples = 17\nvalue = [5, 12, 0]", fillcolor="#8bf0b5"] ;
681 -> 682 ;
683 [label="gini = 0.375\nsamples = 4\nvalue = [3, 1, 0]", fillcolor="#eeab7b"] ;
682 -> 683 ;
684 [label="Age (yr) <= 0.512\ngini = 0.26\nsamples = 13\nvalue = [2, 11, 0]", fillcolor="#5dea98"] ;
682 -> 684 ;
685 [label="gini = 0.0\nsamples = 7\nvalue = [0, 7, 0]", fillcolor="#39e581"] ;
684 -> 685 ;
686 [label="chill <= 0.5\ngini = 0.444\nsamples = 6\nvalue = [2, 4, 0]", fillcolor="#9cf2c0"] ;
684 -> 686 ;
687 [label="gini = 0.444\nsamples = 3\nvalue = [2, 1, 0]", fillcolor="#f2c09c"] ;
686 -> 687 ;
688 [label="gini = 0.0\nsamples = 3\nvalue = [0, 3, 0]", fillcolor="#39e581"] ;
686 -> 688 ;
689 [label="Age (yr) <= 0.512\ngini = 0.165\nsamples = 11\nvalue = [0, 1, 10]", fillcolor="#8e4de8"] ;
681 -> 689 ;
690 [label="gini = 0.0\nsamples = 1\nvalue = [0, 1, 0]", fillcolor="#39e581"] ;
689 -> 690 ;
691 [label="gini = 0.0\nsamples = 10\nvalue = [0, 0, 10]", fillcolor="#8139e5"] ;
689 -> 691 ;
692 [label="Age (yr) <= 0.529\ngini = 0.133\nsamples = 14\nvalue = [0, 1, 13]", fillcolor="#8b48e7"] ;
680 -> 692 ;
693 [label="gini = 0.0\nsamples = 13\nvalue = [0, 0, 13]", fillcolor="#8139e5"] ;
692 -> 693 ;
694 [label="gini = 0.0\nsamples = 1\nvalue = [0, 1, 0]", fillcolor="#39e581"] ;
692 -> 694 ;
695 [label="prolonged fever/dyspnea/cough <= 0.5\ngini = 0.178\nsamples = 52\nvalue = [2, 3, 47]", fillcolor="#8e4de8"] ;
679 -> 695 ;
696 [label="gini = 0.0\nsamples = 24\nvalue = [0, 0, 24]", fillcolor="#8139e5"] ;
695 -> 696 ;
697 [label="sPO2% <= 0.903\ngini = 0.309\nsamples = 28\nvalue = [2, 3, 23]", fillcolor="#9a61ea"] ;
695 -> 697 ;
698 [label="fever <= 0.5\ngini = 0.204\nsamples = 26\nvalue = [0, 3, 23]", fillcolor="#9153e8"] ;
697 -> 698 ;
699 [label="cough <= 0.5\ngini = 0.147\nsamples = 25\nvalue = [0, 2, 23]", fillcolor="#8c4ae7"] ;
698 -> 699 ;
700 [label="gini = 0.0\nsamples = 1\nvalue = [0, 1, 0]", fillcolor="#39e581"] ;
699 -> 700 ;
701 [label="weakness <= 0.5\ngini = 0.08\nsamples = 24\nvalue = [0, 1, 23]", fillcolor="#8642e6"] ;
699 -> 701 ;
702 [label="gini = 0.0\nsamples = 15\nvalue = [0, 0, 15]", fillcolor="#8139e5"] ;
701 -> 702 ;
703 [label="No risk factor <= 0.5\ngini = 0.198\nsamples = 9\nvalue = [0, 1, 8]", fillcolor="#9152e8"] ;
701 -> 703 ;
704 [label="gini = 0.0\nsamples = 1\nvalue = [0, 1, 0]", fillcolor="#39e581"] ;
703 -> 704 ;
705 [label="gini = 0.0\nsamples = 8\nvalue = [0, 0, 8]", fillcolor="#8139e5"] ;
703 -> 705 ;
706 [label="gini = 0.0\nsamples = 1\nvalue = [0, 1, 0]", fillcolor="#39e581"] ;
698 -> 706 ;
707 [label="gini = 0.0\nsamples = 2\nvalue = [2, 0, 0]", fillcolor="#e58139"] ;
697 -> 707 ;
708 [label="Age (yr) <= 0.762\ngini = 0.32\nsamples = 5\nvalue = [1, 4, 0]", fillcolor="#6aeca0"] ;
678 -> 708 ;
709 [label="gini = 0.0\nsamples = 3\nvalue = [0, 3, 0]", fillcolor="#39e581"] ;
708 -> 709 ;
710 [label="gini = 0.5\nsamples = 2\nvalue = [1, 1, 0]", fillcolor="#ffffff"] ;
708 -> 710 ;
711 [label="respiratory rate <= 0.288\ngini = 0.601\nsamples = 24\nvalue = [5, 13, 6]", fillcolor="#b2f5ce"] ;
677 -> 711 ;
712 [label="sPO2% <= 0.931\ngini = 0.494\nsamples = 9\nvalue = [1, 2, 6]", fillcolor="#b78ef0"] ;
711 -> 712 ;
713 [label="gini = 0.444\nsamples = 3\nvalue = [1, 2, 0]", fillcolor="#9cf2c0"] ;
712 -> 713 ;
714 [label="gini = 0.0\nsamples = 6\nvalue = [0, 0, 6]", fillcolor="#8139e5"] ;
712 -> 714 ;
715 [label="weakness <= 0.5\ngini = 0.391\nsamples = 15\nvalue = [4, 11, 0]", fillcolor="#81eeaf"] ;
711 -> 715 ;
716 [label="chill <= 0.5\ngini = 0.165\nsamples = 11\nvalue = [1, 10, 0]", fillcolor="#4de88e"] ;
715 -> 716 ;
717 [label="gini = 0.444\nsamples = 3\nvalue = [1, 2, 0]", fillcolor="#9cf2c0"] ;
716 -> 717 ;
718 [label="gini = 0.0\nsamples = 8\nvalue = [0, 8, 0]", fillcolor="#39e581"] ;
716 -> 718 ;
719 [label="gini = 0.375\nsamples = 4\nvalue = [3, 1, 0]", fillcolor="#eeab7b"] ;
715 -> 719 ;
720 [label="sPO2% <= 0.819\ngini = 0.634\nsamples = 1555\nvalue = [693, 561, 301]", fillcolor="#fceee5"] ;
0 -> 720 [labeldistance=2.5, labelangle=-45, headlabel="False"] ;
721 [label="Duration of starting complaints <= 0.833\ngini = 0.325\nsamples = 231\nvalue = [29, 15, 187]", fillcolor="#9c64eb"] ;
720 -> 721 ;
722 [label="weakness <= 0.5\ngini = 0.31\nsamples = 228\nvalue = [26, 15, 187]", fillcolor="#9b61ea"] ;
721 -> 722 ;
723 [label="Age (yr) <= 0.203\ngini = 0.29\nsamples = 196\nvalue = [25, 8, 163]", fillcolor="#995fea"] ;
722 -> 723 ;
724 [label="respiratory rate <= 0.25\ngini = 0.32\nsamples = 5\nvalue = [4, 1, 0]", fillcolor="#eca06a"] ;
723 -> 724 ;
725 [label="gini = 0.0\nsamples = 3\nvalue = [3, 0, 0]", fillcolor="#e58139"] ;
724 -> 725 ;
726 [label="gini = 0.5\nsamples = 2\nvalue = [1, 1, 0]", fillcolor="#ffffff"] ;
724 -> 726 ;
727 [label="Age (yr) <= 0.936\ngini = 0.258\nsamples = 191\nvalue = [21, 7, 163]", fillcolor="#965ae9"] ;
723 -> 727 ;
728 [label="Age (yr) <= 0.715\ngini = 0.252\nsamples = 190\nvalue = [20, 7, 163]", fillcolor="#9558e9"] ;
727 -> 728 ;
729 [label="fever <= 0.5\ngini = 0.333\nsamples = 121\nvalue = [18, 6, 97]", fillcolor="#9e67eb"] ;
728 -> 729 ;
730 [label="Age (yr) <= 0.593\ngini = 0.279\nsamples = 92\nvalue = [13, 2, 77]", fillcolor="#995fea"] ;
729 -> 730 ;
731 [label="diabetes melitus <= 0.5\ngini = 0.216\nsamples = 75\nvalue = [7, 2, 66]", fillcolor="#9253e8"] ;
730 -> 731 ;
732 [label="respiratory rate <= 0.269\ngini = 0.334\nsamples = 45\nvalue = [7, 2, 36]", fillcolor="#9f68eb"] ;
731 -> 732 ;
733 [label="gini = 0.0\nsamples = 29\nvalue = [0, 0, 29]", fillcolor="#8139e5"] ;
732 -> 733 ;
734 [label="sPO2% <= 0.75\ngini = 0.602\nsamples = 16\nvalue = [7, 2, 7]", fillcolor="#ffffff"] ;
732 -> 734 ;
735 [label="chest pain <= 0.5\ngini = 0.219\nsamples = 8\nvalue = [1, 0, 7]", fillcolor="#9355e9"] ;
734 -> 735 ;
736 [label="gini = 0.0\nsamples = 1\nvalue = [1, 0, 0]", fillcolor="#e58139"] ;
735 -> 736 ;
737 [label="gini = 0.0\nsamples = 7\nvalue = [0, 0, 7]", fillcolor="#8139e5"] ;
735 -> 737 ;
738 [label="Duration of starting complaints <= 0.5\ngini = 0.375\nsamples = 8\nvalue = [6, 2, 0]", fillcolor="#eeab7b"] ;
734 -> 738 ;
739 [label="hypertension <= 0.5\ngini = 0.444\nsamples = 6\nvalue = [4, 2, 0]", fillcolor="#f2c09c"] ;
738 -> 739 ;
740 [label="No risk factor <= 0.5\ngini = 0.32\nsamples = 5\nvalue = [4, 1, 0]", fillcolor="#eca06a"] ;
739 -> 740 ;
741 [label="gini = 0.0\nsamples = 2\nvalue = [2, 0, 0]", fillcolor="#e58139"] ;
740 -> 741 ;
742 [label="gini = 0.444\nsamples = 3\nvalue = [2, 1, 0]", fillcolor="#f2c09c"] ;
740 -> 742 ;
743 [label="gini = 0.0\nsamples = 1\nvalue = [0, 1, 0]", fillcolor="#39e581"] ;
739 -> 743 ;
744 [label="gini = 0.0\nsamples = 2\nvalue = [2, 0, 0]", fillcolor="#e58139"] ;
738 -> 744 ;
745 [label="gini = 0.0\nsamples = 30\nvalue = [0, 0, 30]", fillcolor="#8139e5"] ;
731 -> 745 ;
746 [label="body pain <= 0.5\ngini = 0.457\nsamples = 17\nvalue = [6, 0, 11]", fillcolor="#c6a5f3"] ;
730 -> 746 ;
747 [label="gini = 0.0\nsamples = 6\nvalue = [6, 0, 0]", fillcolor="#e58139"] ;
746 -> 747 ;
748 [label="gini = 0.0\nsamples = 11\nvalue = [0, 0, 11]", fillcolor="#8139e5"] ;
746 -> 748 ;
749 [label="sPO2% <= 0.708\ngini = 0.476\nsamples = 29\nvalue = [5, 4, 20]", fillcolor="#b083ef"] ;
729 -> 749 ;
750 [label="gini = 0.0\nsamples = 14\nvalue = [0, 0, 14]", fillcolor="#8139e5"] ;
749 -> 750 ;
751 [label="Respratory distress <= 0.5\ngini = 0.658\nsamples = 15\nvalue = [5, 4, 6]", fillcolor="#f2ebfc"] ;
749 -> 751 ;
752 [label="dyspnea <= 0.5\ngini = 0.49\nsamples = 7\nvalue = [4, 3, 0]", fillcolor="#f8e0ce"] ;
751 -> 752 ;
753 [label="headache <= 0.5\ngini = 0.32\nsamples = 5\nvalue = [4, 1, 0]", fillcolor="#eca06a"] ;
752 -> 753 ;
754 [label="gini = 0.0\nsamples = 3\nvalue = [3, 0, 0]", fillcolor="#e58139"] ;
753 -> 754 ;
755 [label="gini = 0.5\nsamples = 2\nvalue = [1, 1, 0]", fillcolor="#ffffff"] ;
753 -> 755 ;
756 [label="gini = 0.0\nsamples = 2\nvalue = [0, 2, 0]", fillcolor="#39e581"] ;
752 -> 756 ;
757 [label="chest pain <= 0.5\ngini = 0.406\nsamples = 8\nvalue = [1, 1, 6]", fillcolor="#a572ec"] ;
751 -> 757 ;
758 [label="Age (yr) <= 0.401\ngini = 0.245\nsamples = 7\nvalue = [1, 0, 6]", fillcolor="#965ae9"] ;
757 -> 758 ;
759 [label="gini = 0.0\nsamples = 6\nvalue = [0, 0, 6]", fillcolor="#8139e5"] ;
758 -> 759 ;
760 [label="gini = 0.0\nsamples = 1\nvalue = [1, 0, 0]", fillcolor="#e58139"] ;
758 -> 760 ;
761 [label="gini = 0.0\nsamples = 1\nvalue = [0, 1, 0]", fillcolor="#39e581"] ;
757 -> 761 ;
762 [label="cough <= 0.5\ngini = 0.084\nsamples = 69\nvalue = [2, 1, 66]", fillcolor="#8742e6"] ;
728 -> 762 ;
763 [label="Duration of starting complaints <= 0.333\ngini = 0.21\nsamples = 26\nvalue = [2, 1, 23]", fillcolor="#9152e8"] ;
762 -> 763 ;
764 [label="No risk factor <= 0.5\ngini = 0.304\nsamples = 17\nvalue = [2, 1, 14]", fillcolor="#9a61ea"] ;
763 -> 764 ;
765 [label="anorexia <= 0.5\ngini = 0.219\nsamples = 8\nvalue = [1, 0, 7]", fillcolor="#9355e9"] ;
764 -> 765 ;
766 [label="gini = 0.0\nsamples = 7\nvalue = [0, 0, 7]", fillcolor="#8139e5"] ;
765 -> 766 ;
767 [label="gini = 0.0\nsamples = 1\nvalue = [1, 0, 0]", fillcolor="#e58139"] ;
765 -> 767 ;
768 [label="Age (yr) <= 0.802\ngini = 0.37\nsamples = 9\nvalue = [1, 1, 7]", fillcolor="#a06aec"] ;
764 -> 768 ;
769 [label="fever <= 0.5\ngini = 0.219\nsamples = 8\nvalue = [0, 1, 7]", fillcolor="#9355e9"] ;
768 -> 769 ;
770 [label="gini = 0.0\nsamples = 1\nvalue = [0, 1, 0]", fillcolor="#39e581"] ;
769 -> 770 ;
771 [label="gini = 0.0\nsamples = 7\nvalue = [0, 0, 7]", fillcolor="#8139e5"] ;
769 -> 771 ;
772 [label="gini = 0.0\nsamples = 1\nvalue = [1, 0, 0]", fillcolor="#e58139"] ;
768 -> 772 ;
773 [label="gini = 0.0\nsamples = 9\nvalue = [0, 0, 9]", fillcolor="#8139e5"] ;
763 -> 773 ;
774 [label="gini = 0.0\nsamples = 43\nvalue = [0, 0, 43]", fillcolor="#8139e5"] ;
762 -> 774 ;
775 [label="gini = 0.0\nsamples = 1\nvalue = [1, 0, 0]", fillcolor="#e58139"] ;
727 -> 775 ;
776 [label="cough <= 0.5\ngini = 0.389\nsamples = 32\nvalue = [1, 7, 24]", fillcolor="#a978ed"] ;
722 -> 776 ;
777 [label="hypertension <= 0.5\ngini = 0.593\nsamples = 9\nvalue = [1, 4, 4]", fillcolor="#ffffff"] ;
776 -> 777 ;
778 [label="gini = 0.0\nsamples = 4\nvalue = [0, 4, 0]", fillcolor="#39e581"] ;
777 -> 778 ;
779 [label="Age (yr) <= 0.721\ngini = 0.32\nsamples = 5\nvalue = [1, 0, 4]", fillcolor="#a06aec"] ;
777 -> 779 ;
780 [label="gini = 0.0\nsamples = 1\nvalue = [1, 0, 0]", fillcolor="#e58139"] ;
779 -> 780 ;
781 [label="gini = 0.0\nsamples = 4\nvalue = [0, 0, 4]", fillcolor="#8139e5"] ;
779 -> 781 ;
782 [label="hypertension <= 0.5\ngini = 0.227\nsamples = 23\nvalue = [0, 3, 20]", fillcolor="#9457e9"] ;
776 -> 782 ;
783 [label="sPO2% <= 0.792\ngini = 0.165\nsamples = 22\nvalue = [0, 2, 20]", fillcolor="#8e4de8"] ;
782 -> 783 ;
784 [label="Duration of starting complaints <= 0.167\ngini = 0.091\nsamples = 21\nvalue = [0, 1, 20]", fillcolor="#8743e6"] ;
783 -> 784 ;
785 [label="nausea/vomiting <= 0.5\ngini = 0.278\nsamples = 6\nvalue = [0, 1, 5]", fillcolor="#9a61ea"] ;
784 -> 785 ;
786 [label="gini = 0.0\nsamples = 1\nvalue = [0, 1, 0]", fillcolor="#39e581"] ;
785 -> 786 ;
787 [label="gini = 0.0\nsamples = 5\nvalue = [0, 0, 5]", fillcolor="#8139e5"] ;
785 -> 787 ;
788 [label="gini = 0.0\nsamples = 15\nvalue = [0, 0, 15]", fillcolor="#8139e5"] ;
784 -> 788 ;
789 [label="gini = 0.0\nsamples = 1\nvalue = [0, 1, 0]", fillcolor="#39e581"] ;
783 -> 789 ;
790 [label="gini = 0.0\nsamples = 1\nvalue = [0, 1, 0]", fillcolor="#39e581"] ;
782 -> 790 ;
791 [label="gini = 0.0\nsamples = 3\nvalue = [3, 0, 0]", fillcolor="#e58139"] ;
721 -> 791 ;
792 [label="Duration of starting complaints <= 0.5\ngini = 0.571\nsamples = 1324\nvalue = [664, 546, 114]", fillcolor="#fbece1"] ;
720 -> 792 ;
793 [label="respiratory rate <= 0.731\ngini = 0.586\nsamples = 1120\nvalue = [517, 489, 114]", fillcolor="#fef9f6"] ;
792 -> 793 ;
794 [label="Age (yr) <= 0.552\ngini = 0.57\nsamples = 1093\nvalue = [516, 489, 88]", fillcolor="#fef9f6"] ;
793 -> 794 ;
795 [label="chill <= 0.5\ngini = 0.551\nsamples = 942\nvalue = [472, 415, 55]", fillcolor="#fcf1ea"] ;
794 -> 795 ;
796 [label="No risk factor <= 0.5\ngini = 0.525\nsamples = 699\nvalue = [384, 290, 25]", fillcolor="#f9e2d1"] ;
795 -> 796 ;
797 [label="weakness <= 0.5\ngini = 0.544\nsamples = 226\nvalue = [96, 118, 12]", fillcolor="#ddfbea"] ;
796 -> 797 ;
798 [label="sPO2% <= 0.847\ngini = 0.559\nsamples = 182\nvalue = [84, 86, 12]", fillcolor="#fbfefc"] ;
797 -> 798 ;
799 [label="dyspnea <= 0.5\ngini = 0.553\nsamples = 21\nvalue = [2, 7, 12]", fillcolor="#d2b8f6"] ;
798 -> 799 ;
800 [label="nausea/vomiting <= 0.5\ngini = 0.521\nsamples = 19\nvalue = [2, 5, 12]", fillcolor="#c09cf2"] ;
799 -> 800 ;
801 [label="Age (yr) <= 0.262\ngini = 0.457\nsamples = 17\nvalue = [2, 3, 12]", fillcolor="#ae80ee"] ;
800 -> 801 ;
802 [label="gini = 0.0\nsamples = 12\nvalue = [0, 0, 12]", fillcolor="#8139e5"] ;
801 -> 802 ;
803 [label="headache <= 0.5\ngini = 0.48\nsamples = 5\nvalue = [2, 3, 0]", fillcolor="#bdf6d5"] ;
801 -> 803 ;
804 [label="gini = 0.5\nsamples = 4\nvalue = [2, 2, 0]", fillcolor="#ffffff"] ;
803 -> 804 ;
805 [label="gini = 0.0\nsamples = 1\nvalue = [0, 1, 0]", fillcolor="#39e581"] ;
803 -> 805 ;
806 [label="gini = 0.0\nsamples = 2\nvalue = [0, 2, 0]", fillcolor="#39e581"] ;
800 -> 806 ;
807 [label="gini = 0.0\nsamples = 2\nvalue = [0, 2, 0]", fillcolor="#39e581"] ;
799 -> 807 ;
808 [label="chest pain <= 0.5\ngini = 0.5\nsamples = 161\nvalue = [82, 79, 0]", fillcolor="#fefaf8"] ;
798 -> 808 ;
809 [label="fever <= 0.5\ngini = 0.497\nsamples = 140\nvalue = [75, 65, 0]", fillcolor="#fceee5"] ;
808 -> 809 ;
810 [label="sPO2% <= 0.931\ngini = 0.49\nsamples = 121\nvalue = [69, 52, 0]", fillcolor="#f9e0ce"] ;
809 -> 810 ;
811 [label="headache <= 0.5\ngini = 0.471\nsamples = 87\nvalue = [54, 33, 0]", fillcolor="#f5ceb2"] ;
810 -> 811 ;
812 [label="Age (yr) <= 0.215\ngini = 0.45\nsamples = 76\nvalue = [50, 26, 0]", fillcolor="#f3c3a0"] ;
811 -> 812 ;
813 [label="gini = 0.0\nsamples = 17\nvalue = [17, 0, 0]", fillcolor="#e58139"] ;
812 -> 813 ;
814 [label="Respratory distress <= 0.5\ngini = 0.493\nsamples = 59\nvalue = [33, 26, 0]", fillcolor="#f9e4d5"] ;
812 -> 814 ;
815 [label="diabetes melitus <= 0.5\ngini = 0.484\nsamples = 56\nvalue = [33, 23, 0]", fillcolor="#f7d9c3"] ;
814 -> 815 ;
816 [label="dyspnea <= 0.5\ngini = 0.457\nsamples = 48\nvalue = [31, 17, 0]", fillcolor="#f3c6a6"] ;
815 -> 816 ;
817 [label="sPO2% <= 0.875\ngini = 0.463\nsamples = 33\nvalue = [21, 12, 0]", fillcolor="#f4c9aa"] ;
816 -> 817 ;
818 [label="cough <= 0.5\ngini = 0.444\nsamples = 6\nvalue = [2, 4, 0]", fillcolor="#9cf2c0"] ;
817 -> 818 ;
819 [label="gini = 0.444\nsamples = 3\nvalue = [2, 1, 0]", fillcolor="#f2c09c"] ;
818 -> 819 ;
820 [label="gini = 0.0\nsamples = 3\nvalue = [0, 3, 0]", fillcolor="#39e581"] ;
818 -> 820 ;
821 [label="hypertension <= 0.5\ngini = 0.417\nsamples = 27\nvalue = [19, 8, 0]", fillcolor="#f0b68c"] ;
817 -> 821 ;
822 [label="Age (yr) <= 0.436\ngini = 0.455\nsamples = 20\nvalue = [13, 7, 0]", fillcolor="#f3c5a4"] ;
821 -> 822 ;
823 [label="cough <= 0.5\ngini = 0.375\nsamples = 8\nvalue = [2, 6, 0]", fillcolor="#7beeab"] ;
822 -> 823 ;
824 [label="gini = 0.5\nsamples = 2\nvalue = [1, 1, 0]", fillcolor="#ffffff"] ;
823 -> 824 ;
825 [label="sPO2% <= 0.903\ngini = 0.278\nsamples = 6\nvalue = [1, 5, 0]", fillcolor="#61ea9a"] ;
823 -> 825 ;
826 [label="gini = 0.0\nsamples = 4\nvalue = [0, 4, 0]", fillcolor="#39e581"] ;
825 -> 826 ;
827 [label="gini = 0.5\nsamples = 2\nvalue = [1, 1, 0]", fillcolor="#ffffff"] ;
825 -> 827 ;
828 [label="cough <= 0.5\ngini = 0.153\nsamples = 12\nvalue = [11, 1, 0]", fillcolor="#e78c4b"] ;
822 -> 828 ;
829 [label="gini = 0.0\nsamples = 9\nvalue = [9, 0, 0]", fillcolor="#e58139"] ;
828 -> 829 ;
830 [label="gini = 0.444\nsamples = 3\nvalue = [2, 1, 0]", fillcolor="#f2c09c"] ;
828 -> 830 ;
831 [label="respiratory rate <= 0.365\ngini = 0.245\nsamples = 7\nvalue = [6, 1, 0]", fillcolor="#e9965a"] ;
821 -> 831 ;
832 [label="gini = 0.0\nsamples = 6\nvalue = [6, 0, 0]", fillcolor="#e58139"] ;
831 -> 832 ;
833 [label="gini = 0.0\nsamples = 1\nvalue = [0, 1, 0]", fillcolor="#39e581"] ;
831 -> 833 ;
834 [label="hypertension <= 0.5\ngini = 0.444\nsamples = 15\nvalue = [10, 5, 0]", fillcolor="#f2c09c"] ;
816 -> 834 ;
835 [label="body pain <= 0.5\ngini = 0.408\nsamples = 14\nvalue = [10, 4, 0]", fillcolor="#efb388"] ;
834 -> 835 ;
836 [label="Duration of starting complaints <= 0.167\ngini = 0.375\nsamples = 12\nvalue = [9, 3, 0]", fillcolor="#eeab7b"] ;
835 -> 836 ;
837 [label="respiratory rate <= 0.327\ngini = 0.298\nsamples = 11\nvalue = [9, 2, 0]", fillcolor="#eb9d65"] ;
836 -> 837 ;
838 [label="Age (yr) <= 0.465\ngini = 0.48\nsamples = 5\nvalue = [3, 2, 0]", fillcolor="#f6d5bd"] ;
837 -> 838 ;
839 [label="gini = 0.444\nsamples = 3\nvalue = [1, 2, 0]", fillcolor="#9cf2c0"] ;
838 -> 839 ;
840 [label="gini = 0.0\nsamples = 2\nvalue = [2, 0, 0]", fillcolor="#e58139"] ;
838 -> 840 ;
841 [label="gini = 0.0\nsamples = 6\nvalue = [6, 0, 0]", fillcolor="#e58139"] ;
837 -> 841 ;
842 [label="gini = 0.0\nsamples = 1\nvalue = [0, 1, 0]", fillcolor="#39e581"] ;
836 -> 842 ;
843 [label="gini = 0.5\nsamples = 2\nvalue = [1, 1, 0]", fillcolor="#ffffff"] ;
835 -> 843 ;
844 [label="gini = 0.0\nsamples = 1\nvalue = [0, 1, 0]", fillcolor="#39e581"] ;
834 -> 844 ;
845 [label="dyspnea <= 0.5\ngini = 0.375\nsamples = 8\nvalue = [2, 6, 0]", fillcolor="#7beeab"] ;
815 -> 845 ;
846 [label="gini = 0.0\nsamples = 4\nvalue = [0, 4, 0]", fillcolor="#39e581"] ;
845 -> 846 ;
847 [label="gini = 0.5\nsamples = 4\nvalue = [2, 2, 0]", fillcolor="#ffffff"] ;
845 -> 847 ;
848 [label="gini = 0.0\nsamples = 3\nvalue = [0, 3, 0]", fillcolor="#39e581"] ;
814 -> 848 ;
849 [label="diabetes melitus <= 0.5\ngini = 0.463\nsamples = 11\nvalue = [4, 7, 0]", fillcolor="#aaf4c9"] ;
811 -> 849 ;
850 [label="respiratory rate <= 0.346\ngini = 0.42\nsamples = 10\nvalue = [3, 7, 0]", fillcolor="#8ef0b7"] ;
849 -> 850 ;
851 [label="Duration of starting complaints <= 0.167\ngini = 0.49\nsamples = 7\nvalue = [3, 4, 0]", fillcolor="#cef8e0"] ;
850 -> 851 ;
852 [label="nausea/vomiting <= 0.5\ngini = 0.5\nsamples = 6\nvalue = [3, 3, 0]", fillcolor="#ffffff"] ;
851 -> 852 ;
853 [label="sPO2% <= 0.875\ngini = 0.48\nsamples = 5\nvalue = [3, 2, 0]", fillcolor="#f6d5bd"] ;
852 -> 853 ;
854 [label="gini = 0.0\nsamples = 1\nvalue = [0, 1, 0]", fillcolor="#39e581"] ;
853 -> 854 ;
855 [label="gini = 0.375\nsamples = 4\nvalue = [3, 1, 0]", fillcolor="#eeab7b"] ;
853 -> 855 ;
856 [label="gini = 0.0\nsamples = 1\nvalue = [0, 1, 0]", fillcolor="#39e581"] ;
852 -> 856 ;
857 [label="gini = 0.0\nsamples = 1\nvalue = [0, 1, 0]", fillcolor="#39e581"] ;
851 -> 857 ;
858 [label="gini = 0.0\nsamples = 3\nvalue = [0, 3, 0]", fillcolor="#39e581"] ;
850 -> 858 ;
859 [label="gini = 0.0\nsamples = 1\nvalue = [1, 0, 0]", fillcolor="#e58139"] ;
849 -> 859 ;
860 [label="Respratory distress <= 0.5\ngini = 0.493\nsamples = 34\nvalue = [15, 19, 0]", fillcolor="#d5fae4"] ;
810 -> 860 ;
861 [label="Duration of starting complaints <= 0.167\ngini = 0.496\nsamples = 33\nvalue = [15, 18, 0]", fillcolor="#defbea"] ;
860 -> 861 ;
862 [label="diabetes melitus <= 0.5\ngini = 0.488\nsamples = 26\nvalue = [11, 15, 0]", fillcolor="#caf8dd"] ;
861 -> 862 ;
863 [label="Age (yr) <= 0.413\ngini = 0.42\nsamples = 20\nvalue = [6, 14, 0]", fillcolor="#8ef0b7"] ;
862 -> 863 ;
864 [label="anorexia <= 0.5\ngini = 0.231\nsamples = 15\nvalue = [2, 13, 0]", fillcolor="#57e994"] ;
863 -> 864 ;
865 [label="dyspnea <= 0.5\ngini = 0.245\nsamples = 14\nvalue = [2, 12, 0]", fillcolor="#5ae996"] ;
864 -> 865 ;
866 [label="gini = 0.0\nsamples = 7\nvalue = [0, 7, 0]", fillcolor="#39e581"] ;
865 -> 866 ;
867 [label="respiratory rate <= 0.25\ngini = 0.408\nsamples = 7\nvalue = [2, 5, 0]", fillcolor="#88efb3"] ;
865 -> 867 ;
868 [label="Age (yr) <= 0.174\ngini = 0.48\nsamples = 5\nvalue = [2, 3, 0]", fillcolor="#bdf6d5"] ;
867 -> 868 ;
869 [label="gini = 0.0\nsamples = 1\nvalue = [0, 1, 0]", fillcolor="#39e581"] ;
868 -> 869 ;
870 [label="gini = 0.5\nsamples = 4\nvalue = [2, 2, 0]", fillcolor="#ffffff"] ;
868 -> 870 ;
871 [label="gini = 0.0\nsamples = 2\nvalue = [0, 2, 0]", fillcolor="#39e581"] ;
867 -> 871 ;
872 [label="gini = 0.0\nsamples = 1\nvalue = [0, 1, 0]", fillcolor="#39e581"] ;
864 -> 872 ;
873 [label="hypertension <= 0.5\ngini = 0.32\nsamples = 5\nvalue = [4, 1, 0]", fillcolor="#eca06a"] ;
863 -> 873 ;
874 [label="gini = 0.0\nsamples = 4\nvalue = [4, 0, 0]", fillcolor="#e58139"] ;
873 -> 874 ;
875 [label="gini = 0.0\nsamples = 1\nvalue = [0, 1, 0]", fillcolor="#39e581"] ;
873 -> 875 ;
876 [label="Age (yr) <= 0.401\ngini = 0.278\nsamples = 6\nvalue = [5, 1, 0]", fillcolor="#ea9a61"] ;
862 -> 876 ;
877 [label="gini = 0.0\nsamples = 3\nvalue = [3, 0, 0]", fillcolor="#e58139"] ;
876 -> 877 ;
878 [label="gini = 0.444\nsamples = 3\nvalue = [2, 1, 0]", fillcolor="#f2c09c"] ;
876 -> 878 ;
879 [label="sPO2% <= 0.958\ngini = 0.49\nsamples = 7\nvalue = [4, 3, 0]", fillcolor="#f8e0ce"] ;
861 -> 879 ;
880 [label="Age (yr) <= 0.297\ngini = 0.444\nsamples = 6\nvalue = [4, 2, 0]", fillcolor="#f2c09c"] ;
879 -> 880 ;
881 [label="gini = 0.0\nsamples = 4\nvalue = [4, 0, 0]", fillcolor="#e58139"] ;
880 -> 881 ;
882 [label="gini = 0.0\nsamples = 2\nvalue = [0, 2, 0]", fillcolor="#39e581"] ;
880 -> 882 ;
883 [label="gini = 0.0\nsamples = 1\nvalue = [0, 1, 0]", fillcolor="#39e581"] ;
879 -> 883 ;
884 [label="gini = 0.0\nsamples = 1\nvalue = [0, 1, 0]", fillcolor="#39e581"] ;
860 -> 884 ;
885 [label="Age (yr) <= 0.157\ngini = 0.432\nsamples = 19\nvalue = [6, 13, 0]", fillcolor="#94f1bb"] ;
809 -> 885 ;
886 [label="gini = 0.0\nsamples = 2\nvalue = [2, 0, 0]", fillcolor="#e58139"] ;
885 -> 886 ;
887 [label="dyspnea <= 0.5\ngini = 0.36\nsamples = 17\nvalue = [4, 13, 0]", fillcolor="#76eda8"] ;
885 -> 887 ;
888 [label="Duration of starting complaints <= 0.167\ngini = 0.391\nsamples = 15\nvalue = [4, 11, 0]", fillcolor="#81eeaf"] ;
887 -> 888 ;
889 [label="diabetes melitus <= 0.5\ngini = 0.469\nsamples = 8\nvalue = [3, 5, 0]", fillcolor="#b0f5cd"] ;
888 -> 889 ;
890 [label="Age (yr) <= 0.233\ngini = 0.278\nsamples = 6\nvalue = [1, 5, 0]", fillcolor="#61ea9a"] ;
889 -> 890 ;
891 [label="gini = 0.444\nsamples = 3\nvalue = [1, 2, 0]", fillcolor="#9cf2c0"] ;
890 -> 891 ;
892 [label="gini = 0.0\nsamples = 3\nvalue = [0, 3, 0]", fillcolor="#39e581"] ;
890 -> 892 ;
893 [label="gini = 0.0\nsamples = 2\nvalue = [2, 0, 0]", fillcolor="#e58139"] ;
889 -> 893 ;
894 [label="sPO2% <= 0.958\ngini = 0.245\nsamples = 7\nvalue = [1, 6, 0]", fillcolor="#5ae996"] ;
888 -> 894 ;
895 [label="gini = 0.0\nsamples = 5\nvalue = [0, 5, 0]", fillcolor="#39e581"] ;
894 -> 895 ;
896 [label="gini = 0.5\nsamples = 2\nvalue = [1, 1, 0]", fillcolor="#ffffff"] ;
894 -> 896 ;
897 [label="gini = 0.0\nsamples = 2\nvalue = [0, 2, 0]", fillcolor="#39e581"] ;
887 -> 897 ;
898 [label="Age (yr) <= 0.436\ngini = 0.444\nsamples = 21\nvalue = [7, 14, 0]", fillcolor="#9cf2c0"] ;
808 -> 898 ;
899 [label="Age (yr) <= 0.163\ngini = 0.484\nsamples = 17\nvalue = [7, 10, 0]", fillcolor="#c4f7d9"] ;
898 -> 899 ;
900 [label="gini = 0.0\nsamples = 2\nvalue = [0, 2, 0]", fillcolor="#39e581"] ;
899 -> 900 ;
901 [label="Duration of starting complaints <= 0.167\ngini = 0.498\nsamples = 15\nvalue = [7, 8, 0]", fillcolor="#e6fcef"] ;
899 -> 901 ;
902 [label="fever <= 0.5\ngini = 0.49\nsamples = 14\nvalue = [6, 8, 0]", fillcolor="#cef8e0"] ;
901 -> 902 ;
903 [label="Respratory distress <= 0.5\ngini = 0.497\nsamples = 13\nvalue = [6, 7, 0]", fillcolor="#e3fbed"] ;
902 -> 903 ;
904 [label="sPO2% <= 0.931\ngini = 0.496\nsamples = 11\nvalue = [6, 5, 0]", fillcolor="#fbeade"] ;
903 -> 904 ;
905 [label="dyspnea <= 0.5\ngini = 0.469\nsamples = 8\nvalue = [3, 5, 0]", fillcolor="#b0f5cd"] ;
904 -> 905 ;
906 [label="sPO2% <= 0.903\ngini = 0.444\nsamples = 6\nvalue = [2, 4, 0]", fillcolor="#9cf2c0"] ;
905 -> 906 ;
907 [label="gini = 0.444\nsamples = 3\nvalue = [2, 1, 0]", fillcolor="#f2c09c"] ;
906 -> 907 ;
908 [label="gini = 0.0\nsamples = 3\nvalue = [0, 3, 0]", fillcolor="#39e581"] ;
906 -> 908 ;
909 [label="gini = 0.5\nsamples = 2\nvalue = [1, 1, 0]", fillcolor="#ffffff"] ;
905 -> 909 ;
910 [label="gini = 0.0\nsamples = 3\nvalue = [3, 0, 0]", fillcolor="#e58139"] ;
904 -> 910 ;
911 [label="gini = 0.0\nsamples = 2\nvalue = [0, 2, 0]", fillcolor="#39e581"] ;
903 -> 911 ;
912 [label="gini = 0.0\nsamples = 1\nvalue = [0, 1, 0]", fillcolor="#39e581"] ;
902 -> 912 ;
913 [label="gini = 0.0\nsamples = 1\nvalue = [1, 0, 0]", fillcolor="#e58139"] ;
901 -> 913 ;
914 [label="gini = 0.0\nsamples = 4\nvalue = [0, 4, 0]", fillcolor="#39e581"] ;
898 -> 914 ;
915 [label="fever <= 0.5\ngini = 0.397\nsamples = 44\nvalue = [12, 32, 0]", fillcolor="#83efb0"] ;
797 -> 915 ;
916 [label="sPO2% <= 0.903\ngini = 0.367\nsamples = 33\nvalue = [8, 25, 0]", fillcolor="#78eda9"] ;
915 -> 916 ;
917 [label="anorexia <= 0.5\ngini = 0.48\nsamples = 15\nvalue = [6, 9, 0]", fillcolor="#bdf6d5"] ;
916 -> 917 ;
918 [label="nausea/vomiting <= 0.5\ngini = 0.5\nsamples = 12\nvalue = [6, 6, 0]", fillcolor="#ffffff"] ;
917 -> 918 ;
919 [label="respiratory rate <= 0.173\ngini = 0.496\nsamples = 11\nvalue = [6, 5, 0]", fillcolor="#fbeade"] ;
918 -> 919 ;
920 [label="gini = 0.0\nsamples = 1\nvalue = [0, 1, 0]", fillcolor="#39e581"] ;
919 -> 920 ;
921 [label="cough <= 0.5\ngini = 0.48\nsamples = 10\nvalue = [6, 4, 0]", fillcolor="#f6d5bd"] ;
919 -> 921 ;
922 [label="gini = 0.5\nsamples = 2\nvalue = [1, 1, 0]", fillcolor="#ffffff"] ;
921 -> 922 ;
923 [label="chest pain <= 0.5\ngini = 0.469\nsamples = 8\nvalue = [5, 3, 0]", fillcolor="#f5cdb0"] ;
921 -> 923 ;
924 [label="diabetes melitus <= 0.5\ngini = 0.49\nsamples = 7\nvalue = [4, 3, 0]", fillcolor="#f8e0ce"] ;
923 -> 924 ;
925 [label="hypertension <= 0.5\ngini = 0.444\nsamples = 6\nvalue = [4, 2, 0]", fillcolor="#f2c09c"] ;
924 -> 925 ;
926 [label="dyspnea <= 0.5\ngini = 0.32\nsamples = 5\nvalue = [4, 1, 0]", fillcolor="#eca06a"] ;
925 -> 926 ;
927 [label="gini = 0.0\nsamples = 1\nvalue = [0, 1, 0]", fillcolor="#39e581"] ;
926 -> 927 ;
928 [label="gini = 0.0\nsamples = 4\nvalue = [4, 0, 0]", fillcolor="#e58139"] ;
926 -> 928 ;
929 [label="gini = 0.0\nsamples = 1\nvalue = [0, 1, 0]", fillcolor="#39e581"] ;
925 -> 929 ;
930 [label="gini = 0.0\nsamples = 1\nvalue = [0, 1, 0]", fillcolor="#39e581"] ;
924 -> 930 ;
931 [label="gini = 0.0\nsamples = 1\nvalue = [1, 0, 0]", fillcolor="#e58139"] ;
923 -> 931 ;
932 [label="gini = 0.0\nsamples = 1\nvalue = [0, 1, 0]", fillcolor="#39e581"] ;
918 -> 932 ;
933 [label="gini = 0.0\nsamples = 3\nvalue = [0, 3, 0]", fillcolor="#39e581"] ;
917 -> 933 ;
934 [label="body pain <= 0.5\ngini = 0.198\nsamples = 18\nvalue = [2, 16, 0]", fillcolor="#52e891"] ;
916 -> 934 ;
935 [label="chest pain <= 0.5\ngini = 0.298\nsamples = 11\nvalue = [2, 9, 0]", fillcolor="#65eb9d"] ;
934 -> 935 ;
936 [label="Age (yr) <= 0.174\ngini = 0.408\nsamples = 7\nvalue = [2, 5, 0]", fillcolor="#88efb3"] ;
935 -> 936 ;
937 [label="gini = 0.5\nsamples = 2\nvalue = [1, 1, 0]", fillcolor="#ffffff"] ;
936 -> 937 ;
938 [label="Duration of starting complaints <= 0.167\ngini = 0.32\nsamples = 5\nvalue = [1, 4, 0]", fillcolor="#6aeca0"] ;
936 -> 938 ;
939 [label="gini = 0.444\nsamples = 3\nvalue = [1, 2, 0]", fillcolor="#9cf2c0"] ;
938 -> 939 ;
940 [label="gini = 0.0\nsamples = 2\nvalue = [0, 2, 0]", fillcolor="#39e581"] ;
938 -> 940 ;
941 [label="gini = 0.0\nsamples = 4\nvalue = [0, 4, 0]", fillcolor="#39e581"] ;
935 -> 941 ;
942 [label="gini = 0.0\nsamples = 7\nvalue = [0, 7, 0]", fillcolor="#39e581"] ;
934 -> 942 ;
943 [label="Age (yr) <= 0.238\ngini = 0.463\nsamples = 11\nvalue = [4, 7, 0]", fillcolor="#aaf4c9"] ;
915 -> 943 ;
944 [label="gini = 0.444\nsamples = 3\nvalue = [2, 1, 0]", fillcolor="#f2c09c"] ;
