digraph Tree {
node [shape=box, style="filled, rounded", color="black", fontname=helvetica] ;
edge [fontname=helvetica] ;
0 [label="Height <= 166.5\ngini = 0.67\nsamples = 1974\nvalue = [1028, 1068, 1027]\nclass = r", fillcolor="#fbfffd"] ;
1 [label="fever <= 0.5\ngini = 0.65\nsamples = 851\nvalue = [357, 386, 577]\nclass = i", fillcolor="#e5d7fa"] ;
0 -> 1 [labeldistance=2.5, labelangle=45, headlabel="True"] ;
2 [label="sPO2% <= 92.5\ngini = 0.66\nsamples = 575\nvalue = [295, 255, 342]\nclass = i", fillcolor="#f5effd"] ;
1 -> 2 ;
3 [label="chill <= 0.5\ngini = 0.1\nsamples = 113\nvalue = [9, 1, 171]\nclass = i", fillcolor="#8845e7"] ;
2 -> 3 ;
4 [label="Respratory distress <= 0.5\ngini = 0.12\nsamples = 100\nvalue = [9, 1, 147]\nclass = i", fillcolor="#8a46e7"] ;
3 -> 4 ;
5 [label="Age (yr) <= 23.5\ngini = 0.21\nsamples = 53\nvalue = [9, 1, 76]\nclass = i", fillcolor="#9153e8"] ;
4 -> 5 ;
6 [label="gini = 0.0\nsamples = 1\nvalue = [3, 0, 0]\nclass = T", fillcolor="#e58139"] ;
5 -> 6 ;
7 [label="prolonged fever/dyspnea/cough <= 0.5\ngini = 0.16\nsamples = 52\nvalue = [6, 1, 76]\nclass = i", fillcolor="#8c4be7"] ;
5 -> 7 ;
8 [label="pulse rate <= 72.5\ngini = 0.19\nsamples = 33\nvalue = [6, 0, 51]\nclass = i", fillcolor="#9050e8"] ;
7 -> 8 ;
9 [label="BMI <= 25.51\ngini = 0.42\nsamples = 6\nvalue = [3, 0, 7]\nclass = i", fillcolor="#b78ef0"] ;
8 -> 9 ;
10 [label="gini = 0.0\nsamples = 4\nvalue = [0, 0, 7]\nclass = i", fillcolor="#8139e5"] ;
9 -> 10 ;
11 [label="gini = 0.0\nsamples = 2\nvalue = [3, 0, 0]\nclass = T", fillcolor="#e58139"] ;
9 -> 11 ;
12 [label="weakness <= 0.5\ngini = 0.12\nsamples = 27\nvalue = [3, 0, 44]\nclass = i", fillcolor="#8a46e7"] ;
8 -> 12 ;
13 [label="No risk factor <= 0.5\ngini = 0.05\nsamples = 23\nvalue = [1, 0, 39]\nclass = i", fillcolor="#843ee6"] ;
12 -> 13 ;
14 [label="gini = 0.0\nsamples = 22\nvalue = [0, 0, 39]\nclass = i", fillcolor="#8139e5"] ;
13 -> 14 ;
15 [label="gini = 0.0\nsamples = 1\nvalue = [1, 0, 0]\nclass = T", fillcolor="#e58139"] ;
13 -> 15 ;
16 [label="Diastolic blood pressure <= 60.5\ngini = 0.41\nsamples = 4\nvalue = [2, 0, 5]\nclass = i", fillcolor="#b388ef"] ;
12 -> 16 ;
17 [label="gini = 0.0\nsamples = 1\nvalue = [2, 0, 0]\nclass = T", fillcolor="#e58139"] ;
16 -> 17 ;
18 [label="gini = 0.0\nsamples = 3\nvalue = [0, 0, 5]\nclass = i", fillcolor="#8139e5"] ;
16 -> 18 ;
19 [label="weakness <= 0.5\ngini = 0.07\nsamples = 19\nvalue = [0, 1, 25]\nclass = i", fillcolor="#8641e6"] ;
7 -> 19 ;
20 [label="gini = 0.0\nsamples = 7\nvalue = [0, 0, 9]\nclass = i", fillcolor="#8139e5"] ;
19 -> 20 ;
21 [label="prolonged anorexia/nausea/vomiting <= 0.5\ngini = 0.11\nsamples = 12\nvalue = [0, 1, 16]\nclass = i", fillcolor="#8945e7"] ;
19 -> 21 ;
22 [label="gini = 0.0\nsamples = 11\nvalue = [0, 0, 16]\nclass = i", fillcolor="#8139e5"] ;
21 -> 22 ;
23 [label="gini = 0.0\nsamples = 1\nvalue = [0, 1, 0]\nclass = r", fillcolor="#39e581"] ;
21 -> 23 ;
24 [label="gini = 0.0\nsamples = 47\nvalue = [0, 0, 71]\nclass = i", fillcolor="#8139e5"] ;
4 -> 24 ;
25 [label="gini = 0.0\nsamples = 13\nvalue = [0, 0, 24]\nclass = i", fillcolor="#8139e5"] ;
3 -> 25 ;
26 [label="dowsiness <= 0.5\ngini = 0.65\nsamples = 462\nvalue = [286, 254, 171]\nclass = T", fillcolor="#fdf6f1"] ;
2 -> 26 ;
27 [label="sweating <= 0.5\ngini = 0.65\nsamples = 454\nvalue = [285, 246, 171]\nclass = T", fillcolor="#fdf4ee"] ;
26 -> 27 ;
28 [label="diarrhea <= 0.5\ngini = 0.64\nsamples = 419\nvalue = [277, 231, 142]\nclass = T", fillcolor="#fcf1e9"] ;
27 -> 28 ;
29 [label="body pain <= 0.5\ngini = 0.63\nsamples = 383\nvalue = [266, 211, 115]\nclass = T", fillcolor="#fbede2"] ;
28 -> 29 ;
30 [label="Systolic blood presure <= 111.5\ngini = 0.6\nsamples = 284\nvalue = [220, 165, 63]\nclass = T", fillcolor="#fae7d9"] ;
29 -> 30 ;
31 [label="pulse rate <= 73.5\ngini = 0.61\nsamples = 45\nvalue = [34, 11, 31]\nclass = T", fillcolor="#fdf7f2"] ;
30 -> 31 ;
32 [label="cough <= 0.5\ngini = 0.28\nsamples = 13\nvalue = [2, 1, 16]\nclass = i", fillcolor="#975cea"] ;
31 -> 32 ;
33 [label="gini = 0.0\nsamples = 1\nvalue = [2, 0, 0]\nclass = T", fillcolor="#e58139"] ;
32 -> 33 ;
34 [label="chest pain <= 0.5\ngini = 0.11\nsamples = 12\nvalue = [0, 1, 16]\nclass = i", fillcolor="#8945e7"] ;
32 -> 34 ;
35 [label="sPO2% <= 96.5\ngini = 0.22\nsamples = 6\nvalue = [0, 1, 7]\nclass = i", fillcolor="#9355e9"] ;
34 -> 35 ;
36 [label="gini = 0.0\nsamples = 5\nvalue = [0, 0, 7]\nclass = i", fillcolor="#8139e5"] ;
35 -> 36 ;
37 [label="gini = 0.0\nsamples = 1\nvalue = [0, 1, 0]\nclass = r", fillcolor="#39e581"] ;
35 -> 37 ;
38 [label="gini = 0.0\nsamples = 6\nvalue = [0, 0, 9]\nclass = i", fillcolor="#8139e5"] ;
34 -> 38 ;
39 [label="no prominent effect <= 0.5\ngini = 0.58\nsamples = 32\nvalue = [32, 10, 15]\nclass = T", fillcolor="#f4ccaf"] ;
31 -> 39 ;
40 [label="Duration of starting complaints <= 3.5\ngini = 0.51\nsamples = 16\nvalue = [9, 1, 15]\nclass = i", fillcolor="#d0b5f5"] ;
39 -> 40 ;
41 [label="pregnancy <= 0.5\ngini = 0.54\nsamples = 9\nvalue = [9, 1, 6]\nclass = T", fillcolor="#f7d9c4"] ;
40 -> 41 ;
42 [label="pulse rate <= 98.5\ngini = 0.56\nsamples = 8\nvalue = [7, 1, 6]\nclass = T", fillcolor="#fcefe6"] ;
41 -> 42 ;
43 [label="BMI <= 27.31\ngini = 0.54\nsamples = 6\nvalue = [3, 1, 6]\nclass = i", fillcolor="#c9aaf4"] ;
42 -> 43 ;
44 [label="sore throat <= 0.5\ngini = 0.38\nsamples = 3\nvalue = [3, 1, 0]\nclass = T", fillcolor="#eeab7b"] ;
43 -> 44 ;
45 [label="sPO2% <= 95.0\ngini = 0.44\nsamples = 2\nvalue = [2, 1, 0]\nclass = T", fillcolor="#f2c09c"] ;
44 -> 45 ;
46 [label="gini = 0.0\nsamples = 1\nvalue = [2, 0, 0]\nclass = T", fillcolor="#e58139"] ;
45 -> 46 ;
47 [label="gini = 0.0\nsamples = 1\nvalue = [0, 1, 0]\nclass = r", fillcolor="#39e581"] ;
45 -> 47 ;
48 [label="gini = 0.0\nsamples = 1\nvalue = [1, 0, 0]\nclass = T", fillcolor="#e58139"] ;
44 -> 48 ;
49 [label="gini = 0.0\nsamples = 3\nvalue = [0, 0, 6]\nclass = i", fillcolor="#8139e5"] ;
43 -> 49 ;
50 [label="gini = 0.0\nsamples = 2\nvalue = [4, 0, 0]\nclass = T", fillcolor="#e58139"] ;
42 -> 50 ;
51 [label="gini = 0.0\nsamples = 1\nvalue = [2, 0, 0]\nclass = T", fillcolor="#e58139"] ;
41 -> 51 ;
52 [label="gini = 0.0\nsamples = 7\nvalue = [0, 0, 9]\nclass = i", fillcolor="#8139e5"] ;
40 -> 52 ;
53 [label="Age (yr) <= 24.5\ngini = 0.4\nsamples = 16\nvalue = [23, 9, 0]\nclass = T", fillcolor="#efb286"] ;
39 -> 53 ;
54 [label="gini = 0.0\nsamples = 1\nvalue = [0, 4, 0]\nclass = r", fillcolor="#39e581"] ;
53 -> 54 ;
55 [label="hypertension <= 0.5\ngini = 0.29\nsamples = 15\nvalue = [23, 5, 0]\nclass = T", fillcolor="#eb9c64"] ;
53 -> 55 ;
56 [label="respiratory rate <= 19.0\ngini = 0.25\nsamples = 14\nvalue = [23, 4, 0]\nclass = T", fillcolor="#ea975b"] ;
55 -> 56 ;
57 [label="gini = 0.0\nsamples = 4\nvalue = [8, 0, 0]\nclass = T", fillcolor="#e58139"] ;
56 -> 57 ;
58 [label="sputum <= 0.5\ngini = 0.33\nsamples = 10\nvalue = [15, 4, 0]\nclass = T", fillcolor="#eca36e"] ;
56 -> 58 ;
59 [label="respiratory rate <= 21.0\ngini = 0.21\nsamples = 9\nvalue = [15, 2, 0]\nclass = T", fillcolor="#e89253"] ;
58 -> 59 ;
60 [label="pulse rate <= 86.5\ngini = 0.26\nsamples = 6\nvalue = [11, 2, 0]\nclass = T", fillcolor="#ea985d"] ;
59 -> 60 ;
61 [label="gini = 0.0\nsamples = 4\nvalue = [9, 0, 0]\nclass = T", fillcolor="#e58139"] ;
60 -> 61 ;
62 [label="Diastolic blood pressure <= 61.5\ngini = 0.5\nsamples = 2\nvalue = [2, 2, 0]\nclass = T", fillcolor="#ffffff"] ;
60 -> 62 ;
63 [label="gini = 0.0\nsamples = 1\nvalue = [0, 2, 0]\nclass = r", fillcolor="#39e581"] ;
62 -> 63 ;
64 [label="gini = 0.0\nsamples = 1\nvalue = [2, 0, 0]\nclass = T", fillcolor="#e58139"] ;
62 -> 64 ;
65 [label="gini = 0.0\nsamples = 3\nvalue = [4, 0, 0]\nclass = T", fillcolor="#e58139"] ;
59 -> 65 ;
66 [label="gini = 0.0\nsamples = 1\nvalue = [0, 2, 0]\nclass = r", fillcolor="#39e581"] ;
58 -> 66 ;
67 [label="gini = 0.0\nsamples = 1\nvalue = [0, 1, 0]\nclass = r", fillcolor="#39e581"] ;
55 -> 67 ;
68 [label="cirrhosis <= 0.5\ngini = 0.57\nsamples = 239\nvalue = [186, 154, 32]\nclass = T", fillcolor="#fbede2"] ;
30 -> 68 ;
69 [label="conjectivitis <= 0.5\ngini = 0.56\nsamples = 234\nvalue = [186, 154, 25]\nclass = T", fillcolor="#fbece1"] ;
68 -> 69 ;
70 [label="no prominent effect <= 0.5\ngini = 0.56\nsamples = 232\nvalue = [186, 151, 25]\nclass = T", fillcolor="#fbeade"] ;
69 -> 70 ;
71 [label="No risk factor <= 0.5\ngini = 0.63\nsamples = 89\nvalue = [55, 59, 25]\nclass = r", fillcolor="#f6fef9"] ;
70 -> 71 ;
72 [label="Respiratory disease <= 0.5\ngini = 0.63\nsamples = 57\nvalue = [22, 45, 25]\nclass = r", fillcolor="#c4f7d9"] ;
71 -> 72 ;
73 [label="Gender <= 0.5\ngini = 0.6\nsamples = 48\nvalue = [20, 44, 17]\nclass = r", fillcolor="#b1f5cd"] ;
72 -> 73 ;
74 [label="Tempreture <= 36.65\ngini = 0.59\nsamples = 40\nvalue = [13, 38, 17]\nclass = r", fillcolor="#adf4cb"] ;
73 -> 74 ;
75 [label="pregnancy <= 0.5\ngini = 0.57\nsamples = 26\nvalue = [5, 27, 17]\nclass = r", fillcolor="#c1f7d8"] ;
74 -> 75 ;
76 [label="Respratory distress <= 0.5\ngini = 0.55\nsamples = 16\nvalue = [5, 19, 7]\nclass = r", fillcolor="#9cf2c0"] ;
75 -> 76 ;
77 [label="Duration of starting complaints <= 3.5\ngini = 0.53\nsamples = 15\nvalue = [4, 19, 7]\nclass = r", fillcolor="#98f1bd"] ;
76 -> 77 ;
78 [label="pulse rate <= 113.5\ngini = 0.29\nsamples = 12\nvalue = [4, 19, 0]\nclass = r", fillcolor="#63ea9c"] ;
77 -> 78 ;
79 [label="non medical personnel <= 0.5\ngini = 0.1\nsamples = 8\nvalue = [1, 17, 0]\nclass = r", fillcolor="#45e788"] ;
78 -> 79 ;
80 [label="ear pain <= 0.5\ngini = 0.12\nsamples = 7\nvalue = [1, 15, 0]\nclass = r", fillcolor="#46e789"] ;
79 -> 80 ;
81 [label="gini = 0.0\nsamples = 6\nvalue = [0, 15, 0]\nclass = r", fillcolor="#39e581"] ;
80 -> 81 ;
82 [label="gini = 0.0\nsamples = 1\nvalue = [1, 0, 0]\nclass = T", fillcolor="#e58139"] ;
80 -> 82 ;
83 [label="gini = 0.0\nsamples = 1\nvalue = [0, 2, 0]\nclass = r", fillcolor="#39e581"] ;
79 -> 83 ;
84 [label="Height <= 164.0\ngini = 0.48\nsamples = 4\nvalue = [3, 2, 0]\nclass = T", fillcolor="#f6d5bd"] ;
78 -> 84 ;
85 [label="Age (yr) <= 44.5\ngini = 0.44\nsamples = 3\nvalue = [1, 2, 0]\nclass = r", fillcolor="#9cf2c0"] ;
84 -> 85 ;
86 [label="gini = 0.0\nsamples = 1\nvalue = [1, 0, 0]\nclass = T", fillcolor="#e58139"] ;
85 -> 86 ;
87 [label="gini = 0.0\nsamples = 2\nvalue = [0, 2, 0]\nclass = r", fillcolor="#39e581"] ;
85 -> 87 ;
88 [label="gini = 0.0\nsamples = 1\nvalue = [2, 0, 0]\nclass = T", fillcolor="#e58139"] ;
84 -> 88 ;
89 [label="gini = 0.0\nsamples = 3\nvalue = [0, 0, 7]\nclass = i", fillcolor="#8139e5"] ;
77 -> 89 ;
90 [label="gini = 0.0\nsamples = 1\nvalue = [1, 0, 0]\nclass = T", fillcolor="#e58139"] ;
76 -> 90 ;
91 [label="Duration of starting complaints <= 2.0\ngini = 0.49\nsamples = 10\nvalue = [0, 8, 10]\nclass = i", fillcolor="#e6d7fa"] ;
75 -> 91 ;
92 [label="gini = 0.0\nsamples = 8\nvalue = [0, 0, 10]\nclass = i", fillcolor="#8139e5"] ;
91 -> 92 ;
93 [label="gini = 0.0\nsamples = 2\nvalue = [0, 8, 0]\nclass = r", fillcolor="#39e581"] ;
91 -> 93 ;
94 [label="Age (yr) <= 50.5\ngini = 0.49\nsamples = 14\nvalue = [8, 11, 0]\nclass = r", fillcolor="#c9f8dd"] ;
74 -> 94 ;
95 [label="Height <= 161.0\ngini = 0.41\nsamples = 10\nvalue = [4, 10, 0]\nclass = r", fillcolor="#88efb3"] ;
94 -> 95 ;
96 [label="Respratory distress <= 0.5\ngini = 0.5\nsamples = 6\nvalue = [4, 4, 0]\nclass = T", fillcolor="#ffffff"] ;
95 -> 96 ;
97 [label="Systolic blood presure <= 128.0\ngini = 0.49\nsamples = 5\nvalue = [4, 3, 0]\nclass = T", fillcolor="#f8e0ce"] ;
96 -> 97 ;
98 [label="gini = 0.0\nsamples = 2\nvalue = [0, 2, 0]\nclass = r", fillcolor="#39e581"] ;
97 -> 98 ;
99 [label="myalgia <= 0.5\ngini = 0.32\nsamples = 3\nvalue = [4, 1, 0]\nclass = T", fillcolor="#eca06a"] ;
97 -> 99 ;
100 [label="respiratory rate <= 20.5\ngini = 0.5\nsamples = 2\nvalue = [1, 1, 0]\nclass = T", fillcolor="#ffffff"] ;
99 -> 100 ;
101 [label="gini = 0.0\nsamples = 1\nvalue = [0, 1, 0]\nclass = r", fillcolor="#39e581"] ;
100 -> 101 ;
102 [label="gini = 0.0\nsamples = 1\nvalue = [1, 0, 0]\nclass = T", fillcolor="#e58139"] ;
100 -> 102 ;
103 [label="gini = 0.0\nsamples = 1\nvalue = [3, 0, 0]\nclass = T", fillcolor="#e58139"] ;
99 -> 103 ;
104 [label="gini = 0.0\nsamples = 1\nvalue = [0, 1, 0]\nclass = r", fillcolor="#39e581"] ;
96 -> 104 ;
105 [label="gini = 0.0\nsamples = 4\nvalue = [0, 6, 0]\nclass = r", fillcolor="#39e581"] ;
95 -> 105 ;
106 [label="sPO2% <= 95.5\ngini = 0.32\nsamples = 4\nvalue = [4, 1, 0]\nclass = T", fillcolor="#eca06a"] ;
94 -> 106 ;
107 [label="gini = 0.0\nsamples = 1\nvalue = [2, 0, 0]\nclass = T", fillcolor="#e58139"] ;
106 -> 107 ;
108 [label="respiratory rate <= 19.0\ngini = 0.44\nsamples = 3\nvalue = [2, 1, 0]\nclass = T", fillcolor="#f2c09c"] ;
106 -> 108 ;
109 [label="gini = 0.0\nsamples = 1\nvalue = [0, 1, 0]\nclass = r", fillcolor="#39e581"] ;
108 -> 109 ;
110 [label="gini = 0.0\nsamples = 2\nvalue = [2, 0, 0]\nclass = T", fillcolor="#e58139"] ;
108 -> 110 ;
111 [label="sputum <= 0.5\ngini = 0.5\nsamples = 8\nvalue = [7, 6, 0]\nclass = T", fillcolor="#fbede3"] ;
73 -> 111 ;
112 [label="mediacl personnel <= 0.5\ngini = 0.48\nsamples = 6\nvalue = [4, 6, 0]\nclass = r", fillcolor="#bdf6d5"] ;
111 -> 112 ;
113 [label="Duration of starting complaints <= 2.5\ngini = 0.49\nsamples = 5\nvalue = [4, 5, 0]\nclass = r", fillcolor="#d7fae6"] ;
112 -> 113 ;
114 [label="Systolic blood presure <= 165.5\ngini = 0.49\nsamples = 4\nvalue = [4, 3, 0]\nclass = T", fillcolor="#f8e0ce"] ;
113 -> 114 ;
115 [label="gini = 0.0\nsamples = 2\nvalue = [4, 0, 0]\nclass = T", fillcolor="#e58139"] ;
114 -> 115 ;
116 [label="gini = 0.0\nsamples = 2\nvalue = [0, 3, 0]\nclass = r", fillcolor="#39e581"] ;
114 -> 116 ;
117 [label="gini = 0.0\nsamples = 1\nvalue = [0, 2, 0]\nclass = r", fillcolor="#39e581"] ;
113 -> 117 ;
118 [label="gini = 0.0\nsamples = 1\nvalue = [0, 1, 0]\nclass = r", fillcolor="#39e581"] ;
112 -> 118 ;
119 [label="gini = 0.0\nsamples = 2\nvalue = [3, 0, 0]\nclass = T", fillcolor="#e58139"] ;
111 -> 119 ;
120 [label="Weight <= 83.0\ngini = 0.43\nsamples = 9\nvalue = [2, 1, 8]\nclass = i", fillcolor="#ab7bee"] ;
72 -> 120 ;
121 [label="Systolic blood presure <= 128.0\ngini = 0.5\nsamples = 2\nvalue = [1, 1, 0]\nclass = T", fillcolor="#ffffff"] ;
120 -> 121 ;
122 [label="gini = 0.0\nsamples = 1\nvalue = [1, 0, 0]\nclass = T", fillcolor="#e58139"] ;
121 -> 122 ;
123 [label="gini = 0.0\nsamples = 1\nvalue = [0, 1, 0]\nclass = r", fillcolor="#39e581"] ;
121 -> 123 ;
124 [label="Gender <= 0.5\ngini = 0.2\nsamples = 7\nvalue = [1, 0, 8]\nclass = i", fillcolor="#9152e8"] ;
120 -> 124 ;
125 [label="gini = 0.0\nsamples = 6\nvalue = [0, 0, 8]\nclass = i", fillcolor="#8139e5"] ;
124 -> 125 ;
126 [label="gini = 0.0\nsamples = 1\nvalue = [1, 0, 0]\nclass = T", fillcolor="#e58139"] ;
124 -> 126 ;
127 [label="dyspnea <= 0.5\ngini = 0.42\nsamples = 32\nvalue = [33, 14, 0]\nclass = T", fillcolor="#f0b68d"] ;
71 -> 127 ;
128 [label="sPO2% <= 96.5\ngini = 0.48\nsamples = 17\nvalue = [15, 10, 0]\nclass = T", fillcolor="#f6d5bd"] ;
127 -> 128 ;
129 [label="pulse rate <= 107.0\ngini = 0.49\nsamples = 6\nvalue = [5, 7, 0]\nclass = r", fillcolor="#c6f8db"] ;
128 -> 129 ;
130 [label="Tempreture <= 36.55\ngini = 0.41\nsamples = 4\nvalue = [5, 2, 0]\nclass = T", fillcolor="#efb388"] ;
129 -> 130 ;
131 [label="gini = 0.0\nsamples = 2\nvalue = [4, 0, 0]\nclass = T", fillcolor="#e58139"] ;
130 -> 131 ;
132 [label="Gender <= 0.5\ngini = 0.44\nsamples = 2\nvalue = [1, 2, 0]\nclass = r", fillcolor="#9cf2c0"] ;
130 -> 132 ;
133 [label="gini = 0.0\nsamples = 1\nvalue = [1, 0, 0]\nclass = T", fillcolor="#e58139"] ;
132 -> 133 ;
134 [label="gini = 0.0\nsamples = 1\nvalue = [0, 2, 0]\nclass = r", fillcolor="#39e581"] ;
132 -> 134 ;
135 [label="gini = 0.0\nsamples = 2\nvalue = [0, 5, 0]\nclass = r", fillcolor="#39e581"] ;
129 -> 135 ;
136 [label="respiratory rate <= 21.0\ngini = 0.36\nsamples = 11\nvalue = [10, 3, 0]\nclass = T", fillcolor="#eda774"] ;
128 -> 136 ;
137 [label="Respratory distress <= 0.5\ngini = 0.28\nsamples = 10\nvalue = [10, 2, 0]\nclass = T", fillcolor="#ea9a61"] ;
136 -> 137 ;
138 [label="prolonged fever/dyspnea/cough <= 0.5\ngini = 0.32\nsamples = 8\nvalue = [8, 2, 0]\nclass = T", fillcolor="#eca06a"] ;
137 -> 138 ;
139 [label="Gender <= 0.5\ngini = 0.5\nsamples = 2\nvalue = [1, 1, 0]\nclass = T", fillcolor="#ffffff"] ;
138 -> 139 ;
140 [label="gini = 0.0\nsamples = 1\nvalue = [1, 0, 0]\nclass = T", fillcolor="#e58139"] ;
139 -> 140 ;
141 [label="gini = 0.0\nsamples = 1\nvalue = [0, 1, 0]\nclass = r", fillcolor="#39e581"] ;
139 -> 141 ;
142 [label="Laryngitis <= 0.5\ngini = 0.22\nsamples = 6\nvalue = [7, 1, 0]\nclass = T", fillcolor="#e99355"] ;
138 -> 142 ;
143 [label="gini = 0.0\nsamples = 5\nvalue = [7, 0, 0]\nclass = T", fillcolor="#e58139"] ;
142 -> 143 ;
144 [label="gini = 0.0\nsamples = 1\nvalue = [0, 1, 0]\nclass = r", fillcolor="#39e581"] ;
142 -> 144 ;
145 [label="gini = 0.0\nsamples = 2\nvalue = [2, 0, 0]\nclass = T", fillcolor="#e58139"] ;
137 -> 145 ;
146 [label="gini = 0.0\nsamples = 1\nvalue = [0, 1, 0]\nclass = r", fillcolor="#39e581"] ;
136 -> 146 ;
147 [label="sputum <= 0.5\ngini = 0.3\nsamples = 15\nvalue = [18, 4, 0]\nclass = T", fillcolor="#eb9d65"] ;
127 -> 147 ;
148 [label="Gender <= 0.5\ngini = 0.31\nsamples = 14\nvalue = [17, 4, 0]\nclass = T", fillcolor="#eb9f68"] ;
147 -> 148 ;
149 [label="BMI <= 21.63\ngini = 0.21\nsamples = 11\nvalue = [15, 2, 0]\nclass = T", fillcolor="#e89253"] ;
148 -> 149 ;
150 [label="gini = 0.0\nsamples = 1\nvalue = [0, 2, 0]\nclass = r", fillcolor="#39e581"] ;
149 -> 150 ;
151 [label="gini = 0.0\nsamples = 10\nvalue = [15, 0, 0]\nclass = T", fillcolor="#e58139"] ;
149 -> 151 ;
152 [label="Systolic blood presure <= 128.5\ngini = 0.5\nsamples = 3\nvalue = [2, 2, 0]\nclass = T", fillcolor="#ffffff"] ;
148 -> 152 ;
153 [label="gini = 0.0\nsamples = 1\nvalue = [1, 0, 0]\nclass = T", fillcolor="#e58139"] ;
152 -> 153 ;
154 [label="respiratory rate <= 20.5\ngini = 0.44\nsamples = 2\nvalue = [1, 2, 0]\nclass = r", fillcolor="#9cf2c0"] ;
152 -> 154 ;
155 [label="gini = 0.0\nsamples = 1\nvalue = [0, 2, 0]\nclass = r", fillcolor="#39e581"] ;
154 -> 155 ;
156 [label="gini = 0.0\nsamples = 1\nvalue = [1, 0, 0]\nclass = T", fillcolor="#e58139"] ;
154 -> 156 ;
157 [label="gini = 0.0\nsamples = 1\nvalue = [1, 0, 0]\nclass = T", fillcolor="#e58139"] ;
147 -> 157 ;
158 [label="other immunosuppression <= 0.5\ngini = 0.48\nsamples = 143\nvalue = [131, 92, 0]\nclass = T", fillcolor="#f7d9c4"] ;
70 -> 158 ;
159 [label="Weight <= 58.5\ngini = 0.48\nsamples = 142\nvalue = [131, 89, 0]\nclass = T", fillcolor="#f7d7c0"] ;
158 -> 159 ;
160 [label="Diastolic blood pressure <= 95.5\ngini = 0.43\nsamples = 15\nvalue = [8, 18, 0]\nclass = r", fillcolor="#91f1b9"] ;
159 -> 160 ;
161 [label="Respratory distress <= 0.5\ngini = 0.3\nsamples = 13\nvalue = [4, 18, 0]\nclass = r", fillcolor="#65eb9d"] ;
160 -> 161 ;
162 [label="Tempreture <= 37.25\ngini = 0.33\nsamples = 12\nvalue = [4, 15, 0]\nclass = r", fillcolor="#6eeca3"] ;
161 -> 162 ;
163 [label="Diastolic blood pressure <= 77.5\ngini = 0.21\nsamples = 10\nvalue = [2, 15, 0]\nclass = r", fillcolor="#53e892"] ;
162 -> 163 ;
164 [label="gini = 0.0\nsamples = 6\nvalue = [0, 12, 0]\nclass = r", fillcolor="#39e581"] ;
163 -> 164 ;
165 [label="hypertension <= 0.5\ngini = 0.48\nsamples = 4\nvalue = [2, 3, 0]\nclass = r", fillcolor="#bdf6d5"] ;
163 -> 165 ;
166 [label="Tempreture <= 36.35\ngini = 0.5\nsamples = 3\nvalue = [2, 2, 0]\nclass = T", fillcolor="#ffffff"] ;
165 -> 166 ;
167 [label="gini = 0.0\nsamples = 1\nvalue = [0, 1, 0]\nclass = r", fillcolor="#39e581"] ;
166 -> 167 ;
168 [label="Duration of starting complaints <= 3.0\ngini = 0.44\nsamples = 2\nvalue = [2, 1, 0]\nclass = T", fillcolor="#f2c09c"] ;
166 -> 168 ;
169 [label="gini = 0.0\nsamples = 1\nvalue = [2, 0, 0]\nclass = T", fillcolor="#e58139"] ;
168 -> 169 ;
170 [label="gini = 0.0\nsamples = 1\nvalue = [0, 1, 0]\nclass = r", fillcolor="#39e581"] ;
168 -> 170 ;
171 [label="gini = 0.0\nsamples = 1\nvalue = [0, 1, 0]\nclass = r", fillcolor="#39e581"] ;
165 -> 171 ;
172 [label="gini = 0.0\nsamples = 2\nvalue = [2, 0, 0]\nclass = T", fillcolor="#e58139"] ;
162 -> 172 ;
173 [label="gini = 0.0\nsamples = 1\nvalue = [0, 3, 0]\nclass = r", fillcolor="#39e581"] ;
161 -> 173 ;
174 [label="gini = 0.0\nsamples = 2\nvalue = [4, 0, 0]\nclass = T", fillcolor="#e58139"] ;
160 -> 174 ;
175 [label="Gender <= 0.5\ngini = 0.46\nsamples = 127\nvalue = [123, 71, 0]\nclass = T", fillcolor="#f4caab"] ;
159 -> 175 ;
176 [label="Systolic blood presure <= 119.5\ngini = 0.47\nsamples = 100\nvalue = [95, 60, 0]\nclass = T", fillcolor="#f5d1b6"] ;
175 -> 176 ;
177 [label="Duration of starting complaints <= 1.5\ngini = 0.13\nsamples = 7\nvalue = [13, 1, 0]\nclass = T", fillcolor="#e78b48"] ;
176 -> 177 ;
178 [label="gini = 0.0\nsamples = 3\nvalue = [9, 0, 0]\nclass = T", fillcolor="#e58139"] ;
177 -> 178 ;
179 [label="headache <= 0.5\ngini = 0.32\nsamples = 4\nvalue = [4, 1, 0]\nclass = T", fillcolor="#eca06a"] ;
177 -> 179 ;
180 [label="gini = 0.0\nsamples = 3\nvalue = [4, 0, 0]\nclass = T", fillcolor="#e58139"] ;
179 -> 180 ;
181 [label="gini = 0.0\nsamples = 1\nvalue = [0, 1, 0]\nclass = r", fillcolor="#39e581"] ;
179 -> 181 ;
182 [label="headache <= 0.5\ngini = 0.49\nsamples = 93\nvalue = [82, 59, 0]\nclass = T", fillcolor="#f8dcc7"] ;
176 -> 182 ;
183 [label="cough <= 0.5\ngini = 0.46\nsamples = 82\nvalue = [80, 46, 0]\nclass = T", fillcolor="#f4c9ab"] ;
182 -> 183 ;
184 [label="arthralgia <= 0.5\ngini = 0.39\nsamples = 43\nvalue = [51, 18, 0]\nclass = T", fillcolor="#eead7f"] ;
183 -> 184 ;
185 [label="diabetes melitus <= 0.5\ngini = 0.36\nsamples = 40\nvalue = [50, 15, 0]\nclass = T", fillcolor="#eda774"] ;
184 -> 185 ;
186 [label="Respratory distress <= 0.5\ngini = 0.33\nsamples = 39\nvalue = [50, 13, 0]\nclass = T", fillcolor="#eca26c"] ;
185 -> 186 ;
187 [label="weakness <= 0.5\ngini = 0.28\nsamples = 37\nvalue = [50, 10, 0]\nclass = T", fillcolor="#ea9a61"] ;
186 -> 187 ;
188 [label="Height <= 161.0\ngini = 0.25\nsamples = 34\nvalue = [47, 8, 0]\nclass = T", fillcolor="#e9965b"] ;
187 -> 188 ;
189 [label="hypertension <= 0.5\ngini = 0.41\nsamples = 15\nvalue = [17, 7, 0]\nclass = T", fillcolor="#f0b58b"] ;
188 -> 189 ;
190 [label="Diastolic blood pressure <= 93.5\ngini = 0.31\nsamples = 14\nvalue = [17, 4, 0]\nclass = T", fillcolor="#eb9f68"] ;
189 -> 190 ;
191 [label="Systolic blood presure <= 152.5\ngini = 0.48\nsamples = 7\nvalue = [6, 4, 0]\nclass = T", fillcolor="#f6d5bd"] ;
190 -> 191 ;
192 [label="Diastolic blood pressure <= 82.0\ngini = 0.44\nsamples = 6\nvalue = [6, 3, 0]\nclass = T", fillcolor="#f2c09c"] ;
191 -> 192 ;
193 [label="gini = 0.0\nsamples = 2\nvalue = [4, 0, 0]\nclass = T", fillcolor="#e58139"] ;
192 -> 193 ;
194 [label="sPO2% <= 97.5\ngini = 0.48\nsamples = 4\nvalue = [2, 3, 0]\nclass = r", fillcolor="#bdf6d5"] ;
192 -> 194 ;
195 [label="Height <= 157.5\ngini = 0.44\nsamples = 3\nvalue = [2, 1, 0]\nclass = T", fillcolor="#f2c09c"] ;
194 -> 195 ;
196 [label="gini = 0.0\nsamples = 1\nvalue = [1, 0, 0]\nclass = T", fillcolor="#e58139"] ;
195 -> 196 ;
197 [label="Duration of starting complaints <= 2.0\ngini = 0.5\nsamples = 2\nvalue = [1, 1, 0]\nclass = T", fillcolor="#ffffff"] ;
195 -> 197 ;
198 [label="gini = 0.0\nsamples = 1\nvalue = [0, 1, 0]\nclass = r", fillcolor="#39e581"] ;
197 -> 198 ;
199 [label="gini = 0.0\nsamples = 1\nvalue = [1, 0, 0]\nclass = T", fillcolor="#e58139"] ;
197 -> 199 ;
200 [label="gini = 0.0\nsamples = 1\nvalue = [0, 2, 0]\nclass = r", fillcolor="#39e581"] ;
194 -> 200 ;
201 [label="gini = 0.0\nsamples = 1\nvalue = [0, 1, 0]\nclass = r", fillcolor="#39e581"] ;
191 -> 201 ;
202 [label="gini = 0.0\nsamples = 7\nvalue = [11, 0, 0]\nclass = T", fillcolor="#e58139"] ;
190 -> 202 ;
203 [label="gini = 0.0\nsamples = 1\nvalue = [0, 3, 0]\nclass = r", fillcolor="#39e581"] ;
189 -> 203 ;
204 [label="Tempreture <= 36.45\ngini = 0.06\nsamples = 19\nvalue = [30, 1, 0]\nclass = T", fillcolor="#e68540"] ;
188 -> 204 ;
205 [label="Diastolic blood pressure <= 90.5\ngini = 0.18\nsamples = 6\nvalue = [9, 1, 0]\nclass = T", fillcolor="#e88f4f"] ;
204 -> 205 ;
206 [label="gini = 0.0\nsamples = 4\nvalue = [6, 0, 0]\nclass = T", fillcolor="#e58139"] ;
205 -> 206 ;
207 [label="BMI <= 30.83\ngini = 0.38\nsamples = 2\nvalue = [3, 1, 0]\nclass = T", fillcolor="#eeab7b"] ;
205 -> 207 ;
208 [label="gini = 0.0\nsamples = 1\nvalue = [0, 1, 0]\nclass = r", fillcolor="#39e581"] ;
207 -> 208 ;
209 [label="gini = 0.0\nsamples = 1\nvalue = [3, 0, 0]\nclass = T", fillcolor="#e58139"] ;
207 -> 209 ;
210 [label="gini = 0.0\nsamples = 13\nvalue = [21, 0, 0]\nclass = T", fillcolor="#e58139"] ;
204 -> 210 ;
211 [label="Height <= 162.5\ngini = 0.48\nsamples = 3\nvalue = [3, 2, 0]\nclass = T", fillcolor="#f6d5bd"] ;
187 -> 211 ;
212 [label="No risk factor <= 0.5\ngini = 0.44\nsamples = 2\nvalue = [1, 2, 0]\nclass = r", fillcolor="#9cf2c0"] ;
211 -> 212 ;
213 [label="gini = 0.0\nsamples = 1\nvalue = [0, 2, 0]\nclass = r", fillcolor="#39e581"] ;
212 -> 213 ;
214 [label="gini = 0.0\nsamples = 1\nvalue = [1, 0, 0]\nclass = T", fillcolor="#e58139"] ;
212 -> 214 ;
215 [label="gini = 0.0\nsamples = 1\nvalue = [2, 0, 0]\nclass = T", fillcolor="#e58139"] ;
211 -> 215 ;
216 [label="gini = 0.0\nsamples = 2\nvalue = [0, 3, 0]\nclass = r", fillcolor="#39e581"] ;
186 -> 216 ;
217 [label="gini = 0.0\nsamples = 1\nvalue = [0, 2, 0]\nclass = r", fillcolor="#39e581"] ;
185 -> 217 ;
218 [label="dyspnea <= 0.5\ngini = 0.38\nsamples = 3\nvalue = [1, 3, 0]\nclass = r", fillcolor="#7beeab"] ;
184 -> 218 ;
219 [label="respiratory rate <= 24.0\ngini = 0.44\nsamples = 2\nvalue = [1, 2, 0]\nclass = r", fillcolor="#9cf2c0"] ;
218 -> 219 ;
220 [label="gini = 0.0\nsamples = 1\nvalue = [0, 2, 0]\nclass = r", fillcolor="#39e581"] ;
219 -> 220 ;
221 [label="gini = 0.0\nsamples = 1\nvalue = [1, 0, 0]\nclass = T", fillcolor="#e58139"] ;
219 -> 221 ;
222 [label="gini = 0.0\nsamples = 1\nvalue = [0, 1, 0]\nclass = r", fillcolor="#39e581"] ;
218 -> 222 ;
223 [label="sputum <= 0.5\ngini = 0.5\nsamples = 39\nvalue = [29, 28, 0]\nclass = T", fillcolor="#fefbf8"] ;
183 -> 223 ;
224 [label="Systolic blood presure <= 136.5\ngini = 0.48\nsamples = 36\nvalue = [29, 20, 0]\nclass = T", fillcolor="#f7d8c2"] ;
223 -> 224 ;
225 [label="organ transplantation <= 0.5\ngini = 0.49\nsamples = 20\nvalue = [11, 15, 0]\nclass = r", fillcolor="#caf8dd"] ;
224 -> 225 ;
226 [label="pulse rate <= 103.5\ngini = 0.49\nsamples = 19\nvalue = [11, 14, 0]\nclass = r", fillcolor="#d5f9e4"] ;
225 -> 226 ;
227 [label="No risk factor <= 0.5\ngini = 0.42\nsamples = 17\nvalue = [6, 14, 0]\nclass = r", fillcolor="#8ef0b7"] ;
226 -> 227 ;
228 [label="pulse rate <= 76.5\ngini = 0.32\nsamples = 7\nvalue = [2, 8, 0]\nclass = r", fillcolor="#6aeca0"] ;
227 -> 228 ;
229 [label="gini = 0.0\nsamples = 2\nvalue = [2, 0, 0]\nclass = T", fillcolor="#e58139"] ;
228 -> 229 ;
230 [label="gini = 0.0\nsamples = 5\nvalue = [0, 8, 0]\nclass = r", fillcolor="#39e581"] ;
228 -> 230 ;
231 [label="dyspnea <= 0.5\ngini = 0.48\nsamples = 10\nvalue = [4, 6, 0]\nclass = r", fillcolor="#bdf6d5"] ;
227 -> 231 ;
232 [label="Systolic blood presure <= 126.0\ngini = 0.49\nsamples = 7\nvalue = [3, 4, 0]\nclass = r", fillcolor="#cef8e0"] ;
231 -> 232 ;
233 [label="Systolic blood presure <= 122.5\ngini = 0.44\nsamples = 3\nvalue = [2, 1, 0]\nclass = T", fillcolor="#f2c09c"] ;
232 -> 233 ;
234 [label="gini = 0.0\nsamples = 1\nvalue = [0, 1, 0]\nclass = r", fillcolor="#39e581"] ;
233 -> 234 ;
235 [label="gini = 0.0\nsamples = 2\nvalue = [2, 0, 0]\nclass = T", fillcolor="#e58139"] ;
233 -> 235 ;
236 [label="Height <= 161.0\ngini = 0.38\nsamples = 4\nvalue = [1, 3, 0]\nclass = r", fillcolor="#7beeab"] ;
232 -> 236 ;
237 [label="respiratory rate <= 19.0\ngini = 0.5\nsamples = 2\nvalue = [1, 1, 0]\nclass = T", fillcolor="#ffffff"] ;
236 -> 237 ;
238 [label="gini = 0.0\nsamples = 1\nvalue = [0, 1, 0]\nclass = r", fillcolor="#39e581"] ;
237 -> 238 ;
239 [label="gini = 0.0\nsamples = 1\nvalue = [1, 0, 0]\nclass = T", fillcolor="#e58139"] ;
237 -> 239 ;
240 [label="gini = 0.0\nsamples = 2\nvalue = [0, 2, 0]\nclass = r", fillcolor="#39e581"] ;
236 -> 240 ;
241 [label="BMI <= 25.55\ngini = 0.44\nsamples = 3\nvalue = [1, 2, 0]\nclass = r", fillcolor="#9cf2c0"] ;
231 -> 241 ;
242 [label="gini = 0.0\nsamples = 1\nvalue = [0, 1, 0]\nclass = r", fillcolor="#39e581"] ;
241 -> 242 ;
243 [label="sPO2% <= 96.0\ngini = 0.5\nsamples = 2\nvalue = [1, 1, 0]\nclass = T", fillcolor="#ffffff"] ;
241 -> 243 ;
244 [label="gini = 0.0\nsamples = 1\nvalue = [0, 1, 0]\nclass = r", fillcolor="#39e581"] ;
243 -> 244 ;
245 [label="gini = 0.0\nsamples = 1\nvalue = [1, 0, 0]\nclass = T", fillcolor="#e58139"] ;
243 -> 245 ;
246 [label="gini = 0.0\nsamples = 2\nvalue = [5, 0, 0]\nclass = T", fillcolor="#e58139"] ;
226 -> 246 ;
247 [label="gini = 0.0\nsamples = 1\nvalue = [0, 1, 0]\nclass = r", fillcolor="#39e581"] ;
225 -> 247 ;
248 [label="hypertension <= 0.5\ngini = 0.34\nsamples = 16\nvalue = [18, 5, 0]\nclass = T", fillcolor="#eca470"] ;
224 -> 248 ;
249 [label="Weight <= 67.5\ngini = 0.35\nsamples = 13\nvalue = [14, 4, 0]\nclass = T", fillcolor="#eca572"] ;
248 -> 249 ;
250 [label="Weight <= 66.0\ngini = 0.38\nsamples = 3\nvalue = [1, 3, 0]\nclass = r", fillcolor="#7beeab"] ;
249 -> 250 ;
251 [label="sore throat <= 0.5\ngini = 0.44\nsamples = 2\nvalue = [1, 2, 0]\nclass = r", fillcolor="#9cf2c0"] ;
250 -> 251 ;
252 [label="gini = 0.0\nsamples = 1\nvalue = [1, 0, 0]\nclass = T", fillcolor="#e58139"] ;
251 -> 252 ;
253 [label="gini = 0.0\nsamples = 1\nvalue = [0, 2, 0]\nclass = r", fillcolor="#39e581"] ;
251 -> 253 ;
254 [label="gini = 0.0\nsamples = 1\nvalue = [0, 1, 0]\nclass = r", fillcolor="#39e581"] ;
250 -> 254 ;
255 [label="diabetes melitus <= 0.5\ngini = 0.13\nsamples = 10\nvalue = [13, 1, 0]\nclass = T", fillcolor="#e78b48"] ;
249 -> 255 ;
256 [label="gini = 0.0\nsamples = 9\nvalue = [13, 0, 0]\nclass = T", fillcolor="#e58139"] ;
255 -> 256 ;
257 [label="gini = 0.0\nsamples = 1\nvalue = [0, 1, 0]\nclass = r", fillcolor="#39e581"] ;
255 -> 257 ;
258 [label="hypothyroid <= 0.5\ngini = 0.32\nsamples = 3\nvalue = [4, 1, 0]\nclass = T", fillcolor="#eca06a"] ;
248 -> 258 ;
259 [label="gini = 0.0\nsamples = 2\nvalue = [4, 0, 0]\nclass = T", fillcolor="#e58139"] ;
258 -> 259 ;
260 [label="gini = 0.0\nsamples = 1\nvalue = [0, 1, 0]\nclass = r", fillcolor="#39e581"] ;
258 -> 260 ;
261 [label="gini = 0.0\nsamples = 3\nvalue = [0, 8, 0]\nclass = r", fillcolor="#39e581"] ;
223 -> 261 ;
262 [label="mediacl personnel <= 0.5\ngini = 0.23\nsamples = 11\nvalue = [2, 13, 0]\nclass = r", fillcolor="#57e994"] ;
182 -> 262 ;
263 [label="Diastolic blood pressure <= 87.0\ngini = 0.24\nsamples = 10\nvalue = [2, 12, 0]\nclass = r", fillcolor="#5ae996"] ;
262 -> 263 ;
264 [label="gini = 0.0\nsamples = 8\nvalue = [0, 10, 0]\nclass = r", fillcolor="#39e581"] ;
263 -> 264 ;
265 [label="Systolic blood presure <= 151.0\ngini = 0.5\nsamples = 2\nvalue = [2, 2, 0]\nclass = T", fillcolor="#ffffff"] ;
263 -> 265 ;
266 [label="gini = 0.0\nsamples = 1\nvalue = [0, 2, 0]\nclass = r", fillcolor="#39e581"] ;
265 -> 266 ;
267 [label="gini = 0.0\nsamples = 1\nvalue = [2, 0, 0]\nclass = T", fillcolor="#e58139"] ;
265 -> 267 ;
268 [label="gini = 0.0\nsamples = 1\nvalue = [0, 1, 0]\nclass = r", fillcolor="#39e581"] ;
262 -> 268 ;
269 [label="chemotherapy <= 0.5\ngini = 0.4\nsamples = 27\nvalue = [28, 11, 0]\nclass = T", fillcolor="#efb287"] ;
175 -> 269 ;
270 [label="diabetes melitus <= 0.5\ngini = 0.39\nsamples = 26\nvalue = [28, 10, 0]\nclass = T", fillcolor="#eeae80"] ;
269 -> 270 ;
271 [label="sPO2% <= 94.5\ngini = 0.33\nsamples = 21\nvalue = [26, 7, 0]\nclass = T", fillcolor="#eca36e"] ;
270 -> 271 ;
272 [label="gini = 0.0\nsamples = 1\nvalue = [0, 1, 0]\nclass = r", fillcolor="#39e581"] ;
271 -> 272 ;
273 [label="Age (yr) <= 32.5\ngini = 0.3\nsamples = 20\nvalue = [26, 6, 0]\nclass = T", fillcolor="#eb9e67"] ;
271 -> 273 ;
274 [label="gini = 0.0\nsamples = 1\nvalue = [0, 2, 0]\nclass = r", fillcolor="#39e581"] ;
273 -> 274 ;
275 [label="cough <= 0.5\ngini = 0.23\nsamples = 19\nvalue = [26, 4, 0]\nclass = T", fillcolor="#e99457"] ;
273 -> 275 ;
276 [label="Age (yr) <= 50.5\ngini = 0.24\nsamples = 18\nvalue = [25, 4, 0]\nclass = T", fillcolor="#e99559"] ;
275 -> 276 ;
277 [label="gini = 0.0\nsamples = 8\nvalue = [11, 0, 0]\nclass = T", fillcolor="#e58139"] ;
276 -> 277 ;
278 [label="pulse rate <= 74.5\ngini = 0.35\nsamples = 10\nvalue = [14, 4, 0]\nclass = T", fillcolor="#eca572"] ;
276 -> 278 ;
279 [label="gini = 0.0\nsamples = 3\nvalue = [6, 0, 0]\nclass = T", fillcolor="#e58139"] ;
278 -> 279 ;
280 [label="sPO2% <= 97.5\ngini = 0.44\nsamples = 7\nvalue = [8, 4, 0]\nclass = T", fillcolor="#f2c09c"] ;
278 -> 280 ;
281 [label="hypertension <= 0.5\ngini = 0.32\nsamples = 6\nvalue = [8, 2, 0]\nclass = T", fillcolor="#eca06a"] ;
280 -> 281 ;
282 [label="gini = 0.0\nsamples = 3\nvalue = [6, 0, 0]\nclass = T", fillcolor="#e58139"] ;
281 -> 282 ;
283 [label="Systolic blood presure <= 160.5\ngini = 0.5\nsamples = 3\nvalue = [2, 2, 0]\nclass = T", fillcolor="#ffffff"] ;
281 -> 283 ;
284 [label="gini = 0.0\nsamples = 2\nvalue = [0, 2, 0]\nclass = r", fillcolor="#39e581"] ;
283 -> 284 ;
285 [label="gini = 0.0\nsamples = 1\nvalue = [2, 0, 0]\nclass = T", fillcolor="#e58139"] ;
283 -> 285 ;
286 [label="gini = 0.0\nsamples = 1\nvalue = [0, 2, 0]\nclass = r", fillcolor="#39e581"] ;
280 -> 286 ;
287 [label="gini = 0.0\nsamples = 1\nvalue = [1, 0, 0]\nclass = T", fillcolor="#e58139"] ;
275 -> 287 ;
288 [label="Diastolic blood pressure <= 61.5\ngini = 0.48\nsamples = 5\nvalue = [2, 3, 0]\nclass = r", fillcolor="#bdf6d5"] ;
270 -> 288 ;
289 [label="gini = 0.0\nsamples = 2\nvalue = [2, 0, 0]\nclass = T", fillcolor="#e58139"] ;
288 -> 289 ;
290 [label="gini = 0.0\nsamples = 3\nvalue = [0, 3, 0]\nclass = r", fillcolor="#39e581"] ;
288 -> 290 ;
291 [label="gini = 0.0\nsamples = 1\nvalue = [0, 1, 0]\nclass = r", fillcolor="#39e581"] ;
269 -> 291 ;
292 [label="gini = 0.0\nsamples = 1\nvalue = [0, 3, 0]\nclass = r", fillcolor="#39e581"] ;
158 -> 292 ;
293 [label="gini = 0.0\nsamples = 2\nvalue = [0, 3, 0]\nclass = r", fillcolor="#39e581"] ;
69 -> 293 ;
294 [label="gini = 0.0\nsamples = 5\nvalue = [0, 0, 7]\nclass = i", fillcolor="#8139e5"] ;
68 -> 294 ;
295 [label="Age (yr) <= 54.0\ngini = 0.67\nsamples = 99\nvalue = [46, 46, 52]\nclass = i", fillcolor="#f7f3fd"] ;
29 -> 295 ;
296 [label="chest pain <= 0.5\ngini = 0.66\nsamples = 88\nvalue = [45, 33, 52]\nclass = i", fillcolor="#f5effd"] ;
295 -> 296 ;
297 [label="Gender <= 0.5\ngini = 0.62\nsamples = 76\nvalue = [32, 20, 52]\nclass = i", fillcolor="#dcc8f8"] ;
296 -> 297 ;
298 [label="Respratory distress <= 0.5\ngini = 0.65\nsamples = 64\nvalue = [30, 20, 36]\nclass = i", fillcolor="#f2eafc"] ;
297 -> 298 ;
299 [label="pulse rate <= 93.0\ngini = 0.64\nsamples = 61\nvalue = [30, 16, 36]\nclass = i", fillcolor="#f0e8fc"] ;
298 -> 299 ;
300 [label="Prednisolone intake <= 0.5\ngini = 0.43\nsamples = 17\nvalue = [15, 7, 0]\nclass = T", fillcolor="#f1bc95"] ;
299 -> 300 ;
301 [label="Age (yr) <= 49.5\ngini = 0.41\nsamples = 16\nvalue = [15, 6, 0]\nclass = T", fillcolor="#efb388"] ;
300 -> 301 ;
302 [label="Systolic blood presure <= 128.5\ngini = 0.35\nsamples = 13\nvalue = [14, 4, 0]\nclass = T", fillcolor="#eca572"] ;
301 -> 302 ;
303 [label="pulse rate <= 74.0\ngini = 0.17\nsamples = 8\nvalue = [10, 1, 0]\nclass = T", fillcolor="#e88e4d"] ;
302 -> 303 ;
304 [label="gini = 0.0\nsamples = 1\nvalue = [0, 1, 0]\nclass = r", fillcolor="#39e581"] ;
303 -> 304 ;
305 [label="gini = 0.0\nsamples = 7\nvalue = [10, 0, 0]\nclass = T", fillcolor="#e58139"] ;
303 -> 305 ;
306 [label="Systolic blood presure <= 133.5\ngini = 0.49\nsamples = 5\nvalue = [4, 3, 0]\nclass = T", fillcolor="#f8e0ce"] ;
302 -> 306 ;
307 [label="gini = 0.0\nsamples = 2\nvalue = [0, 2, 0]\nclass = r", fillcolor="#39e581"] ;
306 -> 307 ;
308 [label="cough <= 0.5\ngini = 0.32\nsamples = 3\nvalue = [4, 1, 0]\nclass = T", fillcolor="#eca06a"] ;
306 -> 308 ;
309 [label="gini = 0.0\nsamples = 1\nvalue = [1, 0, 0]\nclass = T", fillcolor="#e58139"] ;
308 -> 309 ;
310 [label="no prominent effect <= 0.5\ngini = 0.38\nsamples = 2\nvalue = [3, 1, 0]\nclass = T", fillcolor="#eeab7b"] ;
308 -> 310 ;
311 [label="gini = 0.0\nsamples = 1\nvalue = [0, 1, 0]\nclass = r", fillcolor="#39e581"] ;
310 -> 311 ;
312 [label="gini = 0.0\nsamples = 1\nvalue = [3, 0, 0]\nclass = T", fillcolor="#e58139"] ;
310 -> 312 ;
313 [label="Age (yr) <= 51.5\ngini = 0.44\nsamples = 3\nvalue = [1, 2, 0]\nclass = r", fillcolor="#9cf2c0"] ;
301 -> 313 ;
314 [label="gini = 0.0\nsamples = 1\nvalue = [0, 1, 0]\nclass = r", fillcolor="#39e581"] ;
313 -> 314 ;
315 [label="pulse rate <= 61.0\ngini = 0.5\nsamples = 2\nvalue = [1, 1, 0]\nclass = T", fillcolor="#ffffff"] ;
313 -> 315 ;
316 [label="gini = 0.0\nsamples = 1\nvalue = [1, 0, 0]\nclass = T", fillcolor="#e58139"] ;
315 -> 316 ;
317 [label="gini = 0.0\nsamples = 1\nvalue = [0, 1, 0]\nclass = r", fillcolor="#39e581"] ;
315 -> 317 ;
318 [label="gini = 0.0\nsamples = 1\nvalue = [0, 1, 0]\nclass = r", fillcolor="#39e581"] ;
300 -> 318 ;
319 [label="hypothyroid <= 0.5\ngini = 0.55\nsamples = 44\nvalue = [15, 9, 36]\nclass = i", fillcolor="#c4a3f3"] ;
299 -> 319 ;
320 [label="sPO2% <= 96.5\ngini = 0.53\nsamples = 43\nvalue = [15, 7, 36]\nclass = i", fillcolor="#c19ef2"] ;
319 -> 320 ;
321 [label="cough <= 0.5\ngini = 0.26\nsamples = 17\nvalue = [1, 2, 17]\nclass = i", fillcolor="#965ae9"] ;
320 -> 321 ;
322 [label="gini = 0.0\nsamples = 7\nvalue = [0, 0, 8]\nclass = i", fillcolor="#8139e5"] ;
321 -> 322 ;
323 [label="headache <= 0.5\ngini = 0.4\nsamples = 10\nvalue = [1, 2, 9]\nclass = i", fillcolor="#a774ed"] ;
321 -> 323 ;
324 [label="sore throat <= 0.5\ngini = 0.31\nsamples = 9\nvalue = [1, 1, 9]\nclass = i", fillcolor="#9a61ea"] ;
323 -> 324 ;
325 [label="no prominent effect <= 0.5\ngini = 0.18\nsamples = 8\nvalue = [1, 0, 9]\nclass = i", fillcolor="#8f4fe8"] ;
324 -> 325 ;
326 [label="gini = 0.0\nsamples = 1\nvalue = [1, 0, 0]\nclass = T", fillcolor="#e58139"] ;
325 -> 326 ;
327 [label="gini = 0.0\nsamples = 7\nvalue = [0, 0, 9]\nclass = i", fillcolor="#8139e5"] ;
325 -> 327 ;
328 [label="gini = 0.0\nsamples = 1\nvalue = [0, 1, 0]\nclass = r", fillcolor="#39e581"] ;
324 -> 328 ;
329 [label="gini = 0.0\nsamples = 1\nvalue = [0, 1, 0]\nclass = r", fillcolor="#39e581"] ;
323 -> 329 ;
330 [label="myalgia <= 0.5\ngini = 0.6\nsamples = 26\nvalue = [14, 5, 19]\nclass = i", fillcolor="#e5d6fa"] ;
320 -> 330 ;
331 [label="dyspnea <= 0.5\ngini = 0.62\nsamples = 12\nvalue = [6, 3, 8]\nclass = i", fillcolor="#e8dbfa"] ;
330 -> 331 ;
332 [label="Renal failure <= 0.5\ngini = 0.32\nsamples = 8\nvalue = [2, 0, 8]\nclass = i", fillcolor="#a06aec"] ;
331 -> 332 ;
333 [label="gini = 0.0\nsamples = 2\nvalue = [2, 0, 0]\nclass = T", fillcolor="#e58139"] ;
332 -> 333 ;
334 [label="gini = 0.0\nsamples = 6\nvalue = [0, 0, 8]\nclass = i", fillcolor="#8139e5"] ;
332 -> 334 ;
335 [label="sPO2% <= 98.0\ngini = 0.49\nsamples = 4\nvalue = [4, 3, 0]\nclass = T", fillcolor="#f8e0ce"] ;
331 -> 335 ;
336 [label="weakness <= 0.5\ngini = 0.5\nsamples = 3\nvalue = [3, 3, 0]\nclass = T", fillcolor="#ffffff"] ;
335 -> 336 ;
337 [label="Systolic blood presure <= 126.5\ngini = 0.48\nsamples = 2\nvalue = [2, 3, 0]\nclass = r", fillcolor="#bdf6d5"] ;
336 -> 337 ;
338 [label="gini = 0.0\nsamples = 1\nvalue = [2, 0, 0]\nclass = T", fillcolor="#e58139"] ;
337 -> 338 ;
339 [label="gini = 0.0\nsamples = 1\nvalue = [0, 3, 0]\nclass = r", fillcolor="#39e581"] ;
337 -> 339 ;
340 [label="gini = 0.0\nsamples = 1\nvalue = [1, 0, 0]\nclass = T", fillcolor="#e58139"] ;
336 -> 340 ;
341 [label="gini = 0.0\nsamples = 1\nvalue = [1, 0, 0]\nclass = T", fillcolor="#e58139"] ;
335 -> 341 ;
342 [label="prolonged fever/dyspnea/cough <= 0.5\ngini = 0.57\nsamples = 14\nvalue = [8, 2, 11]\nclass = i", fillcolor="#e2d1f9"] ;
330 -> 342 ;
343 [label="gini = 0.0\nsamples = 5\nvalue = [6, 0, 0]\nclass = T", fillcolor="#e58139"] ;
342 -> 343 ;
344 [label="other immunosuppression <= 0.5\ngini = 0.43\nsamples = 9\nvalue = [2, 2, 11]\nclass = i", fillcolor="#a876ed"] ;
342 -> 344 ;
345 [label="Diastolic blood pressure <= 91.0\ngini = 0.26\nsamples = 8\nvalue = [2, 0, 11]\nclass = i", fillcolor="#985dea"] ;
344 -> 345 ;
346 [label="gini = 0.0\nsamples = 1\nvalue = [2, 0, 0]\nclass = T", fillcolor="#e58139"] ;
345 -> 346 ;
347 [label="gini = 0.0\nsamples = 7\nvalue = [0, 0, 11]\nclass = i", fillcolor="#8139e5"] ;
345 -> 347 ;
348 [label="gini = 0.0\nsamples = 1\nvalue = [0, 2, 0]\nclass = r", fillcolor="#39e581"] ;
344 -> 348 ;
349 [label="gini = 0.0\nsamples = 1\nvalue = [0, 2, 0]\nclass = r", fillcolor="#39e581"] ;
319 -> 349 ;
350 [label="gini = 0.0\nsamples = 3\nvalue = [0, 4, 0]\nclass = r", fillcolor="#39e581"] ;
298 -> 350 ;
351 [label="Respratory distress <= 0.5\ngini = 0.2\nsamples = 12\nvalue = [2, 0, 16]\nclass = i", fillcolor="#9152e8"] ;
297 -> 351 ;
352 [label="gini = 0.0\nsamples = 2\nvalue = [2, 0, 0]\nclass = T", fillcolor="#e58139"] ;
351 -> 352 ;
353 [label="gini = 0.0\nsamples = 10\nvalue = [0, 0, 16]\nclass = i", fillcolor="#8139e5"] ;
351 -> 353 ;
354 [label="nausea/vomiting <= 0.5\ngini = 0.5\nsamples = 12\nvalue = [13, 13, 0]\nclass = T", fillcolor="#ffffff"] ;
296 -> 354 ;
355 [label="BMI <= 30.68\ngini = 0.47\nsamples = 10\nvalue = [13, 8, 0]\nclass = T", fillcolor="#f5cfb3"] ;
354 -> 355 ;
356 [label="Duration of starting complaints <= 2.0\ngini = 0.28\nsamples = 5\nvalue = [10, 2, 0]\nclass = T", fillcolor="#ea9a61"] ;
355 -> 356 ;
357 [label="gini = 0.0\nsamples = 2\nvalue = [8, 0, 0]\nclass = T", fillcolor="#e58139"] ;
356 -> 357 ;
358 [label="BMI <= 23.38\ngini = 0.5\nsamples = 3\nvalue = [2, 2, 0]\nclass = T", fillcolor="#ffffff"] ;
356 -> 358 ;
359 [label="gini = 0.0\nsamples = 1\nvalue = [1, 0, 0]\nclass = T", fillcolor="#e58139"] ;
358 -> 359 ;
360 [label="Diastolic blood pressure <= 86.5\ngini = 0.44\nsamples = 2\nvalue = [1, 2, 0]\nclass = r", fillcolor="#9cf2c0"] ;
358 -> 360 ;
361 [label="gini = 0.0\nsamples = 1\nvalue = [1, 0, 0]\nclass = T", fillcolor="#e58139"] ;
360 -> 361 ;
362 [label="gini = 0.0\nsamples = 1\nvalue = [0, 2, 0]\nclass = r", fillcolor="#39e581"] ;
360 -> 362 ;
363 [label="pulse rate <= 87.0\ngini = 0.44\nsamples = 5\nvalue = [3, 6, 0]\nclass = r", fillcolor="#9cf2c0"] ;
355 -> 363 ;
364 [label="No risk factor <= 0.5\ngini = 0.38\nsamples = 2\nvalue = [3, 1, 0]\nclass = T", fillcolor="#eeab7b"] ;
363 -> 364 ;
365 [label="gini = 0.0\nsamples = 1\nvalue = [0, 1, 0]\nclass = r", fillcolor="#39e581"] ;
364 -> 365 ;
366 [label="gini = 0.0\nsamples = 1\nvalue = [3, 0, 0]\nclass = T", fillcolor="#e58139"] ;
364 -> 366 ;
367 [label="gini = 0.0\nsamples = 3\nvalue = [0, 5, 0]\nclass = r", fillcolor="#39e581"] ;
363 -> 367 ;
368 [label="gini = 0.0\nsamples = 2\nvalue = [0, 5, 0]\nclass = r", fillcolor="#39e581"] ;
354 -> 368 ;
369 [label="Duration of starting complaints <= 1.5\ngini = 0.13\nsamples = 11\nvalue = [1, 13, 0]\nclass = r", fillcolor="#48e78b"] ;
295 -> 369 ;
370 [label="gini = 0.0\nsamples = 5\nvalue = [0, 8, 0]\nclass = r", fillcolor="#39e581"] ;
369 -> 370 ;
371 [label="Diastolic blood pressure <= 98.0\ngini = 0.28\nsamples = 6\nvalue = [1, 5, 0]\nclass = r", fillcolor="#61ea9a"] ;
369 -> 371 ;
372 [label="gini = 0.0\nsamples = 5\nvalue = [0, 5, 0]\nclass = r", fillcolor="#39e581"] ;
371 -> 372 ;
373 [label="gini = 0.0\nsamples = 1\nvalue = [1, 0, 0]\nclass = T", fillcolor="#e58139"] ;
371 -> 373 ;
374 [label="anorexia <= 0.5\ngini = 0.63\nsamples = 36\nvalue = [11, 20, 27]\nclass = i", fillcolor="#e8dbfa"] ;
28 -> 374 ;
375 [label="Respratory distress <= 0.5\ngini = 0.61\nsamples = 31\nvalue = [10, 14, 27]\nclass = i", fillcolor="#d3b9f6"] ;
374 -> 375 ;
376 [label="dyspnea <= 0.5\ngini = 0.62\nsamples = 17\nvalue = [10, 13, 5]\nclass = r", fillcolor="#defbea"] ;
375 -> 376 ;
377 [label="Gender <= 0.5\ngini = 0.48\nsamples = 10\nvalue = [10, 7, 0]\nclass = T", fillcolor="#f7d9c4"] ;
376 -> 377 ;
378 [label="Age (yr) <= 32.0\ngini = 0.5\nsamples = 8\nvalue = [6, 7, 0]\nclass = r", fillcolor="#e3fbed"] ;
377 -> 378 ;
379 [label="gini = 0.0\nsamples = 3\nvalue = [0, 6, 0]\nclass = r", fillcolor="#39e581"] ;
378 -> 379 ;
380 [label="Diastolic blood pressure <= 66.5\ngini = 0.24\nsamples = 5\nvalue = [6, 1, 0]\nclass = T", fillcolor="#e9965a"] ;
378 -> 380 ;
381 [label="gini = 0.0\nsamples = 1\nvalue = [0, 1, 0]\nclass = r", fillcolor="#39e581"] ;
380 -> 381 ;
382 [label="gini = 0.0\nsamples = 4\nvalue = [6, 0, 0]\nclass = T", fillcolor="#e58139"] ;
380 -> 382 ;
383 [label="gini = 0.0\nsamples = 2\nvalue = [4, 0, 0]\nclass = T", fillcolor="#e58139"] ;
377 -> 383 ;
384 [label="dysgeusia <= 0.5\ngini = 0.5\nsamples = 7\nvalue = [0, 6, 5]\nclass = r", fillcolor="#defbea"] ;
376 -> 384 ;
385 [label="weakness <= 0.5\ngini = 0.49\nsamples = 6\nvalue = [0, 4, 5]\nclass = i", fillcolor="#e6d7fa"] ;
384 -> 385 ;
386 [label="Duration of starting complaints <= 1.5\ngini = 0.41\nsamples = 4\nvalue = [0, 2, 5]\nclass = i", fillcolor="#b388ef"] ;
385 -> 386 ;
387 [label="gini = 0.0\nsamples = 3\nvalue = [0, 0, 5]\nclass = i", fillcolor="#8139e5"] ;
386 -> 387 ;
388 [label="gini = 0.0\nsamples = 1\nvalue = [0, 2, 0]\nclass = r", fillcolor="#39e581"] ;
386 -> 388 ;
389 [label="gini = 0.0\nsamples = 2\nvalue = [0, 2, 0]\nclass = r", fillcolor="#39e581"] ;
385 -> 389 ;
390 [label="gini = 0.0\nsamples = 1\nvalue = [0, 2, 0]\nclass = r", fillcolor="#39e581"] ;
384 -> 390 ;
391 [label="sPO2% <= 97.5\ngini = 0.08\nsamples = 14\nvalue = [0, 1, 22]\nclass = i", fillcolor="#8742e6"] ;
375 -> 391 ;
392 [label="cough <= 0.5\ngini = 0.13\nsamples = 9\nvalue = [0, 1, 13]\nclass = i", fillcolor="#8b48e7"] ;
391 -> 392 ;
393 [label="gini = 0.0\nsamples = 4\nvalue = [0, 0, 8]\nclass = i", fillcolor="#8139e5"] ;
392 -> 393 ;
394 [label="Weight <= 74.0\ngini = 0.28\nsamples = 5\nvalue = [0, 1, 5]\nclass = i", fillcolor="#9a61ea"] ;
392 -> 394 ;
395 [label="gini = 0.0\nsamples = 4\nvalue = [0, 0, 5]\nclass = i", fillcolor="#8139e5"] ;
394 -> 395 ;
396 [label="gini = 0.0\nsamples = 1\nvalue = [0, 1, 0]\nclass = r", fillcolor="#39e581"] ;
394 -> 396 ;
397 [label="gini = 0.0\nsamples = 5\nvalue = [0, 0, 9]\nclass = i", fillcolor="#8139e5"] ;
391 -> 397 ;
398 [label="cough <= 0.5\ngini = 0.24\nsamples = 5\nvalue = [1, 6, 0]\nclass = r", fillcolor="#5ae996"] ;
374 -> 398 ;
399 [label="pulse rate <= 103.0\ngini = 0.44\nsamples = 2\nvalue = [1, 2, 0]\nclass = r", fillcolor="#9cf2c0"] ;
398 -> 399 ;
400 [label="gini = 0.0\nsamples = 1\nvalue = [1, 0, 0]\nclass = T", fillcolor="#e58139"] ;
399 -> 400 ;
401 [label="gini = 0.0\nsamples = 1\nvalue = [0, 2, 0]\nclass = r", fillcolor="#39e581"] ;
399 -> 401 ;
402 [label="gini = 0.0\nsamples = 3\nvalue = [0, 4, 0]\nclass = r", fillcolor="#39e581"] ;
398 -> 402 ;
403 [label="Duration of starting complaints <= 2.5\ngini = 0.58\nsamples = 35\nvalue = [8, 15, 29]\nclass = i", fillcolor="#cfb4f5"] ;
27 -> 403 ;
404 [label="Systolic blood presure <= 133.5\ngini = 0.52\nsamples = 30\nvalue = [4, 13, 29]\nclass = i", fillcolor="#c29ff2"] ;
403 -> 404 ;
405 [label="ear pain <= 0.5\ngini = 0.26\nsamples = 10\nvalue = [2, 11, 0]\nclass = r", fillcolor="#5dea98"] ;
404 -> 405 ;
406 [label="chill <= 0.5\ngini = 0.5\nsamples = 4\nvalue = [2, 2, 0]\nclass = T", fillcolor="#ffffff"] ;
405 -> 406 ;
407 [label="gini = 0.0\nsamples = 2\nvalue = [0, 2, 0]\nclass = r", fillcolor="#39e581"] ;
406 -> 407 ;
408 [label="gini = 0.0\nsamples = 2\nvalue = [2, 0, 0]\nclass = T", fillcolor="#e58139"] ;
406 -> 408 ;
409 [label="gini = 0.0\nsamples = 6\nvalue = [0, 9, 0]\nclass = r", fillcolor="#39e581"] ;
405 -> 409 ;
410 [label="sore throat <= 0.5\ngini = 0.22\nsamples = 20\nvalue = [2, 2, 29]\nclass = i", fillcolor="#9153e8"] ;
404 -> 410 ;
411 [label="gini = 0.0\nsamples = 17\nvalue = [0, 0, 29]\nclass = i", fillcolor="#8139e5"] ;
410 -> 411 ;
412 [label="chill <= 0.5\ngini = 0.5\nsamples = 3\nvalue = [2, 2, 0]\nclass = T", fillcolor="#ffffff"] ;
410 -> 412 ;
413 [label="gini = 0.0\nsamples = 2\nvalue = [2, 0, 0]\nclass = T", fillcolor="#e58139"] ;
412 -> 413 ;
414 [label="gini = 0.0\nsamples = 1\nvalue = [0, 2, 0]\nclass = r", fillcolor="#39e581"] ;
412 -> 414 ;
415 [label="Age (yr) <= 35.5\ngini = 0.44\nsamples = 5\nvalue = [4, 2, 0]\nclass = T", fillcolor="#f2c09c"] ;
403 -> 415 ;
416 [label="gini = 0.0\nsamples = 1\nvalue = [0, 1, 0]\nclass = r", fillcolor="#39e581"] ;
415 -> 416 ;
417 [label="ear pain <= 0.5\ngini = 0.32\nsamples = 4\nvalue = [4, 1, 0]\nclass = T", fillcolor="#eca06a"] ;
415 -> 417 ;
418 [label="Diastolic blood pressure <= 71.0\ngini = 0.5\nsamples = 2\nvalue = [1, 1, 0]\nclass = T", fillcolor="#ffffff"] ;
417 -> 418 ;
419 [label="gini = 0.0\nsamples = 1\nvalue = [0, 1, 0]\nclass = r", fillcolor="#39e581"] ;
418 -> 419 ;
420 [label="gini = 0.0\nsamples = 1\nvalue = [1, 0, 0]\nclass = T", fillcolor="#e58139"] ;
418 -> 420 ;
421 [label="gini = 0.0\nsamples = 2\nvalue = [3, 0, 0]\nclass = T", fillcolor="#e58139"] ;
417 -> 421 ;
422 [label="Diastolic blood pressure <= 85.0\ngini = 0.2\nsamples = 8\nvalue = [1, 8, 0]\nclass = r", fillcolor="#52e891"] ;
26 -> 422 ;
423 [label="gini = 0.0\nsamples = 4\nvalue = [0, 4, 0]\nclass = r", fillcolor="#39e581"] ;
422 -> 423 ;
424 [label="Tempreture <= 37.2\ngini = 0.32\nsamples = 4\nvalue = [1, 4, 0]\nclass = r", fillcolor="#6aeca0"] ;
422 -> 424 ;
425 [label="gini = 0.0\nsamples = 3\nvalue = [0, 4, 0]\nclass = r", fillcolor="#39e581"] ;
424 -> 425 ;
426 [label="gini = 0.0\nsamples = 1\nvalue = [1, 0, 0]\nclass = T", fillcolor="#e58139"] ;
424 -> 426 ;
427 [label="Respratory distress <= 0.5\ngini = 0.58\nsamples = 276\nvalue = [62, 131, 235]\nclass = i", fillcolor="#d3baf6"] ;
1 -> 427 ;
428 [label="prolonged fever/dyspnea/cough <= 0.5\ngini = 0.61\nsamples = 212\nvalue = [55, 119, 163]\nclass = i", fillcolor="#e6d7fa"] ;
427 -> 428 ;
429 [label="Systolic blood presure <= 152.5\ngini = 0.65\nsamples = 110\nvalue = [40, 69, 55]\nclass = r", fillcolor="#e6fcef"] ;
428 -> 429 ;
430 [label="weakness <= 0.5\ngini = 0.66\nsamples = 100\nvalue = [40, 54, 55]\nclass = i", fillcolor="#fefdff"] ;
429 -> 430 ;
431 [label="ear pain <= 0.5\ngini = 0.63\nsamples = 57\nvalue = [30, 45, 19]\nclass = r", fillcolor="#d1f9e1"] ;
430 -> 431 ;
432 [label="anorexia <= 0.5\ngini = 0.62\nsamples = 54\nvalue = [26, 45, 19]\nclass = r", fillcolor="#c4f7da"] ;
431 -> 432 ;
433 [label="Systolic blood presure <= 119.5\ngini = 0.62\nsamples = 44\nvalue = [26, 37, 14]\nclass = r", fillcolor="#d4f9e4"] ;
432 -> 433 ;
434 [label="Tempreture <= 37.9\ngini = 0.26\nsamples = 15\nvalue = [4, 22, 0]\nclass = r", fillcolor="#5dea98"] ;
433 -> 434 ;
435 [label="Diastolic blood pressure <= 71.5\ngini = 0.16\nsamples = 13\nvalue = [2, 21, 0]\nclass = r", fillcolor="#4ce78d"] ;
434 -> 435 ;
436 [label="chill <= 0.5\ngini = 0.28\nsamples = 6\nvalue = [2, 10, 0]\nclass = r", fillcolor="#61ea9a"] ;
435 -> 436 ;
437 [label="gini = 0.0\nsamples = 1\nvalue = [0, 1, 0]\nclass = r", fillcolor="#39e581"] ;
436 -> 437 ;
438 [label="Diastolic blood pressure <= 69.5\ngini = 0.3\nsamples = 5\nvalue = [2, 9, 0]\nclass = r", fillcolor="#65eb9d"] ;
436 -> 438 ;
439 [label="gini = 0.0\nsamples = 2\nvalue = [0, 5, 0]\nclass = r", fillcolor="#39e581"] ;
438 -> 439 ;
440 [label="no prominent effect <= 0.5\ngini = 0.44\nsamples = 3\nvalue = [2, 4, 0]\nclass = r", fillcolor="#9cf2c0"] ;
438 -> 440 ;
441 [label="gini = 0.0\nsamples = 1\nvalue = [0, 2, 0]\nclass = r", fillcolor="#39e581"] ;
440 -> 441 ;
442 [label="Age (yr) <= 26.0\ngini = 0.5\nsamples = 2\nvalue = [2, 2, 0]\nclass = T", fillcolor="#ffffff"] ;
440 -> 442 ;
443 [label="gini = 0.0\nsamples = 1\nvalue = [2, 0, 0]\nclass = T", fillcolor="#e58139"] ;
442 -> 443 ;
444 [label="gini = 0.0\nsamples = 1\nvalue = [0, 2, 0]\nclass = r", fillcolor="#39e581"] ;
442 -> 444 ;
445 [label="gini = 0.0\nsamples = 7\nvalue = [0, 11, 0]\nclass = r", fillcolor="#39e581"] ;
435 -> 445 ;
446 [label="HIV disease <= 0.5\ngini = 0.44\nsamples = 2\nvalue = [2, 1, 0]\nclass = T", fillcolor="#f2c09c"] ;
434 -> 446 ;
447 [label="gini = 0.0\nsamples = 1\nvalue = [0, 1, 0]\nclass = r", fillcolor="#39e581"] ;
446 -> 447 ;
448 [label="gini = 0.0\nsamples = 1\nvalue = [2, 0, 0]\nclass = T", fillcolor="#e58139"] ;
446 -> 448 ;
449 [label="No risk factor <= 0.5\ngini = 0.65\nsamples = 29\nvalue = [22, 15, 14]\nclass = T", fillcolor="#fae7d9"] ;
433 -> 449 ;
450 [label="Tempreture <= 36.95\ngini = 0.65\nsamples = 19\nvalue = [10, 9, 14]\nclass = i", fillcolor="#e9ddfa"] ;
449 -> 450 ;
451 [label="hypothyroid <= 0.5\ngini = 0.41\nsamples = 8\nvalue = [10, 4, 0]\nclass = T", fillcolor="#efb388"] ;
450 -> 451 ;
452 [label="BMI <= 26.63\ngini = 0.2\nsamples = 4\nvalue = [8, 1, 0]\nclass = T", fillcolor="#e89152"] ;
451 -> 452 ;
453 [label="pulse rate <= 93.5\ngini = 0.44\nsamples = 2\nvalue = [2, 1, 0]\nclass = T", fillcolor="#f2c09c"] ;
452 -> 453 ;
454 [label="gini = 0.0\nsamples = 1\nvalue = [2, 0, 0]\nclass = T", fillcolor="#e58139"] ;
453 -> 454 ;
455 [label="gini = 0.0\nsamples = 1\nvalue = [0, 1, 0]\nclass = r", fillcolor="#39e581"] ;
453 -> 455 ;
456 [label="gini = 0.0\nsamples = 2\nvalue = [6, 0, 0]\nclass = T", fillcolor="#e58139"] ;
452 -> 456 ;
457 [label="BMI <= 31.65\ngini = 0.48\nsamples = 4\nvalue = [2, 3, 0]\nclass = r", fillcolor="#bdf6d5"] ;
451 -> 457 ;
458 [label="cough <= 0.5\ngini = 0.44\nsamples = 3\nvalue = [2, 1, 0]\nclass = T", fillcolor="#f2c09c"] ;
457 -> 458 ;
459 [label="gini = 0.0\nsamples = 1\nvalue = [0, 1, 0]\nclass = r", fillcolor="#39e581"] ;
458 -> 459 ;
460 [label="gini = 0.0\nsamples = 2\nvalue = [2, 0, 0]\nclass = T", fillcolor="#e58139"] ;
458 -> 460 ;
461 [label="gini = 0.0\nsamples = 1\nvalue = [0, 2, 0]\nclass = r", fillcolor="#39e581"] ;
457 -> 461 ;
462 [label="cough <= 0.5\ngini = 0.39\nsamples = 11\nvalue = [0, 5, 14]\nclass = i", fillcolor="#ae80ee"] ;
450 -> 462 ;
463 [label="gini = 0.0\nsamples = 1\nvalue = [0, 1, 0]\nclass = r", fillcolor="#39e581"] ;
462 -> 463 ;
464 [label="conjectivitis <= 0.5\ngini = 0.35\nsamples = 10\nvalue = [0, 4, 14]\nclass = i", fillcolor="#a572ec"] ;
462 -> 464 ;
465 [label="diabetes melitus <= 0.5\ngini = 0.12\nsamples = 9\nvalue = [0, 1, 14]\nclass = i", fillcolor="#8a47e7"] ;
464 -> 465 ;
466 [label="gini = 0.0\nsamples = 1\nvalue = [0, 1, 0]\nclass = r", fillcolor="#39e581"] ;
465 -> 466 ;
467 [label="gini = 0.0\nsamples = 8\nvalue = [0, 0, 14]\nclass = i", fillcolor="#8139e5"] ;
465 -> 467 ;
468 [label="gini = 0.0\nsamples = 1\nvalue = [0, 3, 0]\nclass = r", fillcolor="#39e581"] ;
464 -> 468 ;
469 [label="body pain <= 0.5\ngini = 0.44\nsamples = 10\nvalue = [12, 6, 0]\nclass = T", fillcolor="#f2c09c"] ;
449 -> 469 ;
470 [label="sputum <= 0.5\ngini = 0.47\nsamples = 7\nvalue = [8, 5, 0]\nclass = T", fillcolor="#f5d0b5"] ;
469 -> 470 ;
471 [label="abd pain <= 0.5\ngini = 0.44\nsamples = 6\nvalue = [8, 4, 0]\nclass = T", fillcolor="#f2c09c"] ;
470 -> 471 ;
472 [label="Diastolic blood pressure <= 81.5\ngini = 0.49\nsamples = 3\nvalue = [3, 4, 0]\nclass = r", fillcolor="#cef8e0"] ;
471 -> 472 ;
473 [label="gini = 0.0\nsamples = 1\nvalue = [3, 0, 0]\nclass = T", fillcolor="#e58139"] ;
472 -> 473 ;
474 [label="gini = 0.0\nsamples = 2\nvalue = [0, 4, 0]\nclass = r", fillcolor="#39e581"] ;
472 -> 474 ;
475 [label="gini = 0.0\nsamples = 3\nvalue = [5, 0, 0]\nclass = T", fillcolor="#e58139"] ;
471 -> 475 ;
476 [label="gini = 0.0\nsamples = 1\nvalue = [0, 1, 0]\nclass = r", fillcolor="#39e581"] ;
470 -> 476 ;
477 [label="pulse rate <= 95.0\ngini = 0.32\nsamples = 3\nvalue = [4, 1, 0]\nclass = T", fillcolor="#eca06a"] ;
469 -> 477 ;
478 [label="gini = 0.0\nsamples = 1\nvalue = [2, 0, 0]\nclass = T", fillcolor="#e58139"] ;
477 -> 478 ;
479 [label="Height <= 161.5\ngini = 0.44\nsamples = 2\nvalue = [2, 1, 0]\nclass = T", fillcolor="#f2c09c"] ;
477 -> 479 ;
480 [label="gini = 0.0\nsamples = 1\nvalue = [2, 0, 0]\nclass = T", fillcolor="#e58139"] ;
479 -> 480 ;
481 [label="gini = 0.0\nsamples = 1\nvalue = [0, 1, 0]\nclass = r", fillcolor="#39e581"] ;
479 -> 481 ;
482 [label="anosmia <= 0.5\ngini = 0.47\nsamples = 10\nvalue = [0, 8, 5]\nclass = r", fillcolor="#b5f5d0"] ;
432 -> 482 ;
483 [label="gini = 0.0\nsamples = 6\nvalue = [0, 8, 0]\nclass = r", fillcolor="#39e581"] ;
482 -> 483 ;
484 [label="gini = 0.0\nsamples = 4\nvalue = [0, 0, 5]\nclass = i", fillcolor="#8139e5"] ;
482 -> 484 ;
485 [label="gini = 0.0\nsamples = 3\nvalue = [4, 0, 0]\nclass = T", fillcolor="#e58139"] ;
431 -> 485 ;
486 [label="chill <= 0.5\ngini = 0.51\nsamples = 43\nvalue = [10, 9, 36]\nclass = i", fillcolor="#b68df0"] ;
430 -> 486 ;
487 [label="other immunosuppression <= 0.5\ngini = 0.41\nsamples = 6\nvalue = [2, 5, 0]\nclass = r", fillcolor="#88efb3"] ;
486 -> 487 ;
488 [label="Age (yr) <= 40.0\ngini = 0.28\nsamples = 5\nvalue = [1, 5, 0]\nclass = r", fillcolor="#61ea9a"] ;
487 -> 488 ;
489 [label="gini = 0.0\nsamples = 3\nvalue = [0, 4, 0]\nclass = r", fillcolor="#39e581"] ;
488 -> 489 ;
490 [label="Duration of starting complaints <= 1.5\ngini = 0.5\nsamples = 2\nvalue = [1, 1, 0]\nclass = T", fillcolor="#ffffff"] ;
488 -> 490 ;
491 [label="gini = 0.0\nsamples = 1\nvalue = [0, 1, 0]\nclass = r", fillcolor="#39e581"] ;
490 -> 491 ;
492 [label="gini = 0.0\nsamples = 1\nvalue = [1, 0, 0]\nclass = T", fillcolor="#e58139"] ;
490 -> 492 ;
493 [label="gini = 0.0\nsamples = 1\nvalue = [1, 0, 0]\nclass = T", fillcolor="#e58139"] ;
487 -> 493 ;
494 [label="diarrhea <= 0.5\ngini = 0.4\nsamples = 37\nvalue = [8, 4, 36]\nclass = i", fillcolor="#a774ed"] ;
486 -> 494 ;
495 [label="myalgia <= 0.5\ngini = 0.63\nsamples = 17\nvalue = [8, 4, 10]\nclass = i", fillcolor="#ede3fb"] ;
494 -> 495 ;
496 [label="Systolic blood presure <= 127.5\ngini = 0.44\nsamples = 7\nvalue = [6, 3, 0]\nclass = T", fillcolor="#f2c09c"] ;
495 -> 496 ;
497 [label="Diastolic blood pressure <= 70.0\ngini = 0.38\nsamples = 6\nvalue = [6, 2, 0]\nclass = T", fillcolor="#eeab7b"] ;
496 -> 497 ;
498 [label="gini = 0.0\nsamples = 3\nvalue = [5, 0, 0]\nclass = T", fillcolor="#e58139"] ;
497 -> 498 ;
499 [label="Height <= 153.0\ngini = 0.44\nsamples = 3\nvalue = [1, 2, 0]\nclass = r", fillcolor="#9cf2c0"] ;
497 -> 499 ;
500 [label="gini = 0.0\nsamples = 1\nvalue = [1, 0, 0]\nclass = T", fillcolor="#e58139"] ;
499 -> 500 ;
501 [label="gini = 0.0\nsamples = 2\nvalue = [0, 2, 0]\nclass = r", fillcolor="#39e581"] ;
499 -> 501 ;
502 [label="gini = 0.0\nsamples = 1\nvalue = [0, 1, 0]\nclass = r", fillcolor="#39e581"] ;
496 -> 502 ;
503 [label="BMI <= 27.91\ngini = 0.38\nsamples = 10\nvalue = [2, 1, 10]\nclass = i", fillcolor="#a36fec"] ;
495 -> 503 ;
504 [label="Duration of starting complaints <= 2.5\ngini = 0.44\nsamples = 2\nvalue = [2, 1, 0]\nclass = T", fillcolor="#f2c09c"] ;
503 -> 504 ;
505 [label="gini = 0.0\nsamples = 1\nvalue = [2, 0, 0]\nclass = T", fillcolor="#e58139"] ;
504 -> 505 ;
506 [label="gini = 0.0\nsamples = 1\nvalue = [0, 1, 0]\nclass = r", fillcolor="#39e581"] ;
504 -> 506 ;
507 [label="gini = 0.0\nsamples = 8\nvalue = [0, 0, 10]\nclass = i", fillcolor="#8139e5"] ;
503 -> 507 ;
508 [label="gini = 0.0\nsamples = 20\nvalue = [0, 0, 26]\nclass = i", fillcolor="#8139e5"] ;
494 -> 508 ;
509 [label="gini = 0.0\nsamples = 10\nvalue = [0, 15, 0]\nclass = r", fillcolor="#39e581"] ;
429 -> 509 ;
510 [label="mediacl personnel <= 0.5\ngini = 0.52\nsamples = 102\nvalue = [15, 50, 108]\nclass = i", fillcolor="#c4a2f3"] ;
428 -> 510 ;
511 [label="respiratory rate <= 21.5\ngini = 0.51\nsamples = 101\nvalue = [14, 50, 108]\nclass = i", fillcolor="#c3a1f3"] ;
510 -> 511 ;
512 [label="sputum <= 0.5\ngini = 0.61\nsamples = 60\nvalue = [14, 40, 45]\nclass = i", fillcolor="#f4eefd"] ;
511 -> 512 ;
513 [label="nausea/vomiting <= 0.5\ngini = 0.62\nsamples = 51\nvalue = [14, 38, 34]\nclass = r", fillcolor="#f0fdf5"] ;
512 -> 513 ;
514 [label="pulse rate <= 93.5\ngini = 0.63\nsamples = 35\nvalue = [12, 28, 22]\nclass = r", fillcolor="#e1fbec"] ;
513 -> 514 ;
515 [label="diarrhea <= 0.5\ngini = 0.48\nsamples = 21\nvalue = [1, 11, 22]\nclass = i", fillcolor="#c3a0f3"] ;
514 -> 515 ;
516 [label="Age (yr) <= 35.0\ngini = 0.41\nsamples = 19\nvalue = [1, 7, 22]\nclass = i", fillcolor="#ad7eee"] ;
515 -> 516 ;
517 [label="Age (yr) <= 30.0\ngini = 0.28\nsamples = 3\nvalue = [1, 5, 0]\nclass = r", fillcolor="#61ea9a"] ;
516 -> 517 ;
518 [label="Tempreture <= 37.9\ngini = 0.5\nsamples = 2\nvalue = [1, 1, 0]\nclass = T", fillcolor="#ffffff"] ;
517 -> 518 ;
519 [label="gini = 0.0\nsamples = 1\nvalue = [1, 0, 0]\nclass = T", fillcolor="#e58139"] ;
518 -> 519 ;
520 [label="gini = 0.0\nsamples = 1\nvalue = [0, 1, 0]\nclass = r", fillcolor="#39e581"] ;
518 -> 520 ;
521 [label="gini = 0.0\nsamples = 1\nvalue = [0, 4, 0]\nclass = r", fillcolor="#39e581"] ;
517 -> 521 ;
522 [label="Duration of starting complaints <= 1.5\ngini = 0.15\nsamples = 16\nvalue = [0, 2, 22]\nclass = i", fillcolor="#8c4be7"] ;
516 -> 522 ;
523 [label="pulse rate <= 84.5\ngini = 0.08\nsamples = 15\nvalue = [0, 1, 22]\nclass = i", fillcolor="#8742e6"] ;
522 -> 523 ;
524 [label="gini = 0.0\nsamples = 1\nvalue = [0, 1, 0]\nclass = r", fillcolor="#39e581"] ;
523 -> 524 ;
525 [label="gini = 0.0\nsamples = 14\nvalue = [0, 0, 22]\nclass = i", fillcolor="#8139e5"] ;
523 -> 525 ;
526 [label="gini = 0.0\nsamples = 1\nvalue = [0, 1, 0]\nclass = r", fillcolor="#39e581"] ;
522 -> 526 ;
527 [label="gini = 0.0\nsamples = 2\nvalue = [0, 4, 0]\nclass = r", fillcolor="#39e581"] ;
515 -> 527 ;
528 [label="dyspnea <= 0.5\ngini = 0.48\nsamples = 14\nvalue = [11, 17, 0]\nclass = r", fillcolor="#b9f6d3"] ;
514 -> 528 ;
529 [label="Gender <= 0.5\ngini = 0.49\nsamples = 11\nvalue = [9, 12, 0]\nclass = r", fillcolor="#cef8e0"] ;
528 -> 529 ;
530 [label="Duration of starting complaints <= 2.0\ngini = 0.42\nsamples = 8\nvalue = [5, 12, 0]\nclass = r", fillcolor="#8bf0b5"] ;
529 -> 530 ;
531 [label="BMI <= 25.82\ngini = 0.5\nsamples = 6\nvalue = [5, 6, 0]\nclass = r", fillcolor="#defbea"] ;
530 -> 531 ;
532 [label="Age (yr) <= 19.5\ngini = 0.41\nsamples = 5\nvalue = [5, 2, 0]\nclass = T", fillcolor="#efb388"] ;
531 -> 532 ;
533 [label="gini = 0.0\nsamples = 1\nvalue = [0, 1, 0]\nclass = r", fillcolor="#39e581"] ;
532 -> 533 ;
534 [label="Height <= 161.0\ngini = 0.28\nsamples = 4\nvalue = [5, 1, 0]\nclass = T", fillcolor="#ea9a61"] ;
532 -> 534 ;
535 [label="gini = 0.0\nsamples = 1\nvalue = [0, 1, 0]\nclass = r", fillcolor="#39e581"] ;
534 -> 535 ;
536 [label="gini = 0.0\nsamples = 3\nvalue = [5, 0, 0]\nclass = T", fillcolor="#e58139"] ;
534 -> 536 ;
537 [label="gini = 0.0\nsamples = 1\nvalue = [0, 4, 0]\nclass = r", fillcolor="#39e581"] ;
531 -> 537 ;
538 [label="gini = 0.0\nsamples = 2\nvalue = [0, 6, 0]\nclass = r", fillcolor="#39e581"] ;
530 -> 538 ;
539 [label="gini = 0.0\nsamples = 3\nvalue = [4, 0, 0]\nclass = T", fillcolor="#e58139"] ;
529 -> 539 ;
540 [label="Height <= 158.5\ngini = 0.41\nsamples = 3\nvalue = [2, 5, 0]\nclass = r", fillcolor="#88efb3"] ;
528 -> 540 ;
541 [label="gini = 0.0\nsamples = 1\nvalue = [2, 0, 0]\nclass = T", fillcolor="#e58139"] ;
540 -> 541 ;
542 [label="gini = 0.0\nsamples = 2\nvalue = [0, 5, 0]\nclass = r", fillcolor="#39e581"] ;
540 -> 542 ;
543 [label="diarrhea <= 0.5\ngini = 0.57\nsamples = 16\nvalue = [2, 10, 12]\nclass = i", fillcolor="#ede3fb"] ;
513 -> 543 ;
544 [label="anorexia <= 0.5\ngini = 0.49\nsamples = 12\nvalue = [2, 4, 12]\nclass = i", fillcolor="#b78ef0"] ;
543 -> 544 ;
545 [label="Weight <= 46.0\ngini = 0.24\nsamples = 10\nvalue = [0, 2, 12]\nclass = i", fillcolor="#965ae9"] ;
544 -> 545 ;
546 [label="gini = 0.0\nsamples = 1\nvalue = [0, 2, 0]\nclass = r", fillcolor="#39e581"] ;
545 -> 546 ;
547 [label="gini = 0.0\nsamples = 9\nvalue = [0, 0, 12]\nclass = i", fillcolor="#8139e5"] ;
545 -> 547 ;
548 [label="headache <= 0.5\ngini = 0.5\nsamples = 2\nvalue = [2, 2, 0]\nclass = T", fillcolor="#ffffff"] ;
544 -> 548 ;
549 [label="gini = 0.0\nsamples = 1\nvalue = [0, 2, 0]\nclass = r", fillcolor="#39e581"] ;
548 -> 549 ;
550 [label="gini = 0.0\nsamples = 1\nvalue = [2, 0, 0]\nclass = T", fillcolor="#e58139"] ;
548 -> 550 ;
551 [label="gini = 0.0\nsamples = 4\nvalue = [0, 6, 0]\nclass = r", fillcolor="#39e581"] ;
543 -> 551 ;
552 [label="anorexia <= 0.5\ngini = 0.26\nsamples = 9\nvalue = [0, 2, 11]\nclass = i", fillcolor="#985dea"] ;
512 -> 552 ;
553 [label="gini = 0.0\nsamples = 7\nvalue = [0, 0, 11]\nclass = i", fillcolor="#8139e5"] ;
552 -> 553 ;
554 [label="gini = 0.0\nsamples = 2\nvalue = [0, 2, 0]\nclass = r", fillcolor="#39e581"] ;
552 -> 554 ;
555 [label="diarrhea <= 0.5\ngini = 0.24\nsamples = 41\nvalue = [0, 10, 63]\nclass = i", fillcolor="#9558e9"] ;
511 -> 555 ;
556 [label="body pain <= 0.5\ngini = 0.18\nsamples = 39\nvalue = [0, 7, 63]\nclass = i", fillcolor="#8f4fe8"] ;
555 -> 556 ;
557 [label="dyspnea <= 0.5\ngini = 0.33\nsamples = 14\nvalue = [0, 6, 23]\nclass = i", fillcolor="#a26dec"] ;
556 -> 557 ;
558 [label="gini = 0.0\nsamples = 11\nvalue = [0, 0, 23]\nclass = i", fillcolor="#8139e5"] ;
557 -> 558 ;
559 [label="gini = 0.0\nsamples = 3\nvalue = [0, 6, 0]\nclass = r", fillcolor="#39e581"] ;
557 -> 559 ;
560 [label="cough <= 0.5\ngini = 0.05\nsamples = 25\nvalue = [0, 1, 40]\nclass = i", fillcolor="#843ee6"] ;
556 -> 560 ;
561 [label="gini = 0.0\nsamples = 1\nvalue = [0, 1, 0]\nclass = r", fillcolor="#39e581"] ;
560 -> 561 ;
562 [label="gini = 0.0\nsamples = 24\nvalue = [0, 0, 40]\nclass = i", fillcolor="#8139e5"] ;
560 -> 562 ;
563 [label="gini = 0.0\nsamples = 2\nvalue = [0, 3, 0]\nclass = r", fillcolor="#39e581"] ;
555 -> 563 ;
564 [label="gini = 0.0\nsamples = 1\nvalue = [1, 0, 0]\nclass = T", fillcolor="#e58139"] ;
510 -> 564 ;
565 [label="nose stiffness <= 0.5\ngini = 0.35\nsamples = 64\nvalue = [7, 12, 72]\nclass = i", fillcolor="#9f69eb"] ;
427 -> 565 ;
566 [label="Renal failure <= 0.5\ngini = 0.31\nsamples = 58\nvalue = [7, 8, 68]\nclass = i", fillcolor="#9a61ea"] ;
565 -> 566 ;
567 [label="Laryngitis <= 0.5\ngini = 0.28\nsamples = 57\nvalue = [5, 8, 68]\nclass = i", fillcolor="#975cea"] ;
566 -> 567 ;
568 [label="pulse rate <= 90.0\ngini = 0.31\nsamples = 50\nvalue = [5, 8, 59]\nclass = i", fillcolor="#9b61ea"] ;
567 -> 568 ;
569 [label="cough <= 0.5\ngini = 0.44\nsamples = 3\nvalue = [2, 4, 0]\nclass = r", fillcolor="#9cf2c0"] ;
568 -> 569 ;
570 [label="gini = 0.0\nsamples = 1\nvalue = [2, 0, 0]\nclass = T", fillcolor="#e58139"] ;
569 -> 570 ;
571 [label="gini = 0.0\nsamples = 2\nvalue = [0, 4, 0]\nclass = r", fillcolor="#39e581"] ;
569 -> 571 ;
572 [label="Duration of starting complaints <= 1.5\ngini = 0.2\nsamples = 47\nvalue = [3, 4, 59]\nclass = i", fillcolor="#8f4fe8"] ;
568 -> 572 ;
573 [label="pulse rate <= 109.5\ngini = 0.36\nsamples = 19\nvalue = [3, 3, 22]\nclass = i", fillcolor="#9f69eb"] ;
572 -> 573 ;
574 [label="gini = 0.0\nsamples = 13\nvalue = [0, 0, 19]\nclass = i", fillcolor="#8139e5"] ;
573 -> 574 ;
575 [label="Diastolic blood pressure <= 95.5\ngini = 0.67\nsamples = 6\nvalue = [3, 3, 3]\nclass = T", fillcolor="#ffffff"] ;
573 -> 575 ;
576 [label="myalgia <= 0.5\ngini = 0.61\nsamples = 5\nvalue = [3, 1, 3]\nclass = T", fillcolor="#ffffff"] ;
575 -> 576 ;
577 [label="BMI <= 32.62\ngini = 0.38\nsamples = 3\nvalue = [0, 1, 3]\nclass = i", fillcolor="#ab7bee"] ;
576 -> 577 ;
578 [label="gini = 0.0\nsamples = 1\nvalue = [0, 1, 0]\nclass = r", fillcolor="#39e581"] ;
577 -> 578 ;
579 [label="gini = 0.0\nsamples = 2\nvalue = [0, 0, 3]\nclass = i", fillcolor="#8139e5"] ;
577 -> 579 ;
580 [label="gini = 0.0\nsamples = 2\nvalue = [3, 0, 0]\nclass = T", fillcolor="#e58139"] ;
576 -> 580 ;
581 [label="gini = 0.0\nsamples = 1\nvalue = [0, 2, 0]\nclass = r", fillcolor="#39e581"] ;
575 -> 581 ;
582 [label="Diastolic blood pressure <= 81.5\ngini = 0.05\nsamples = 28\nvalue = [0, 1, 37]\nclass = i", fillcolor="#843ee6"] ;
572 -> 582 ;
583 [label="gini = 0.0\nsamples = 21\nvalue = [0, 0, 29]\nclass = i", fillcolor="#8139e5"] ;
582 -> 583 ;
584 [label="Height <= 158.0\ngini = 0.2\nsamples = 7\nvalue = [0, 1, 8]\nclass = i", fillcolor="#9152e8"] ;
582 -> 584 ;
585 [label="gini = 0.0\nsamples = 6\nvalue = [0, 0, 8]\nclass = i", fillcolor="#8139e5"] ;
584 -> 585 ;
586 [label="gini = 0.0\nsamples = 1\nvalue = [0, 1, 0]\nclass = r", fillcolor="#39e581"] ;
584 -> 586 ;
587 [label="gini = 0.0\nsamples = 7\nvalue = [0, 0, 9]\nclass = i", fillcolor="#8139e5"] ;
567 -> 587 ;
588 [label="gini = 0.0\nsamples = 1\nvalue = [2, 0, 0]\nclass = T", fillcolor="#e58139"] ;
566 -> 588 ;
589 [label="BMI <= 31.38\ngini = 0.5\nsamples = 6\nvalue = [0, 4, 4]\nclass = r", fillcolor="#ffffff"] ;
565 -> 589 ;
590 [label="gini = 0.0\nsamples = 2\nvalue = [0, 4, 0]\nclass = r", fillcolor="#39e581"] ;
589 -> 590 ;
591 [label="gini = 0.0\nsamples = 4\nvalue = [0, 0, 4]\nclass = i", fillcolor="#8139e5"] ;
589 -> 591 ;
592 [label="Respratory distress <= 0.5\ngini = 0.66\nsamples = 1123\nvalue = [671, 682, 450]\nclass = r", fillcolor="#fdfffe"] ;
0 -> 592 [labeldistance=2.5, labelangle=-45, headlabel="False"] ;
593 [label="Age (yr) <= 51.5\ngini = 0.64\nsamples = 963\nvalue = [637, 593, 315]\nclass = T", fillcolor="#fef9f6"] ;
592 -> 593 ;
594 [label="chill <= 0.5\ngini = 0.6\nsamples = 723\nvalue = [530, 474, 139]\nclass = T", fillcolor="#fdf4ee"] ;
593 -> 594 ;
595 [label="No risk factor <= 0.5\ngini = 0.57\nsamples = 518\nvalue = [448, 304, 83]\nclass = T", fillcolor="#f8ddc9"] ;
594 -> 595 ;
596 [label="diarrhea <= 0.5\ngini = 0.6\nsamples = 185\nvalue = [109, 142, 40]\nclass = r", fillcolor="#dbfae8"] ;
595 -> 596 ;
597 [label="Tempreture <= 35.25\ngini = 0.62\nsamples = 158\nvalue = [95, 106, 40]\nclass = r", fillcolor="#f0fdf6"] ;
596 -> 597 ;
598 [label="anorexia <= 0.5\ngini = 0.24\nsamples = 6\nvalue = [1, 0, 6]\nclass = i", fillcolor="#965ae9"] ;
597 -> 598 ;
599 [label="gini = 0.0\nsamples = 1\nvalue = [1, 0, 0]\nclass = T", fillcolor="#e58139"] ;
598 -> 599 ;
600 [label="gini = 0.0\nsamples = 5\nvalue = [0, 0, 6]\nclass = i", fillcolor="#8139e5"] ;
598 -> 600 ;
601 [label="sPO2% <= 93.5\ngini = 0.61\nsamples = 152\nvalue = [94, 106, 34]\nclass = r", fillcolor="#eefdf4"] ;
597 -> 601 ;
602 [label="sore throat <= 0.5\ngini = 0.24\nsamples = 22\nvalue = [1, 3, 26]\nclass = i", fillcolor="#9456e9"] ;
601 -> 602 ;
603 [label="Age (yr) <= 39.0\ngini = 0.19\nsamples = 21\nvalue = [1, 2, 26]\nclass = i", fillcolor="#8f4fe8"] ;
602 -> 603 ;
604 [label="Duration of starting complaints <= 1.5\ngini = 0.5\nsamples = 2\nvalue = [1, 1, 0]\nclass = T", fillcolor="#ffffff"] ;
603 -> 604 ;
605 [label="gini = 0.0\nsamples = 1\nvalue = [1, 0, 0]\nclass = T", fillcolor="#e58139"] ;
604 -> 605 ;
606 [label="gini = 0.0\nsamples = 1\nvalue = [0, 1, 0]\nclass = r", fillcolor="#39e581"] ;
604 -> 606 ;
607 [label="diabetes melitus <= 0.5\ngini = 0.07\nsamples = 19\nvalue = [0, 1, 26]\nclass = i", fillcolor="#8641e6"] ;
603 -> 607 ;
608 [label="gini = 0.0\nsamples = 1\nvalue = [0, 1, 0]\nclass = r", fillcolor="#39e581"] ;
607 -> 608 ;
609 [label="gini = 0.0\nsamples = 18\nvalue = [0, 0, 26]\nclass = i", fillcolor="#8139e5"] ;
607 -> 609 ;
610 [label="gini = 0.0\nsamples = 1\nvalue = [0, 1, 0]\nclass = r", fillcolor="#39e581"] ;
602 -> 610 ;
611 [label="Weight <= 53.0\ngini = 0.54\nsamples = 130\nvalue = [93, 103, 8]\nclass = r", fillcolor="#edfdf4"] ;
601 -> 611 ;
612 [label="gini = 0.0\nsamples = 7\nvalue = [0, 0, 8]\nclass = i", fillcolor="#8139e5"] ;
611 -> 612 ;
613 [label="mediacl personnel <= 0.5\ngini = 0.5\nsamples = 123\nvalue = [93, 103, 0]\nclass = r", fillcolor="#ecfcf3"] ;
611 -> 613 ;
614 [label="Cardiovascular dis <= 0.5\ngini = 0.49\nsamples = 104\nvalue = [74, 93, 0]\nclass = r", fillcolor="#d7fae5"] ;
613 -> 614 ;
615 [label="sPO2% <= 95.5\ngini = 0.49\nsamples = 103\nvalue = [74, 92, 0]\nclass = r", fillcolor="#d8fae6"] ;
614 -> 615 ;
616 [label="throat dryness <= 0.5\ngini = 0.39\nsamples = 23\nvalue = [11, 30, 0]\nclass = r", fillcolor="#82efaf"] ;
615 -> 616 ;
617 [label="nose stiffness <= 0.5\ngini = 0.42\nsamples = 21\nvalue = [11, 25, 0]\nclass = r", fillcolor="#90f0b8"] ;
616 -> 617 ;
618 [label="Height <= 176.5\ngini = 0.41\nsamples = 20\nvalue = [10, 25, 0]\nclass = r", fillcolor="#88efb3"] ;
617 -> 618 ;
619 [label="pulse rate <= 87.5\ngini = 0.48\nsamples = 13\nvalue = [9, 13, 0]\nclass = r", fillcolor="#c2f7d8"] ;
618 -> 619 ;
620 [label="gini = 0.0\nsamples = 2\nvalue = [5, 0, 0]\nclass = T", fillcolor="#e58139"] ;
619 -> 620 ;
621 [label="sPO2% <= 94.5\ngini = 0.36\nsamples = 11\nvalue = [4, 13, 0]\nclass = r", fillcolor="#76eda8"] ;
619 -> 621 ;
622 [label="gini = 0.0\nsamples = 2\nvalue = [0, 4, 0]\nclass = r", fillcolor="#39e581"] ;
621 -> 622 ;
623 [label="Height <= 173.0\ngini = 0.43\nsamples = 9\nvalue = [4, 9, 0]\nclass = r", fillcolor="#91f1b9"] ;
621 -> 623 ;
624 [label="Weight <= 67.0\ngini = 0.3\nsamples = 7\nvalue = [2, 9, 0]\nclass = r", fillcolor="#65eb9d"] ;
623 -> 624 ;
625 [label="gini = 0.0\nsamples = 1\nvalue = [2, 0, 0]\nclass = T", fillcolor="#e58139"] ;
624 -> 625 ;
626 [label="gini = 0.0\nsamples = 6\nvalue = [0, 9, 0]\nclass = r", fillcolor="#39e581"] ;
624 -> 626 ;
627 [label="gini = 0.0\nsamples = 2\nvalue = [2, 0, 0]\nclass = T", fillcolor="#e58139"] ;
623 -> 627 ;
628 [label="respiratory rate <= 18.5\ngini = 0.14\nsamples = 7\nvalue = [1, 12, 0]\nclass = r", fillcolor="#49e78c"] ;
618 -> 628 ;
629 [label="BMI <= 28.66\ngini = 0.44\nsamples = 2\nvalue = [1, 2, 0]\nclass = r", fillcolor="#9cf2c0"] ;
628 -> 629 ;
630 [label="gini = 0.0\nsamples = 1\nvalue = [0, 2, 0]\nclass = r", fillcolor="#39e581"] ;
629 -> 630 ;
631 [label="gini = 0.0\nsamples = 1\nvalue = [1, 0, 0]\nclass = T", fillcolor="#e58139"] ;
629 -> 631 ;
632 [label="gini = 0.0\nsamples = 5\nvalue = [0, 10, 0]\nclass = r", fillcolor="#39e581"] ;
628 -> 632 ;
633 [label="gini = 0.0\nsamples = 1\nvalue = [1, 0, 0]\nclass = T", fillcolor="#e58139"] ;
617 -> 633 ;
634 [label="gini = 0.0\nsamples = 2\nvalue = [0, 5, 0]\nclass = r", fillcolor="#39e581"] ;
616 -> 634 ;
635 [label="body pain <= 0.5\ngini = 0.5\nsamples = 80\nvalue = [63, 62, 0]\nclass = T", fillcolor="#fffdfc"] ;
615 -> 635 ;
636 [label="chest pain <= 0.5\ngini = 0.49\nsamples = 60\nvalue = [57, 42, 0]\nclass = T", fillcolor="#f8decb"] ;
635 -> 636 ;
637 [label="anosmia <= 0.5\ngini = 0.47\nsamples = 51\nvalue = [54, 32, 0]\nclass = T", fillcolor="#f4ccae"] ;
636 -> 637 ;
638 [label="hypothyroid <= 0.5\ngini = 0.43\nsamples = 48\nvalue = [54, 25, 0]\nclass = T", fillcolor="#f1bb95"] ;
637 -> 638 ;
639 [label="Weight <= 108.0\ngini = 0.4\nsamples = 42\nvalue = [49, 19, 0]\nclass = T", fillcolor="#efb286"] ;
638 -> 639 ;
640 [label="Respiratory disease <= 0.5\ngini = 0.38\nsamples = 38\nvalue = [48, 16, 0]\nclass = T", fillcolor="#eeab7b"] ;
639 -> 640 ;
641 [label="no prominent effect <= 0.5\ngini = 0.4\nsamples = 33\nvalue = [39, 15, 0]\nclass = T", fillcolor="#efb185"] ;
640 -> 641 ;
642 [label="Diastolic blood pressure <= 120.0\ngini = 0.45\nsamples = 15\nvalue = [15, 8, 0]\nclass = T", fillcolor="#f3c4a3"] ;
641 -> 642 ;
643 [label="myalgia <= 0.5\ngini = 0.43\nsamples = 14\nvalue = [15, 7, 0]\nclass = T", fillcolor="#f1bc95"] ;
642 -> 643 ;
644 [label="pulse rate <= 94.0\ngini = 0.41\nsamples = 13\nvalue = [15, 6, 0]\nclass = T", fillcolor="#efb388"] ;
643 -> 644 ;
645 [label="Systolic blood presure <= 115.0\ngini = 0.38\nsamples = 3\nvalue = [1, 3, 0]\nclass = r", fillcolor="#7beeab"] ;
644 -> 645 ;
646 [label="gini = 0.0\nsamples = 1\nvalue = [1, 0, 0]\nclass = T", fillcolor="#e58139"] ;
645 -> 646 ;
647 [label="gini = 0.0\nsamples = 2\nvalue = [0, 3, 0]\nclass = r", fillcolor="#39e581"] ;
645 -> 647 ;
648 [label="Weight <= 62.5\ngini = 0.29\nsamples = 10\nvalue = [14, 3, 0]\nclass = T", fillcolor="#eb9c63"] ;
644 -> 648 ;
649 [label="gini = 0.0\nsamples = 1\nvalue = [0, 1, 0]\nclass = r", fillcolor="#39e581"] ;
648 -> 649 ;
650 [label="respiratory rate <= 19.5\ngini = 0.22\nsamples = 9\nvalue = [14, 2, 0]\nclass = T", fillcolor="#e99355"] ;
648 -> 650 ;
651 [label="Age (yr) <= 47.0\ngini = 0.32\nsamples = 4\nvalue = [8, 2, 0]\nclass = T", fillcolor="#eca06a"] ;
650 -> 651 ;
652 [label="Diastolic blood pressure <= 84.0\ngini = 0.5\nsamples = 2\nvalue = [2, 2, 0]\nclass = T", fillcolor="#ffffff"] ;
651 -> 652 ;
653 [label="gini = 0.0\nsamples = 1\nvalue = [2, 0, 0]\nclass = T", fillcolor="#e58139"] ;
652 -> 653 ;
654 [label="gini = 0.0\nsamples = 1\nvalue = [0, 2, 0]\nclass = r", fillcolor="#39e581"] ;
652 -> 654 ;
655 [label="gini = 0.0\nsamples = 2\nvalue = [6, 0, 0]\nclass = T", fillcolor="#e58139"] ;
651 -> 655 ;
656 [label="gini = 0.0\nsamples = 5\nvalue = [6, 0, 0]\nclass = T", fillcolor="#e58139"] ;
650 -> 656 ;
657 [label="gini = 0.0\nsamples = 1\nvalue = [0, 1, 0]\nclass = r", fillcolor="#39e581"] ;
643 -> 657 ;
658 [label="gini = 0.0\nsamples = 1\nvalue = [0, 1, 0]\nclass = r", fillcolor="#39e581"] ;
642 -> 658 ;
659 [label="dysgeusia <= 0.5\ngini = 0.35\nsamples = 18\nvalue = [24, 7, 0]\nclass = T", fillcolor="#eda673"] ;
641 -> 659 ;
660 [label="Diastolic blood pressure <= 75.5\ngini = 0.32\nsamples = 17\nvalue = [24, 6, 0]\nclass = T", fillcolor="#eca06a"] ;
659 -> 660 ;
661 [label="gini = 0.0\nsamples = 1\nvalue = [0, 2, 0]\nclass = r", fillcolor="#39e581"] ;
660 -> 661 ;
662 [label="sore throat <= 0.5\ngini = 0.24\nsamples = 16\nvalue = [24, 4, 0]\nclass = T", fillcolor="#e9965a"] ;
660 -> 662 ;
663 [label="Age (yr) <= 48.0\ngini = 0.17\nsamples = 12\nvalue = [19, 2, 0]\nclass = T", fillcolor="#e88e4e"] ;
662 -> 663 ;
664 [label="gini = 0.0\nsamples = 8\nvalue = [13, 0, 0]\nclass = T", fillcolor="#e58139"] ;
663 -> 664 ;
665 [label="Diastolic blood pressure <= 88.5\ngini = 0.38\nsamples = 4\nvalue = [6, 2, 0]\nclass = T", fillcolor="#eeab7b"] ;
663 -> 665 ;
666 [label="gini = 0.0\nsamples = 3\nvalue = [6, 0, 0]\nclass = T", fillcolor="#e58139"] ;
665 -> 666 ;
667 [label="gini = 0.0\nsamples = 1\nvalue = [0, 2, 0]\nclass = r", fillcolor="#39e581"] ;
665 -> 667 ;
668 [label="non medical personnel <= 0.5\ngini = 0.41\nsamples = 4\nvalue = [5, 2, 0]\nclass = T", fillcolor="#efb388"] ;
662 -> 668 ;
669 [label="Systolic blood presure <= 159.5\ngini = 0.5\nsamples = 3\nvalue = [2, 2, 0]\nclass = T", fillcolor="#ffffff"] ;
668 -> 669 ;
670 [label="gini = 0.0\nsamples = 2\nvalue = [2, 0, 0]\nclass = T", fillcolor="#e58139"] ;
669 -> 670 ;
671 [label="gini = 0.0\nsamples = 1\nvalue = [0, 2, 0]\nclass = r", fillcolor="#39e581"] ;
669 -> 671 ;
672 [label="gini = 0.0\nsamples = 1\nvalue = [3, 0, 0]\nclass = T", fillcolor="#e58139"] ;
668 -> 672 ;
673 [label="gini = 0.0\nsamples = 1\nvalue = [0, 1, 0]\nclass = r", fillcolor="#39e581"] ;
659 -> 673 ;
674 [label="anorexia <= 0.5\ngini = 0.18\nsamples = 5\nvalue = [9, 1, 0]\nclass = T", fillcolor="#e88f4f"] ;
640 -> 674 ;
675 [label="gini = 0.0\nsamples = 4\nvalue = [9, 0, 0]\nclass = T", fillcolor="#e58139"] ;
674 -> 675 ;
676 [label="gini = 0.0\nsamples = 1\nvalue = [0, 1, 0]\nclass = r", fillcolor="#39e581"] ;
674 -> 676 ;
677 [label="Tempreture <= 36.1\ngini = 0.38\nsamples = 4\nvalue = [1, 3, 0]\nclass = r", fillcolor="#7beeab"] ;
639 -> 677 ;
678 [label="Diastolic blood pressure <= 88.0\ngini = 0.5\nsamples = 2\nvalue = [1, 1, 0]\nclass = T", fillcolor="#ffffff"] ;
677 -> 678 ;
679 [label="gini = 0.0\nsamples = 1\nvalue = [1, 0, 0]\nclass = T", fillcolor="#e58139"] ;
678 -> 679 ;
680 [label="gini = 0.0\nsamples = 1\nvalue = [0, 1, 0]\nclass = r", fillcolor="#39e581"] ;
678 -> 680 ;
681 [label="gini = 0.0\nsamples = 2\nvalue = [0, 2, 0]\nclass = r", fillcolor="#39e581"] ;
677 -> 681 ;
682 [label="Height <= 169.0\ngini = 0.5\nsamples = 6\nvalue = [5, 6, 0]\nclass = r", fillcolor="#defbea"] ;
638 -> 682 ;
683 [label="gini = 0.0\nsamples = 2\nvalue = [3, 0, 0]\nclass = T", fillcolor="#e58139"] ;
682 -> 683 ;
684 [label="Weight <= 76.5\ngini = 0.38\nsamples = 4\nvalue = [2, 6, 0]\nclass = r", fillcolor="#7beeab"] ;
682 -> 684 ;
685 [label="gini = 0.0\nsamples = 2\nvalue = [0, 5, 0]\nclass = r", fillcolor="#39e581"] ;
684 -> 685 ;
686 [label="respiratory rate <= 19.5\ngini = 0.44\nsamples = 2\nvalue = [2, 1, 0]\nclass = T", fillcolor="#f2c09c"] ;
684 -> 686 ;
687 [label="gini = 0.0\nsamples = 1\nvalue = [0, 1, 0]\nclass = r", fillcolor="#39e581"] ;
686 -> 687 ;
688 [label="gini = 0.0\nsamples = 1\nvalue = [2, 0, 0]\nclass = T", fillcolor="#e58139"] ;
686 -> 688 ;
689 [label="gini = 0.0\nsamples = 3\nvalue = [0, 7, 0]\nclass = r", fillcolor="#39e581"] ;
637 -> 689 ;
690 [label="Gender <= 0.5\ngini = 0.36\nsamples = 9\nvalue = [3, 10, 0]\nclass = r", fillcolor="#74eda7"] ;
636 -> 690 ;
691 [label="gini = 0.0\nsamples = 5\nvalue = [0, 8, 0]\nclass = r", fillcolor="#39e581"] ;
690 -> 691 ;
692 [label="Systolic blood presure <= 141.5\ngini = 0.48\nsamples = 4\nvalue = [3, 2, 0]\nclass = T", fillcolor="#f6d5bd"] ;
690 -> 692 ;
693 [label="gini = 0.0\nsamples = 3\nvalue = [3, 0, 0]\nclass = T", fillcolor="#e58139"] ;
692 -> 693 ;
694 [label="gini = 0.0\nsamples = 1\nvalue = [0, 2, 0]\nclass = r", fillcolor="#39e581"] ;
692 -> 694 ;
695 [label="Weight <= 58.5\ngini = 0.36\nsamples = 20\nvalue = [6, 20, 0]\nclass = r", fillcolor="#74eda7"] ;
635 -> 695 ;
696 [label="gini = 0.0\nsamples = 1\nvalue = [2, 0, 0]\nclass = T", fillcolor="#e58139"] ;
695 -> 696 ;
697 [label="BMI <= 21.67\ngini = 0.28\nsamples = 19\nvalue = [4, 20, 0]\nclass = r", fillcolor="#61ea9a"] ;
695 -> 697 ;
698 [label="Systolic blood presure <= 146.5\ngini = 0.5\nsamples = 3\nvalue = [2, 2, 0]\nclass = T", fillcolor="#ffffff"] ;
697 -> 698 ;
699 [label="gini = 0.0\nsamples = 2\nvalue = [2, 0, 0]\nclass = T", fillcolor="#e58139"] ;
698 -> 699 ;
700 [label="gini = 0.0\nsamples = 1\nvalue = [0, 2, 0]\nclass = r", fillcolor="#39e581"] ;
698 -> 700 ;
701 [label="cough <= 0.5\ngini = 0.18\nsamples = 16\nvalue = [2, 18, 0]\nclass = r", fillcolor="#4fe88f"] ;
697 -> 701 ;
702 [label="gini = 0.0\nsamples = 8\nvalue = [0, 11, 0]\nclass = r", fillcolor="#39e581"] ;
701 -> 702 ;
703 [label="Weight <= 77.5\ngini = 0.35\nsamples = 8\nvalue = [2, 7, 0]\nclass = r", fillcolor="#72eca5"] ;
701 -> 703 ;
704 [label="gini = 0.0\nsamples = 3\nvalue = [0, 4, 0]\nclass = r", fillcolor="#39e581"] ;
703 -> 704 ;
705 [label="dyspnea <= 0.5\ngini = 0.48\nsamples = 5\nvalue = [2, 3, 0]\nclass = r", fillcolor="#bdf6d5"] ;
703 -> 705 ;
706 [label="Tempreture <= 36.65\ngini = 0.5\nsamples = 4\nvalue = [2, 2, 0]\nclass = T", fillcolor="#ffffff"] ;
705 -> 706 ;
707 [label="gini = 0.0\nsamples = 1\nvalue = [0, 1, 0]\nclass = r", fillcolor="#39e581"] ;
706 -> 707 ;
708 [label="Respiratory disease <= 0.5\ngini = 0.44\nsamples = 3\nvalue = [2, 1, 0]\nclass = T", fillcolor="#f2c09c"] ;
706 -> 708 ;
709 [label="gini = 0.0\nsamples = 2\nvalue = [2, 0, 0]\nclass = T", fillcolor="#e58139"] ;
708 -> 709 ;
710 [label="gini = 0.0\nsamples = 1\nvalue = [0, 1, 0]\nclass = r", fillcolor="#39e581"] ;
708 -> 710 ;
711 [label="gini = 0.0\nsamples = 1\nvalue = [0, 1, 0]\nclass = r", fillcolor="#39e581"] ;
705 -> 711 ;
712 [label="gini = 0.0\nsamples = 1\nvalue = [0, 1, 0]\nclass = r", fillcolor="#39e581"] ;
614 -> 712 ;
713 [label="Systolic blood presure <= 124.5\ngini = 0.45\nsamples = 19\nvalue = [19, 10, 0]\nclass = T", fillcolor="#f3c3a1"] ;
613 -> 713 ;
714 [label="sputum <= 0.5\ngini = 0.28\nsamples = 8\nvalue = [10, 2, 0]\nclass = T", fillcolor="#ea9a61"] ;
713 -> 714 ;
715 [label="BMI <= 28.35\ngini = 0.32\nsamples = 7\nvalue = [8, 2, 0]\nclass = T", fillcolor="#eca06a"] ;
714 -> 715 ;
716 [label="throat dryness <= 0.5\ngini = 0.2\nsamples = 6\nvalue = [8, 1, 0]\nclass = T", fillcolor="#e89152"] ;
715 -> 716 ;
717 [label="Age (yr) <= 28.0\ngini = 0.24\nsamples = 5\nvalue = [6, 1, 0]\nclass = T", fillcolor="#e9965a"] ;
716 -> 717 ;
718 [label="gini = 0.0\nsamples = 3\nvalue = [5, 0, 0]\nclass = T", fillcolor="#e58139"] ;
717 -> 718 ;
719 [label="Tempreture <= 36.4\ngini = 0.5\nsamples = 2\nvalue = [1, 1, 0]\nclass = T", fillcolor="#ffffff"] ;
717 -> 719 ;
720 [label="gini = 0.0\nsamples = 1\nvalue = [1, 0, 0]\nclass = T", fillcolor="#e58139"] ;
719 -> 720 ;
721 [label="gini = 0.0\nsamples = 1\nvalue = [0, 1, 0]\nclass = r", fillcolor="#39e581"] ;
719 -> 721 ;
722 [label="gini = 0.0\nsamples = 1\nvalue = [2, 0, 0]\nclass = T", fillcolor="#e58139"] ;
716 -> 722 ;
723 [label="gini = 0.0\nsamples = 1\nvalue = [0, 1, 0]\nclass = r", fillcolor="#39e581"] ;
715 -> 723 ;
724 [label="gini = 0.0\nsamples = 1\nvalue = [2, 0, 0]\nclass = T", fillcolor="#e58139"] ;
714 -> 724 ;
725 [label="Age (yr) <= 41.0\ngini = 0.5\nsamples = 11\nvalue = [9, 8, 0]\nclass = T", fillcolor="#fcf1e9"] ;
713 -> 725 ;
726 [label="throat dryness <= 0.5\ngini = 0.42\nsamples = 7\nvalue = [3, 7, 0]\nclass = r", fillcolor="#8ef0b7"] ;
725 -> 726 ;
727 [label="Diastolic blood pressure <= 81.5\ngini = 0.5\nsamples = 5\nvalue = [3, 3, 0]\nclass = T", fillcolor="#ffffff"] ;
726 -> 727 ;
728 [label="dyspnea <= 0.5\ngini = 0.38\nsamples = 3\nvalue = [3, 1, 0]\nclass = T", fillcolor="#eeab7b"] ;
727 -> 728 ;
729 [label="gini = 0.0\nsamples = 1\nvalue = [0, 1, 0]\nclass = r", fillcolor="#39e581"] ;
728 -> 729 ;
730 [label="gini = 0.0\nsamples = 2\nvalue = [3, 0, 0]\nclass = T", fillcolor="#e58139"] ;
728 -> 730 ;
731 [label="gini = 0.0\nsamples = 2\nvalue = [0, 2, 0]\nclass = r", fillcolor="#39e581"] ;
727 -> 731 ;
732 [label="gini = 0.0\nsamples = 2\nvalue = [0, 4, 0]\nclass = r", fillcolor="#39e581"] ;
726 -> 732 ;
733 [label="no prominent effect <= 0.5\ngini = 0.24\nsamples = 4\nvalue = [6, 1, 0]\nclass = T", fillcolor="#e9965a"] ;
725 -> 733 ;
734 [label="cough <= 0.5\ngini = 0.28\nsamples = 3\nvalue = [5, 1, 0]\nclass = T", fillcolor="#ea9a61"] ;
733 -> 734 ;
735 [label="Gender <= 0.5\ngini = 0.44\nsamples = 2\nvalue = [2, 1, 0]\nclass = T", fillcolor="#f2c09c"] ;
734 -> 735 ;
736 [label="gini = 0.0\nsamples = 1\nvalue = [0, 1, 0]\nclass = r", fillcolor="#39e581"] ;
735 -> 736 ;
737 [label="gini = 0.0\nsamples = 1\nvalue = [2, 0, 0]\nclass = T", fillcolor="#e58139"] ;
735 -> 737 ;
738 [label="gini = 0.0\nsamples = 1\nvalue = [3, 0, 0]\nclass = T", fillcolor="#e58139"] ;
734 -> 738 ;
739 [label="gini = 0.0\nsamples = 1\nvalue = [1, 0, 0]\nclass = T", fillcolor="#e58139"] ;
733 -> 739 ;
740 [label="dyspnea <= 0.5\ngini = 0.4\nsamples = 27\nvalue = [14, 36, 0]\nclass = r", fillcolor="#86efb2"] ;
596 -> 740 ;
741 [label="dysgeusia <= 0.5\ngini = 0.33\nsamples = 22\nvalue = [8, 31, 0]\nclass = r", fillcolor="#6ceca2"] ;
740 -> 741 ;
742 [label="nose stiffness <= 0.5\ngini = 0.34\nsamples = 21\nvalue = [8, 29, 0]\nclass = r", fillcolor="#70eca4"] ;
741 -> 742 ;
743 [label="Tempreture <= 37.1\ngini = 0.35\nsamples = 20\nvalue = [8, 28, 0]\nclass = r", fillcolor="#72eca5"] ;
742 -> 743 ;
744 [label="headache <= 0.5\ngini = 0.5\nsamples = 12\nvalue = [8, 9, 0]\nclass = r", fillcolor="#e9fcf1"] ;
743 -> 744 ;
745 [label="Respiratory disease <= 0.5\ngini = 0.49\nsamples = 8\nvalue = [7, 5, 0]\nclass = T", fillcolor="#f8dbc6"] ;
744 -> 745 ;
746 [label="sputum <= 0.5\ngini = 0.46\nsamples = 7\nvalue = [7, 4, 0]\nclass = T", fillcolor="#f4c9aa"] ;
745 -> 746 ;
747 [label="Diastolic blood pressure <= 90.5\ngini = 0.35\nsamples = 6\nvalue = [7, 2, 0]\nclass = T", fillcolor="#eca572"] ;
746 -> 747 ;
748 [label="gini = 0.0\nsamples = 4\nvalue = [6, 0, 0]\nclass = T", fillcolor="#e58139"] ;
747 -> 748 ;
749 [label="no prominent effect <= 0.5\ngini = 0.44\nsamples = 2\nvalue = [1, 2, 0]\nclass = r", fillcolor="#9cf2c0"] ;
747 -> 749 ;
750 [label="gini = 0.0\nsamples = 1\nvalue = [0, 2, 0]\nclass = r", fillcolor="#39e581"] ;
749 -> 750 ;
751 [label="gini = 0.0\nsamples = 1\nvalue = [1, 0, 0]\nclass = T", fillcolor="#e58139"] ;
749 -> 751 ;
752 [label="gini = 0.0\nsamples = 1\nvalue = [0, 2, 0]\nclass = r", fillcolor="#39e581"] ;
746 -> 752 ;
753 [label="gini = 0.0\nsamples = 1\nvalue = [0, 1, 0]\nclass = r", fillcolor="#39e581"] ;
745 -> 753 ;
754 [label="no prominent effect <= 0.5\ngini = 0.32\nsamples = 4\nvalue = [1, 4, 0]\nclass = r", fillcolor="#6aeca0"] ;
744 -> 754 ;
755 [label="pulse rate <= 97.5\ngini = 0.38\nsamples = 3\nvalue = [1, 3, 0]\nclass = r", fillcolor="#7beeab"] ;
754 -> 755 ;
756 [label="gini = 0.0\nsamples = 1\nvalue = [1, 0, 0]\nclass = T", fillcolor="#e58139"] ;
755 -> 756 ;
757 [label="gini = 0.0\nsamples = 2\nvalue = [0, 3, 0]\nclass = r", fillcolor="#39e581"] ;
755 -> 757 ;
758 [label="gini = 0.0\nsamples = 1\nvalue = [0, 1, 0]\nclass = r", fillcolor="#39e581"] ;
754 -> 758 ;
759 [label="gini = 0.0\nsamples = 8\nvalue = [0, 19, 0]\nclass = r", fillcolor="#39e581"] ;
743 -> 759 ;
760 [label="gini = 0.0\nsamples = 1\nvalue = [0, 1, 0]\nclass = r", fillcolor="#39e581"] ;
742 -> 760 ;
761 [label="gini = 0.0\nsamples = 1\nvalue = [0, 2, 0]\nclass = r", fillcolor="#39e581"] ;
741 -> 761 ;
762 [label="sPO2% <= 97.5\ngini = 0.5\nsamples = 5\nvalue = [6, 5, 0]\nclass = T", fillcolor="#fbeade"] ;
740 -> 762 ;
763 [label="myalgia <= 0.5\ngini = 0.41\nsamples = 4\nvalue = [2, 5, 0]\nclass = r", fillcolor="#88efb3"] ;
762 -> 763 ;
764 [label="gini = 0.0\nsamples = 3\nvalue = [0, 5, 0]\nclass = r", fillcolor="#39e581"] ;
763 -> 764 ;
765 [label="gini = 0.0\nsamples = 1\nvalue = [2, 0, 0]\nclass = T", fillcolor="#e58139"] ;
763 -> 765 ;
766 [label="gini = 0.0\nsamples = 1\nvalue = [4, 0, 0]\nclass = T", fillcolor="#e58139"] ;
762 -> 766 ;
767 [label="dysgeusia <= 0.5\ngini = 0.52\nsamples = 333\nvalue = [339, 162, 43]\nclass = T", fillcolor="#f3c5a3"] ;
595 -> 767 ;
768 [label="throat dryness <= 0.5\ngini = 0.52\nsamples = 311\nvalue = [322, 150, 43]\nclass = T", fillcolor="#f3c4a2"] ;
767 -> 768 ;
769 [label="sore throat <= 0.5\ngini = 0.51\nsamples = 286\nvalue = [302, 131, 43]\nclass = T", fillcolor="#f2c19d"] ;
768 -> 769 ;
770 [label="nausea/vomiting <= 0.5\ngini = 0.45\nsamples = 231\nvalue = [267, 98, 21]\nclass = T", fillcolor="#f0b58b"] ;
769 -> 770 ;
771 [label="sPO2% <= 96.5\ngini = 0.44\nsamples = 213\nvalue = [252, 84, 21]\nclass = T", fillcolor="#efb185"] ;
770 -> 771 ;
772 [label="pulse rate <= 119.5\ngini = 0.52\nsamples = 102\nvalue = [101, 37, 21]\nclass = T", fillcolor="#f1bd97"] ;
771 -> 772 ;
773 [label="respiratory rate <= 19.5\ngini = 0.48\nsamples = 85\nvalue = [89, 30, 13]\nclass = T", fillcolor="#f0b68c"] ;
772 -> 773 ;
774 [label="Weight <= 91.5\ngini = 0.61\nsamples = 29\nvalue = [25, 12, 11]\nclass = T", fillcolor="#f6d2b8"] ;
773 -> 774 ;
775 [label="dyspnea <= 0.5\ngini = 0.47\nsamples = 17\nvalue = [17, 10, 0]\nclass = T", fillcolor="#f4cbad"] ;
774 -> 775 ;
776 [label="cough <= 0.5\ngini = 0.48\nsamples = 11\nvalue = [11, 7, 0]\nclass = T", fillcolor="#f6d1b7"] ;
775 -> 776 ;
777 [label="diarrhea <= 0.5\ngini = 0.3\nsamples = 6\nvalue = [9, 2, 0]\nclass = T", fillcolor="#eb9d65"] ;
776 -> 777 ;
778 [label="Tempreture <= 37.35\ngini = 0.32\nsamples = 5\nvalue = [8, 2, 0]\nclass = T", fillcolor="#eca06a"] ;
777 -> 778 ;
779 [label="gini = 0.0\nsamples = 4\nvalue = [8, 0, 0]\nclass = T", fillcolor="#e58139"] ;
778 -> 779 ;
780 [label="gini = 0.0\nsamples = 1\nvalue = [0, 2, 0]\nclass = r", fillcolor="#39e581"] ;
778 -> 780 ;
781 [label="gini = 0.0\nsamples = 1\nvalue = [1, 0, 0]\nclass = T", fillcolor="#e58139"] ;
777 -> 781 ;
782 [label="Age (yr) <= 41.5\ngini = 0.41\nsamples = 5\nvalue = [2, 5, 0]\nclass = r", fillcolor="#88efb3"] ;
776 -> 782 ;
783 [label="gini = 0.0\nsamples = 2\nvalue = [0, 4, 0]\nclass = r", fillcolor="#39e581"] ;
782 -> 783 ;
784 [label="no prominent effect <= 0.5\ngini = 0.44\nsamples = 3\nvalue = [2, 1, 0]\nclass = T", fillcolor="#f2c09c"] ;
782 -> 784 ;
785 [label="gini = 0.0\nsamples = 2\nvalue = [2, 0, 0]\nclass = T", fillcolor="#e58139"] ;
784 -> 785 ;
786 [label="gini = 0.0\nsamples = 1\nvalue = [0, 1, 0]\nclass = r", fillcolor="#39e581"] ;
784 -> 786 ;
787 [label="chest pain <= 0.5\ngini = 0.44\nsamples = 6\nvalue = [6, 3, 0]\nclass = T", fillcolor="#f2c09c"] ;
775 -> 787 ;
788 [label="weakness <= 0.5\ngini = 0.32\nsamples = 3\nvalue = [4, 1, 0]\nclass = T", fillcolor="#eca06a"] ;
787 -> 788 ;
789 [label="gini = 0.0\nsamples = 1\nvalue = [0, 1, 0]\nclass = r", fillcolor="#39e581"] ;
788 -> 789 ;
790 [label="gini = 0.0\nsamples = 2\nvalue = [4, 0, 0]\nclass = T", fillcolor="#e58139"] ;
788 -> 790 ;
791 [label="prolonged fever/dyspnea/cough <= 0.5\ngini = 0.5\nsamples = 3\nvalue = [2, 2, 0]\nclass = T", fillcolor="#ffffff"] ;
787 -> 791 ;
792 [label="gini = 0.0\nsamples = 1\nvalue = [1, 0, 0]\nclass = T", fillcolor="#e58139"] ;
791 -> 792 ;
793 [label="Duration of starting complaints <= 1.5\ngini = 0.44\nsamples = 2\nvalue = [1, 2, 0]\nclass = r", fillcolor="#9cf2c0"] ;
791 -> 793 ;
794 [label="gini = 0.0\nsamples = 1\nvalue = [0, 2, 0]\nclass = r", fillcolor="#39e581"] ;
793 -> 794 ;
795 [label="gini = 0.0\nsamples = 1\nvalue = [1, 0, 0]\nclass = T", fillcolor="#e58139"] ;
793 -> 795 ;
796 [label="Tempreture <= 36.25\ngini = 0.57\nsamples = 12\nvalue = [8, 2, 11]\nclass = i", fillcolor="#e2d1f9"] ;
774 -> 796 ;
797 [label="gini = 0.0\nsamples = 2\nvalue = [4, 0, 0]\nclass = T", fillcolor="#e58139"] ;
796 -> 797 ;
798 [label="sPO2% <= 95.5\ngini = 0.51\nsamples = 10\nvalue = [4, 2, 11]\nclass = i", fillcolor="#bb94f1"] ;
796 -> 798 ;
799 [label="gini = 0.0\nsamples = 1\nvalue = [0, 1, 0]\nclass = r", fillcolor="#39e581"] ;
798 -> 799 ;
800 [label="Weight <= 100.0\ngini = 0.46\nsamples = 9\nvalue = [4, 1, 11]\nclass = i", fillcolor="#b68cf0"] ;
798 -> 800 ;
801 [label="Height <= 181.5\ngini = 0.36\nsamples = 8\nvalue = [2, 1, 11]\nclass = i", fillcolor="#a06bec"] ;
800 -> 801 ;
802 [label="no prominent effect <= 0.5\ngini = 0.22\nsamples = 3\nvalue = [0, 1, 7]\nclass = i", fillcolor="#9355e9"] ;
801 -> 802 ;
803 [label="gini = 0.0\nsamples = 2\nvalue = [0, 0, 7]\nclass = i", fillcolor="#8139e5"] ;
802 -> 803 ;
804 [label="gini = 0.0\nsamples = 1\nvalue = [0, 1, 0]\nclass = r", fillcolor="#39e581"] ;
802 -> 804 ;
805 [label="dyspnea <= 0.5\ngini = 0.44\nsamples = 5\nvalue = [2, 0, 4]\nclass = i", fillcolor="#c09cf2"] ;
801 -> 805 ;
806 [label="gini = 0.0\nsamples = 2\nvalue = [2, 0, 0]\nclass = T", fillcolor="#e58139"] ;
805 -> 806 ;
807 [label="gini = 0.0\nsamples = 3\nvalue = [0, 0, 4]\nclass = i", fillcolor="#8139e5"] ;
805 -> 807 ;
808 [label="gini = 0.0\nsamples = 1\nvalue = [2, 0, 0]\nclass = T", fillcolor="#e58139"] ;
800 -> 808 ;
809 [label="dyspnea <= 0.5\ngini = 0.37\nsamples = 56\nvalue = [64, 18, 2]\nclass = T", fillcolor="#eda775"] ;
773 -> 809 ;
810 [label="Diastolic blood pressure <= 87.5\ngini = 0.33\nsamples = 38\nvalue = [45, 12, 0]\nclass = T", fillcolor="#eca36e"] ;
809 -> 810 ;
811 [label="headache <= 0.5\ngini = 0.44\nsamples = 27\nvalue = [25, 12, 0]\nclass = T", fillcolor="#f1bd98"] ;
810 -> 811 ;
812 [label="nose stiffness <= 0.5\ngini = 0.35\nsamples = 21\nvalue = [24, 7, 0]\nclass = T", fillcolor="#eda673"] ;
811 -> 812 ;
813 [label="Tempreture <= 36.85\ngini = 0.29\nsamples = 20\nvalue = [24, 5, 0]\nclass = T", fillcolor="#ea9b62"] ;
812 -> 813 ;
814 [label="body pain <= 0.5\ngini = 0.09\nsamples = 14\nvalue = [19, 1, 0]\nclass = T", fillcolor="#e68843"] ;
813 -> 814 ;
815 [label="gini = 0.0\nsamples = 11\nvalue = [17, 0, 0]\nclass = T", fillcolor="#e58139"] ;
814 -> 815 ;
816 [label="respiratory rate <= 22.0\ngini = 0.44\nsamples = 3\nvalue = [2, 1, 0]\nclass = T", fillcolor="#f2c09c"] ;
814 -> 816 ;
817 [label="gini = 0.0\nsamples = 2\nvalue = [2, 0, 0]\nclass = T", fillcolor="#e58139"] ;
816 -> 817 ;
818 [label="gini = 0.0\nsamples = 1\nvalue = [0, 1, 0]\nclass = r", fillcolor="#39e581"] ;
816 -> 818 ;
819 [label="Age (yr) <= 44.5\ngini = 0.49\nsamples = 6\nvalue = [5, 4, 0]\nclass = T", fillcolor="#fae6d7"] ;
813 -> 819 ;
820 [label="Systolic blood presure <= 121.5\ngini = 0.44\nsamples = 5\nvalue = [2, 4, 0]\nclass = r", fillcolor="#9cf2c0"] ;
819 -> 820 ;
821 [label="gini = 0.0\nsamples = 2\nvalue = [0, 3, 0]\nclass = r", fillcolor="#39e581"] ;
820 -> 821 ;
822 [label="fever <= 0.5\ngini = 0.44\nsamples = 3\nvalue = [2, 1, 0]\nclass = T", fillcolor="#f2c09c"] ;
820 -> 822 ;
823 [label="Gender <= 0.5\ngini = 0.5\nsamples = 2\nvalue = [1, 1, 0]\nclass = T", fillcolor="#ffffff"] ;
822 -> 823 ;
824 [label="gini = 0.0\nsamples = 1\nvalue = [0, 1, 0]\nclass = r", fillcolor="#39e581"] ;
823 -> 824 ;
825 [label="gini = 0.0\nsamples = 1\nvalue = [1, 0, 0]\nclass = T", fillcolor="#e58139"] ;
823 -> 825 ;
826 [label="gini = 0.0\nsamples = 1\nvalue = [1, 0, 0]\nclass = T", fillcolor="#e58139"] ;
822 -> 826 ;
827 [label="gini = 0.0\nsamples = 1\nvalue = [3, 0, 0]\nclass = T", fillcolor="#e58139"] ;
819 -> 827 ;
828 [label="gini = 0.0\nsamples = 1\nvalue = [0, 2, 0]\nclass = r", fillcolor="#39e581"] ;
812 -> 828 ;
829 [label="Gender <= 0.5\ngini = 0.28\nsamples = 6\nvalue = [1, 5, 0]\nclass = r", fillcolor="#61ea9a"] ;
811 -> 829 ;
830 [label="Age (yr) <= 36.0\ngini = 0.5\nsamples = 2\nvalue = [1, 1, 0]\nclass = T", fillcolor="#ffffff"] ;
829 -> 830 ;
831 [label="gini = 0.0\nsamples = 1\nvalue = [1, 0, 0]\nclass = T", fillcolor="#e58139"] ;
830 -> 831 ;
832 [label="gini = 0.0\nsamples = 1\nvalue = [0, 1, 0]\nclass = r", fillcolor="#39e581"] ;
830 -> 832 ;
833 [label="gini = 0.0\nsamples = 4\nvalue = [0, 4, 0]\nclass = r", fillcolor="#39e581"] ;
829 -> 833 ;
834 [label="gini = 0.0\nsamples = 11\nvalue = [20, 0, 0]\nclass = T", fillcolor="#e58139"] ;
810 -> 834 ;
835 [label="BMI <= 30.45\ngini = 0.45\nsamples = 18\nvalue = [19, 6, 2]\nclass = T", fillcolor="#efb184"] ;
809 -> 835 ;
836 [label="anorexia <= 0.5\ngini = 0.58\nsamples = 12\nvalue = [9, 6, 2]\nclass = T", fillcolor="#f8ddc9"] ;
835 -> 836 ;
837 [label="Systolic blood presure <= 117.5\ngini = 0.57\nsamples = 11\nvalue = [9, 5, 2]\nclass = T", fillcolor="#f6d1b7"] ;
836 -> 837 ;
838 [label="pulse rate <= 92.0\ngini = 0.28\nsamples = 3\nvalue = [5, 1, 0]\nclass = T", fillcolor="#ea9a61"] ;
837 -> 838 ;
839 [label="gini = 0.0\nsamples = 2\nvalue = [5, 0, 0]\nclass = T", fillcolor="#e58139"] ;
838 -> 839 ;
840 [label="gini = 0.0\nsamples = 1\nvalue = [0, 1, 0]\nclass = r", fillcolor="#39e581"] ;
838 -> 840 ;
841 [label="amnesia <= 0.5\ngini = 0.64\nsamples = 8\nvalue = [4, 4, 2]\nclass = T", fillcolor="#ffffff"] ;
837 -> 841 ;
842 [label="Tempreture <= 36.3\ngini = 0.64\nsamples = 7\nvalue = [4, 3, 2]\nclass = T", fillcolor="#fbeade"] ;
841 -> 842 ;
843 [label="gini = 0.0\nsamples = 1\nvalue = [2, 0, 0]\nclass = T", fillcolor="#e58139"] ;
842 -> 843 ;
844 [label="Height <= 180.5\ngini = 0.65\nsamples = 6\nvalue = [2, 3, 2]\nclass = r", fillcolor="#d7fae6"] ;
842 -> 844 ;
845 [label="gini = 0.0\nsamples = 3\nvalue = [0, 3, 0]\nclass = r", fillcolor="#39e581"] ;
844 -> 845 ;
846 [label="pulse rate <= 101.0\ngini = 0.5\nsamples = 3\nvalue = [2, 0, 2]\nclass = T", fillcolor="#ffffff"] ;
844 -> 846 ;
847 [label="gini = 0.0\nsamples = 2\nvalue = [0, 0, 2]\nclass = i", fillcolor="#8139e5"] ;
846 -> 847 ;
848 [label="gini = 0.0\nsamples = 1\nvalue = [2, 0, 0]\nclass = T", fillcolor="#e58139"] ;
846 -> 848 ;
849 [label="gini = 0.0\nsamples = 1\nvalue = [0, 1, 0]\nclass = r", fillcolor="#39e581"] ;
841 -> 849 ;
850 [label="gini = 0.0\nsamples = 1\nvalue = [0, 1, 0]\nclass = r", fillcolor="#39e581"] ;
836 -> 850 ;
851 [label="gini = 0.0\nsamples = 6\nvalue = [10, 0, 0]\nclass = T", fillcolor="#e58139"] ;
835 -> 851 ;
852 [label="BMI <= 26.26\ngini = 0.65\nsamples = 17\nvalue = [12, 7, 8]\nclass = T", fillcolor="#fae4d5"] ;
772 -> 852 ;
853 [label="Tempreture <= 36.1\ngini = 0.22\nsamples = 5\nvalue = [1, 7, 0]\nclass = r", fillcolor="#55e993"] ;
852 -> 853 ;
854 [label="gini = 0.0\nsamples = 1\nvalue = [1, 0, 0]\nclass = T", fillcolor="#e58139"] ;
853 -> 854 ;
855 [label="gini = 0.0\nsamples = 4\nvalue = [0, 7, 0]\nclass = r", fillcolor="#39e581"] ;
853 -> 855 ;
856 [label="myalgia <= 0.5\ngini = 0.49\nsamples = 12\nvalue = [11, 0, 8]\nclass = T", fillcolor="#f8ddc9"] ;
852 -> 856 ;
857 [label="gini = 0.0\nsamples = 6\nvalue = [9, 0, 0]\nclass = T", fillcolor="#e58139"] ;
856 -> 857 ;
858 [label="Systolic blood presure <= 143.0\ngini = 0.32\nsamples = 6\nvalue = [2, 0, 8]\nclass = i", fillcolor="#a06aec"] ;
856 -> 858 ;
